2708 128
1697 -0.41630846 0.5758192 -0.30521277 -0.11593812 0.63198894 -0.41333964 -0.15889812 -0.110755235 0.55931497 -0.21783593 -1.1173466 -0.16244617 0.31024894 0.8122969 -0.13659514 0.37052944 0.29318678 0.8327757 -0.26516742 -1.0053126 -0.0805325 0.22120668 0.026634391 -0.37929505 0.39153698 0.39575836 0.55865496 -0.3073213 -0.06534978 0.1773283 -0.2735781 -0.15940006 0.020607084 0.16072518 0.21727692 -0.039735578 -0.10126719 0.8785041 0.7772378 -0.046139307 -0.5462656 -0.46318755 0.9610378 0.06318904 0.008446955 0.113137744 0.6322922 -0.0072173327 -0.05608838 -0.47482297 -0.7720697 -0.6039158 0.6945512 0.7566295 -0.2481628 -0.23459412 -0.13709748 1.0706236 -0.5044834 -0.48539382 0.071415 0.13364491 0.20731561 1.0001972 -0.16624658 -0.62482375 -0.8853283 0.073239565 0.7567419 0.41851512 -0.18256463 -0.53443664 -0.32243663 -0.0928969 -0.65710306 0.36916044 -0.14740853 -0.80928564 0.49096298 0.17038806 0.37622565 0.0068985354 0.31764516 0.5028236 -0.21617813 -0.9070225 0.35442758 0.31269085 -0.3432495 -0.89694434 -0.7579163 0.68145174 -0.8621736 0.2205508 0.493461 -0.0140350675 0.3527946 0.23448361 -0.29370904 -0.514369 -0.8976716 -0.2910873 0.60035324 -0.4489874 -0.6270005 -0.0817821 0.25987282 -0.27711552 0.09536028 -0.093879335 0.3972871 -0.69793266 -0.23513994 0.17972317 -0.18616734 0.28871083 0.09967223 -0.2788161 0.4791194 0.055165287 0.21949267 -0.010978913 0.0054403734 -0.8379092 -0.17630486 0.2914575 0.6832078 0.33812645
1062 0.6991642 0.8005405 -0.07757303 0.30306852 0.6191747 0.022565503 0.15155914 -0.38263294 -0.13454944 -0.38740945 -0.16023073 -0.5449659 0.79205954 -0.28915098 0.2919001 0.35352483 0.34496632 0.013368837 0.33155048 0.07218801 -0.6548101 0.38336712 0.20197111 -0.24044569 -0.18152046 0.30574474 0.7942539 0.3824938 -0.6409942 -0.49408832 -0.06715932 0.33713874 0.4030899 0.12843147 0.31481385 -0.3004348 -1.1525339 -0.42458168 0.9056393 0.9000044 -1.0080572 -0.20230584 -0.2886093 0.5877238 -0.50463367 -0.04330965 -0.18165007 0.11021115 0.006858716 0.080422856 0.14305599 0.031423677 -0.72089475 1.0083447 0.26943305 -0.039002012 -0.6404583 0.222593 0.23111618 0.030254947 -0.38491952 0.031557344 -0.44629788 0.44423258 0.26526183 -0.450019 0.18051293 0.26799798 0.710365 0.16897884 0.085289344 0.12557402 -0.60820997 0.27712962 -0.4332513 0.31165233 -0.2968096 -0.228327 0.38303065 -0.16062988 -0.20888217 0.28496823 0.7042066 -0.03530751 -0.38034296 -0.34405604 0.16637996 -0.014863708 -0.442433 -0.4519219 -0.39588267 0.52014667 -0.684247 0.2501354 0.1790146 -0.33441728 0.28126875 0.09272 -0.93650067 0.10132403 -0.6674248 0.4811113 0.5766367 -0.41869894 -0.12381667 0.31294104 -0.12448418 -0.08082224 0.32850137 0.47547987 0.64772445 -0.56126875 0.063913755 0.29559386 -0.36627072 -0.5664679 0.6557409 0.25844207 1.0542564 0.064405635 0.93050444 0.63340443 0.18407522 -1.0840901 -0.071159296 0.25715894 0.0627712 0.6021456
2450 -0.2935376 -0.759568 -0.7829144 -0.30650952 0.20501016 -0.109593704 -0.03775648 0.6455019 0.011251485 -0.16542016 0.6491829 0.28731784 -0.77875525 -0.840424 -0.034777988 0.21478081 -0.26549885 -0.9664854 -0.033211287 0.5643879 -0.8796518 -0.24686606 -0.48126087 -0.3128208 0.20512313 -0.97678316 0.15416597 0.5094004 0.32139915 -0.03593966 -0.4592913 -0.15491563 -0.25899598 -0.6513637 -0.6533946 0.8655449 0.6157358 0.99082434 0.37912408 -0.69286776 -0.011083883 0.17284867 0.5660534 -0.8485965 0.26170975 -0.014546523 0.1742998 -0.1264346 0.4042045 0.08138741 -0.76737285 0.5936135 0.4048169 -0.0022790758 -0.25686505 0.48552096 0.2705975 0.15870343 0.099547796 -0.05649419 -0.19117004 -0.044486396 0.18971264 -0.056784708 0.9265223 -0.6789743 0.49717584 0.32864267 0.02941407 0.2609186 0.21958186 0.22575639 -0.47558966 0.23241916 -0.2911223 0.18401054 -0.07419859 0.7670563 -0.2776774 -0.43839097 0.69839776 0.38069317 -0.118256494 0.20444745 -0.9944731 -0.6212742 0.80980253 -0.11465158 0.02219466 -0.015007023 -0.18155488 0.4531378 0.680051 -0.072469346 -0.5972116 0.639352 0.91219544 -0.7209238 0.6115933 0.52842313 1.2941548 -0.2089519 -0.3755525 -0.38249412 -0.34252536 -0.28237185 -0.16983542 -0.70944536 -0.4865819 0.535822 -0.15143317 -0.24640569 0.5455309 -0.6387488 -0.8327311 0.25535735 -0.23231535 0.44555643 0.3765625 0.6098708 0.22451377 0.14924347 0.24514906 -0.34254852 -0.35900334 0.048205666 -0.32719025 -0.31787667
26 -0.43224174 -0.15204746 0.26471505 -0.042219434 -1.3168762 0.0121935485 0.57612675 -0.27036542 0.7522861 -0.69808936 0.5063399 -0.07424376 0.5762154 -0.9075717 -0.06000978 0.013555881 -0.34473678 -0.4863939 0.06430615 -0.7629418 0.43305048 -0.46987 0.28638235 -0.6166702 0.073985085 -0.3654567 -0.82016265 -0.5202312 1.0473162 0.50234914 0.4068423 0.360361 -0.47446144 0.42831582 -0.10957234 -0.0064702267 0.26622722 -0.5596882 -0.29320434 -0.61465645 -0.31748104 -0.72384703 -0.28168988 -0.42366543 -0.13867986 -0.055726543 1.0968385 -0.067178965 0.56739867 -0.5122079 -0.07911458 0.110321924 -0.2403136 -0.23236185 -0.3753916 0.25448877 -0.051366623 -0.31754157 0.39614624 -0.04407434 0.15776445 0.2218658 -0.2465755 -0.2047881 0.5680305 0.46305594 -0.47628906 -0.15637505 -0.56100094 -0.16865605 -0.3380608 0.6157552 0.3444966 0.32358906 -0.94761777 -0.27597082 -0.82495993 -0.47217286 0.8813348 -0.31949574 0.44828752 0.46773356 -0.26686236 0.19470893 0.47157872 -1.1285883 0.06948356 0.30886877 -0.04471746 0.6035666 0.02637507 0.32492998 -0.7225948 -0.2508223 0.5770766 -0.7744465 0.27389258 -0.20538218 0.4506408 -0.07110921 0.31204125 -0.613813 -0.6850785 -0.5160336 0.020481987 0.07517478 0.6926767 -0.17741969 0.3165715 0.029279836 -0.47868133 0.37604788 -0.21491528 0.10692751 -0.025630038 -0.64821196 -0.3652751 -0.44921783 -0.09405487 0.0407263 -0.121180154 -0.5652145 -0.19978338 0.4210467 0.2091755 0.3678205 -0.08792843 0.7195898
1921 0.50082314 1.4616331 -0.1777809 -0.3014838 -0.07243533 -0.18977927 -0.27566442 -0.42894375 0.10301349 0.71055067 -0.3712031 0.61577064 -0.37462097 -0.62996405 0.87836146 0.39788732 0.08779053 -0.097443245 0.0021823538 -0.42604125 -0.19237639 0.08550125 -0.016726974 0.29723802 0.3431006 0.45154205 0.2616432 0.3079826 -0.46165612 0.5725328 0.11262255 -0.26343822 -0.31793225 -0.03639823 -0.0034249406 0.48754492 -0.72471625 -0.09794772 -0.4992881 -0.09999791 0.18698464 0.6224242 0.05007671 0.12707917 -0.9015955 0.44622883 0.14273496 -0.36014205 0.30835667 -0.2138447 -0.2721815 -0.28005987 0.022492044 0.4224801 -0.41667718 0.050051887 0.3735054 -0.020248707 -0.5227955 -0.09372297 -0.046844073 -0.15314448 0.348448 0.46212938 -0.5048686 0.3832109 -0.36135218 0.20587857 0.34556538 -0.45736453 -0.22157288 0.1387569 0.6492299 0.4861065 0.59403384 -0.09228936 0.6389512 -0.107317954 -0.027347378 0.6033944 0.20735632 -0.3463366 0.5845545 -0.20287845 -0.3843287 -0.063043505 -0.009053765 0.5480071 -0.4492199 0.22194077 0.36847466 -0.3206048 0.4684391 0.12294405 -0.24042106 -0.41420168 0.11961508 -0.0025265384 -0.03576449 0.31972542 0.20974413 -0.07291953 0.5819997 0.51207626 -0.35016966 -0.15262887 -0.073033296 0.5409002 -0.316885 -0.05581502 0.43334565 0.15738276 0.61806756 -0.049224176 0.646748 0.10771888 -0.15900326 -0.015971676 0.17334665 0.45719212 -0.79967505 0.14108941 0.35480008 -0.3871621 0.37393162 0.42813057 0.45407185 -0.30448893
1917 0.0683115 -0.28078902 0.6148348 0.60786647 -0.40260494 0.1517225 0.37767556 0.5714852 0.45229408 -0.6599554 0.35158083 0.61187047 0.681905 -0.59157073 0.5410634 0.1560314 -0.10413111 -0.6661486 0.13763306 0.08246755 0.2630657 -0.30185455 0.6364991 -0.3963708 -0.36097822 0.068949774 -0.18285464 0.14533466 0.8695751 0.4213249 0.28195336 -0.418101 -0.8221943 0.19928856 0.65597266 -0.12394949 0.070905775 -0.5197284 -0.010351375 -0.6846203 -0.550197 -0.37430868 0.5338483 -1.2906243 -0.5810896 0.102887005 0.23327807 -0.14130533 0.17833371 -0.4731843 0.13067968 -0.6474541 -0.20607474 0.03644302 -0.25372234 0.14551021 -0.13824466 -0.62507445 0.41175306 0.072816536 0.2756847 0.19468597 -0.54048175 -0.5468856 0.44647032 0.950282 0.029601602 -0.18527085 -0.81799906 0.23602617 -0.7173778 0.18525536 0.01432707 -0.06764782 -0.5220123 -0.20482284 -0.07293685 -0.35374007 0.5537617 0.74608624 0.38806787 0.25910294 -0.47680432 0.12156659 0.3343765 -0.39009473 -0.26494077 -0.27313218 0.21159439 0.17347793 -0.40392506 0.04791108 -0.22124295 -0.7504461 0.13729867 -0.6328499 -0.295822 -0.51090026 0.42415392 -0.14842892 -0.31618634 -0.5842524 -0.7156449 -0.8514266 0.47903013 0.2502762 0.63127536 -0.01166009 0.34172425 -0.30176836 -0.071366265 0.7556471 -0.2902507 -0.534365 0.10867122 -0.24921423 -0.33749586 -0.7894825 -0.32434332 -0.16736141 0.06813631 -0.7523303 -0.47664925 0.57248485 1.0526348 0.17314374 0.035391837 0.72007984
1093 -0.19318412 0.46378914 0.5957623 -0.13776188 0.5906761 -0.6218108 -0.22989932 -0.10454717 0.50758046 0.081261694 -0.29506052 -0.4016858 0.5754988 -0.08995233 0.41754624 0.08216545 0.15094239 0.12851131 -0.19400138 -0.05267821 -0.5851454 0.5877743 0.39242238 -0.42233604 -0.26254 0.13500875 0.7942759 0.47722828 0.25637954 -0.42979193 -0.11133645 -0.23845263 0.055538952 0.710594 0.396254 -0.6442076 -0.821016 -0.04949824 0.4965503 0.23287149 0.08167049 -0.18832558 0.7210338 0.3133109 0.4685185 0.20452486 -0.026399368 1.1475792 -0.24075261 -0.46239316 0.063131265 -0.38680845 0.26307157 0.33487785 0.4687545 -0.15839936 -0.034783836 0.06053288 -0.048471935 -0.12549545 -0.22938587 -0.16441542 -0.22437502 0.01822197 -0.19706377 -0.6835544 -0.4817086 0.13109569 0.21881029 0.49056974 -0.10649292 0.24564615 -0.04976625 0.6525644 -0.71439093 -0.36844647 -0.2621494 -0.23117086 0.2858817 0.08033343 0.0658461 -0.27972165 0.40768328 0.4079975 -0.1603874 -0.7508931 0.08708317 0.08276855 0.5281632 0.091742426 -0.6663074 -0.1438941 -0.37505993 0.15460102 0.516234 -0.63558364 0.45822263 -0.5398385 -0.4278064 0.34940022 -0.08296564 -0.50142616 0.63721323 0.81300974 -0.3275748 0.6707815 -0.008574934 -0.044832565 0.3958691 -0.27303886 0.09216671 -0.28916526 -0.46735615 0.6386608 -0.086259514 0.67959744 0.45903185 -0.09644689 0.23125324 0.29609823 0.5596037 0.27210268 0.5962815 -0.052625783 -0.5453523 0.07816478 0.0701101 0.03467881
2637 0.36760497 0.030599173 0.0010653269 -0.33257264 -0.15852585 -0.019293439 -0.04450088 -0.923808 -0.7492223 -0.30207804 0.36267492 -0.113435246 -0.32866383 -0.74992496 -1.0099056 0.22458318 0.091623 0.23220775 -0.18096176 -0.49005413 0.53877157 0.37490252 0.4831599 0.122526936 0.36789978 0.45869783 0.13047822 -0.44660863 -0.06248899 0.07483887 0.50686246 0.28874335 0.3775284 -0.79013085 -0.6381014 -0.24497156 0.19854803 0.26550356 0.15062532 0.6326412 0.3989273 0.18500383 0.41602525 -0.07804619 0.0046040053 -0.23643932 0.059304476 0.19818203 -0.53440124 0.9789315 -0.059717778 -0.2561887 0.14212635 0.45335537 0.32380885 0.22575757 -0.09397585 0.7847305 0.046271034 0.78993475 0.29847598 0.48260644 0.5519249 -0.23995355 0.09560741 0.17488837 -0.20694277 0.39494443 0.027161205 -0.16967803 -0.18776385 -0.15670078 0.39883557 -0.07147462 -0.5835622 0.57700557 0.5941186 0.3168781 -0.028916635 0.27388954 -0.4789725 -0.14773072 -0.2147777 -0.71621823 0.74914765 0.48879105 -0.2630053 -0.6216564 0.307119 0.37524098 -0.4627304 -0.55939335 -0.52728605 0.45228097 -0.28884462 0.21294318 -0.14991495 0.78132355 -0.9143323 -0.7167714 -0.0943373 -0.19035856 -0.36924195 0.70524216 -0.13102412 -0.19980738 -0.6820268 0.05634521 0.43721044 0.055565 -0.6825923 0.24966154 -0.106247686 -0.44997036 -0.77000093 -0.28622943 0.49271694 0.14820851 -0.71393096 -0.13959642 -0.15548311 0.33649084 0.25357738 -0.18679631 -0.22059232 -0.31738216 -0.6853899 0.08762664
2454 -0.5668802 -0.08292991 0.17479303 -0.012501287 -1.3609195 0.034934867 0.74165165 -0.5123178 0.546093 -0.49774846 0.7707861 -0.012334356 0.46199948 -0.72729707 0.06451886 0.13042422 -0.75312865 -0.724392 -0.2766134 -0.59043896 0.43806332 -0.44823706 0.23748532 -0.7936216 0.018142818 -0.449465 -0.887774 -0.40634024 0.8147929 0.40637544 0.29142678 0.28205726 -0.7360886 0.5029031 -0.14086148 0.09045198 0.28290188 -0.72993845 -0.42143285 -0.58848804 -0.21536492 -0.7962349 -0.30839396 -0.47809774 -0.18661247 0.10958668 1.0763755 -0.3209418 0.55453104 -0.3688452 -0.24386773 -0.20767356 -0.16156957 -0.3648962 -0.20818782 0.066822335 -0.14167759 -0.25898468 0.15256599 -0.07891909 -0.020696035 0.4063099 -0.3169989 0.028044548 0.5485189 0.5973031 -0.45764655 -0.12649202 -0.9997867 0.11912463 -0.32954687 0.45171556 0.29943702 0.22180621 -0.78625417 -0.26706868 -0.88795716 -0.5694845 0.97440356 -0.43482953 0.46628976 0.3628868 -0.10142495 0.34420887 0.7675243 -1.2099568 0.18302345 0.38295048 0.16404197 0.47590894 0.055142432 0.2813015 -0.87813777 0.023285475 0.623907 -0.75826436 0.06250882 -0.025151009 0.59332263 -0.025303148 0.4210422 -0.42331403 -0.80211365 -0.50550073 -0.34719402 0.28342757 0.8019968 -0.055640496 0.37305507 0.09949813 -0.19982304 0.4624212 -0.1665363 0.220537 -0.043194424 -0.59947944 -0.34005913 -0.43355858 -0.3416092 0.27962577 -0.24178426 -0.3309967 -0.28138664 0.40515783 0.05611368 0.2826731 -0.10037927 0.9295313
614 0.5310311 -0.06144901 0.4365243 0.66094166 -0.43095437 0.5328641 -0.7899863 -0.2027594 -0.121406786 0.45426893 -0.23206948 0.41228417 -0.41039193 -0.37514523 0.29731297 0.48654398 0.23486564 -0.19211622 0.0456825 -0.35837865 0.21997748 -0.22276825 -0.1760025 0.22680387 0.5503625 0.15384176 -0.4627793 -0.34471387 -0.01730578 0.2292698 0.2676195 0.037283305 -0.2272 -0.024296576 -0.40065143 0.45304525 0.0041374555 -0.44243932 -0.46917725 -0.3576087 0.49097875 0.31768122 -0.25586554 -0.025956055 -0.37274003 0.30028498 -0.37288937 0.018983103 -0.13800208 -0.2215955 0.14170821 -0.08516918 -0.062123753 -0.50689363 -0.08787999 -1.2285664 -0.3432976 -0.024919499 0.17161377 -0.45780614 0.3470052 -0.087877564 0.48633173 0.12986782 0.488842 0.52822983 -0.598784 0.3621347 0.009858025 -0.49206585 0.22632243 -0.20619383 0.21074508 0.4591257 0.6074213 -0.47426575 -0.23822011 0.057527065 -0.42363113 0.031331763 -0.07110077 -0.0016781855 0.13274191 0.47694063 -0.057264138 0.76253957 0.24732788 0.59236735 -0.7832835 -0.2656887 0.3334881 -0.10770135 0.5482401 0.60203683 0.33857435 0.107692 -0.12506539 0.06308539 -0.6083497 0.14525302 -0.3997319 0.47355813 0.21104789 -0.18706597 0.07092267 -0.36210817 0.7916016 0.30911842 0.19762851 -0.1088614 0.2759833 0.18581924 0.13579309 -0.21950689 0.14953308 -0.04116296 0.48572516 -0.063271716 0.44313195 0.5394125 0.091091 0.27122867 0.67352253 -0.0034815315 -0.38920814 0.08817255 1.2187599 -0.3035187
2239 -0.24354248 -0.018772904 0.51440537 -0.07311012 -0.07537841 -0.1152768 0.3729646 -0.53202784 -0.55425775 -0.32393953 -0.20317766 -0.10476456 -0.38687575 -0.09685091 -0.681094 -0.10221736 0.019453488 0.7182517 0.040594775 -0.09071832 -0.44984806 0.34064603 0.49582407 0.5424395 0.39210266 0.673288 -0.5181867 -0.4527709 -0.24619605 -0.028477892 -0.5519843 -0.0076505807 0.2504171 -0.48240513 -0.32169423 0.06054669 0.4476563 0.66312706 0.3217987 0.07986804 0.279595 0.35008946 -0.119759366 -0.008223749 -0.12004828 -0.36145744 0.3521361 0.24618879 -0.113180555 0.43377873 -0.089968406 0.59541273 0.1767082 0.8855344 0.8776173 0.696644 0.13697205 0.2960933 0.08060833 0.45758945 0.43663538 0.3169413 0.5799349 -0.1199185 0.34181565 0.5497629 0.6054987 0.3550949 0.7793644 0.16668913 -0.14680137 -0.39799565 0.3264917 -0.18806766 -0.2606441 0.21225426 0.55780524 0.41905525 0.43410718 0.47532415 -0.6689028 -0.2860866 -0.3062637 -0.6066661 -0.31994903 0.37460926 -0.12879287 -0.26931804 0.057071425 0.44877467 -0.036112532 -0.78789943 -0.40355328 0.27184194 -0.38546976 0.05095864 -0.6542393 0.18330246 -0.47757426 -0.36355335 -0.5237641 0.0830529 0.40740666 0.49317905 0.56948227 -0.3581178 -1.2277353 -0.108529575 0.008391724 0.27049944 -0.24634175 0.42395988 -0.2290287 0.19879925 -0.22578077 -0.13826303 -0.13590361 0.1384436 -0.14806326 -0.24572858 0.1180275 0.08258607 -0.0128569715 -0.18212034 0.37881714 -0.57139903 -0.35946658 -0.0027646106
1951 0.3089998 -0.1426892 0.77492684 -0.25089183 0.9970334 -0.38245645 -0.2511897 -0.3481307 0.116743796 -0.47437736 -0.3079926 -0.63485545 0.8276053 0.15280686 0.51479185 -0.3501064 0.32683602 0.29138213 0.23071648 -0.088428445 -0.598838 0.028487254 0.36364007 -0.5534637 -0.226485 0.31057966 0.483657 0.44529456 -0.5751266 -0.3206654 -0.17230183 -0.16079916 -0.547429 0.36951867 0.42093742 -0.94887614 -0.703193 0.20101224 0.41345003 0.78920656 -0.10086045 -0.098523654 0.37870702 0.07231382 0.6028381 -0.34003273 -0.019102456 0.36088592 -0.46969414 -0.3705153 -0.10793299 -0.3164286 0.30064428 0.53556395 -0.010313236 -0.023607407 -0.03701603 0.2714477 0.5497645 -0.059177026 -0.0616939 -0.11824817 -0.090976775 0.3800487 0.058458097 -0.107006244 0.08833531 -0.013026061 0.32509702 -0.030302264 -0.15974157 -0.13124798 -0.25084448 0.13891302 -0.32614294 0.56065035 -0.20240207 -0.1754003 0.41459262 0.36002308 -0.5007746 0.03645502 0.044168893 0.83631295 -0.10906259 -0.84929043 0.43812993 0.12152045 0.009244477 0.1974156 -0.4366241 0.12722018 -0.45832878 0.15869659 0.33270347 -0.2364002 0.518991 -0.22798495 0.09843943 0.020190045 -0.4456467 -0.8992292 0.337757 0.044211607 -0.11579035 0.6155362 0.14244062 -0.5622104 0.41205806 0.059620343 0.052560676 -0.2960235 -0.10807827 0.8968986 -0.4752815 0.9222499 -0.15657017 0.2539392 -0.016077438 0.21861343 0.4298227 0.4985541 0.4918863 -0.19096215 -0.27690056 0.15038133 -0.30919248 0.23017688
615 0.40830058 -0.1733746 -0.22613463 -0.032307554 0.09272488 -0.3309774 -0.0907164 0.036303196 -0.3476635 -0.10023764 0.6520061 -0.23873955 -0.25438002 -0.15751255 -0.228004 -0.05689204 -0.3410593 -0.17544013 0.37478745 0.46756998 -1.1848729 -0.13358322 -0.40383807 -0.32099915 0.023975981 -0.4019098 0.3360253 0.3858101 0.17552541 -0.39591417 0.02578669 -0.30746976 0.22664851 -0.31738868 -0.6152924 -0.00041189138 0.71686727 0.56485724 0.41999492 -0.4185331 -0.29212764 0.121338494 0.5860709 0.026773015 0.3268209 -0.059104808 0.49957326 -0.1353389 0.38803914 0.025618909 0.11344831 0.3563363 0.40967262 -0.7585124 -0.20210034 0.37543744 -0.5771074 -0.36535904 0.034609772 -0.07329993 0.24930821 0.17431016 -0.01352356 0.43272272 -0.0027387054 -0.64392 0.5767161 0.071885884 -0.02601927 -0.059116863 0.06076707 0.5377851 0.007212026 -0.26753712 -0.22658835 -0.038816217 -0.027228193 0.6109675 -0.35186666 -0.5389667 0.63185483 0.51874536 0.22462142 -0.50560606 -0.71614736 -0.51275754 0.47515827 -0.21150406 0.5664627 -0.3827178 -0.7593092 0.0058818487 0.66331846 0.106377535 -0.27848917 0.30155578 0.99262184 -0.33638987 0.16810949 0.44759712 0.30243972 0.39041692 -0.027146552 0.10881086 -0.3819198 -0.32789066 -0.053857446 0.29415008 0.16479047 0.077835254 -0.9188317 0.06712168 0.38904145 -0.66562 -0.25922227 0.4538989 -0.2893794 0.380686 0.07343041 0.47294503 0.402903 0.2219792 -0.09804555 0.0006598253 -0.8007342 0.52656597 -0.25295606 0.111182764
1530 -0.48856992 -0.33449638 0.13915345 -0.50943583 -0.14324218 -0.10308355 0.66446793 -0.27787572 -0.49050274 -0.2630261 -0.3425208 -0.31273147 -0.2830861 -0.34451973 -0.80977 -0.026530404 0.057459198 0.73571295 0.025453817 -0.3469098 -0.5716125 0.37448657 0.71875995 0.48447108 0.41942394 0.68872243 -0.20874506 -0.18488696 -0.3365529 -0.34155485 -0.4361917 0.10381688 -0.015663743 -0.59673595 -0.44930738 0.64838064 0.034193873 0.25871578 0.5246769 -0.28939548 0.18544325 -0.3108535 0.41606772 -0.14314003 0.033734165 -0.21136235 0.41870415 0.49609774 -0.017171135 0.20739022 0.41888258 0.43615383 0.09758709 0.6152164 0.81919146 0.798817 -0.15795684 0.15213846 -0.0018797126 0.4003657 0.58674395 0.6031105 0.52543676 -0.3962559 0.39994746 0.066834174 0.0844461 0.5675863 0.6996109 0.36867523 0.31451976 -0.29332218 0.1973605 0.34133515 -0.4158668 -0.33810884 0.23286162 0.8364637 0.78640616 -0.2900347 -0.7611153 -0.008431928 0.06892659 -0.5942067 -0.30371106 0.3938867 0.19669893 -0.5794284 0.50518984 0.07306072 0.3912087 -0.8797522 -0.28750598 -0.3296795 -0.6001379 0.16254143 -0.2847253 0.2052265 -0.53141403 -0.57088995 -0.59946877 -0.08050272 -0.16505747 0.11040209 0.8201408 -0.7746804 -1.1846639 0.1023537 -0.08465538 0.023669638 -0.19591002 0.57889646 -0.420977 0.0031798035 -0.47076693 -0.513596 -0.060509175 0.12648599 -0.552422 -0.44580907 -0.1101946 0.35733268 0.10264497 0.104444854 0.059930388 -0.5706881 -0.36000246 -0.20232318
1606 0.020894904 -0.6763134 -0.25942203 0.0034142705 0.15594158 -0.22370896 -0.23102292 0.36617193 -0.30924347 -0.07944484 0.42107686 -0.28974608 0.18787654 -0.2061613 -0.07999103 -0.18594043 -0.11101015 0.10665811 0.8010088 0.13369603 -0.65342236 -0.19591461 -0.3073695 -0.25748876 -0.30399156 -0.33701068 0.59728444 0.34139493 -0.26607266 -0.28444168 -0.2510826 0.16444649 0.015021102 -0.18907888 -0.32457653 0.04865589 0.3561564 0.5171739 0.2650076 -0.38298076 -0.514914 -0.12193831 0.2229429 0.22743781 0.4585537 -0.35295638 -0.07728281 -0.09809439 0.0986777 -0.28197607 -0.37312096 0.5971657 0.09791667 -0.5716272 -0.2670862 0.43894586 0.06788511 -0.010436665 -0.366575 -0.101322755 0.17459881 -0.5741551 -0.059967738 0.08986259 0.25653052 -0.8276651 -0.28629372 -0.16656774 0.2963861 0.13980003 0.15896882 0.036426272 0.20458509 -0.088168256 -0.2879912 0.09421857 0.35872957 0.33675182 -0.10531358 -0.16825281 0.42335245 0.4717279 0.15944622 -0.42177248 -0.38262615 -0.31972623 0.060918774 0.0633736 0.14387439 -0.2838608 -0.69161946 0.12274173 0.13451642 0.46017134 -0.35636678 0.13061668 0.378577 0.066385746 0.07073606 0.2532145 0.322733 0.109206006 -0.30407044 0.5507107 0.11564106 -0.43256116 -0.34200636 0.28874335 -0.5563024 0.0037433878 -0.5003749 -0.42819658 0.46550655 -0.93635076 -0.12917097 0.49961042 0.16829324 0.659618 0.2362843 0.10415828 -0.062181316 0.09450909 0.50623333 -0.018118525 -0.93489563 0.029154949 -0.5504162 -0.38265052
2361 0.7122548 0.060406055 0.7192122 0.3555327 0.2096449 -0.012838346 0.002747111 -0.47562405 0.08891442 0.17127195 -0.1960025 0.3570688 -0.2015538 -0.12312517 -0.04562125 0.0900339 0.19426 -0.5704727 0.41145104 -0.1930402 0.54479265 -0.12073628 0.20304492 0.27765104 0.48381594 0.81416565 -0.2663867 0.1585863 -0.42840067 -0.75261426 -0.18932912 -0.32785013 -0.30579636 -0.16287053 -0.5277579 -0.166991 -0.3183883 -0.37441087 0.21815237 0.26122922 0.20319633 0.6443039 -0.08984713 0.29440388 -0.7722794 0.28923348 -0.5928926 -0.5081278 0.17274608 0.07492649 0.0812109 0.19108157 0.38414654 -0.33779532 -0.3138958 -0.8955512 -0.051418092 -0.59118754 0.26595312 -0.6968883 -0.13918492 0.01234209 0.26656005 -0.05235714 -0.18045285 0.08905897 -0.050719656 -0.0085121095 0.9715089 -0.38455954 0.11789568 -0.004350145 0.12685621 0.6830861 0.2583239 -0.05587921 -0.10091977 0.061577506 -0.3751975 0.066576436 -0.22030316 0.22550896 -0.5568727 0.14539084 -0.033326667 0.06822261 0.20662186 0.13140158 -0.31195918 0.30707967 0.02248323 -0.843438 0.137056 0.5427666 -0.824749 0.2701184 0.34819165 -0.27543908 0.10530113 0.415761 -0.12559034 0.57361823 0.25929627 0.6307126 -0.09968916 -0.0060849674 -0.09644484 0.31209746 -0.41499525 -0.09611173 0.75463706 0.30533934 0.33900806 -0.017339922 0.2912973 -0.16252774 0.18492202 -0.21834071 1.082487 -0.11427663 -0.1903594 0.53114665 0.02391817 0.20482257 -0.31765404 0.26861525 -0.022502856 0.22433376
712 -0.018498894 -0.41559643 0.49402645 0.47370428 -0.27936262 0.27538988 0.36304802 0.77927506 0.32049152 -0.5411631 0.42824438 0.22307388 0.27161282 -0.25737593 -0.16348137 -0.04174814 0.20459485 -0.52034473 -0.037222903 0.09826972 -0.08674603 -0.45319685 -0.085393615 0.11942402 -0.18603826 -0.05408183 -0.8440402 0.38178313 0.5880114 0.814537 0.32288283 0.14709756 -0.24652079 0.091926865 0.116585806 0.20680192 0.17626229 -0.16726772 0.36867613 -0.6830098 -0.32875878 -0.33237496 -0.011248888 -0.5931304 -0.8057578 0.18379721 -0.06959038 0.3360237 0.35401782 -0.32951385 -0.30761296 -0.61900884 0.003346854 -0.39257318 -0.26618403 0.38505137 -0.021451378 -0.48713034 0.3934957 0.057762995 -0.05252617 0.13777438 -0.21768092 0.22658712 0.300528 0.47965452 0.37206772 -0.27014247 -0.20001966 -0.13592125 -0.65210104 0.49275255 0.12889938 -0.32488412 -0.18219195 0.4098333 -0.22331646 -0.72374403 0.42393887 0.361194 0.2587163 0.15351133 0.25064474 0.31723833 0.17783804 -0.3713411 -0.13914342 -0.012017139 0.5733415 -0.38699454 0.015802085 0.1561352 -0.020667585 -0.2544066 0.1120916 -0.2536229 -0.11365773 -0.45313963 0.22283652 -0.3712955 -0.33104292 -0.58092225 -0.59209746 -0.12804 0.7913711 0.04312117 0.10643917 0.32020423 0.1088226 -0.04842537 -0.020680793 0.29813814 -0.05041992 -0.07464106 0.12006725 -0.51377964 -0.18328096 -0.4852121 -0.19402422 -0.34975302 0.092619486 -0.5109337 -0.30960205 0.5657971 0.7862119 -0.12182126 -0.37860787 0.65962327
589 -0.7795139 -0.39226884 -0.52776486 -0.007053378 0.08308526 -0.21471058 -0.051938765 0.2367819 0.20504434 0.7341471 -0.045488827 0.51363325 0.632436 0.7358522 -0.008141832 -1.1523889 -0.14401487 0.6573507 -0.23414329 0.630753 0.8961916 0.12163447 -0.7617571 0.10618112 0.32124725 -0.12050484 -0.14459895 -0.14220396 -0.46001884 0.9578314 -0.19821252 -0.27609512 0.47885004 0.16196185 1.1397562 0.48570618 0.22926551 0.05770706 -0.34103274 0.8679056 -0.12652506 0.29443273 -0.29119664 0.08151024 0.59062546 -0.612249 0.054758333 -0.14486541 -0.7858284 0.35196218 -0.33207688 -0.47031695 -0.033403896 0.24633183 -0.27050358 0.22754891 0.9187102 0.089423105 -0.8543099 -0.36775583 -0.5291585 -0.038384385 -0.1534966 0.18679136 -0.8853746 -0.678086 0.20002072 -0.36696103 -0.3537889 0.45450416 -0.65982896 -0.115499265 -0.34876058 -0.4674562 0.30583638 0.23510236 0.2238361 0.006544031 0.091728844 -0.17653935 -0.4358515 -0.32099715 0.113212034 -0.010848074 -0.050554473 0.7637958 -0.45926037 0.58289975 -0.51355 0.034806933 -0.31628948 -0.53285307 -0.52624714 0.33264208 -0.01938325 -0.025488459 -0.4327644 0.06663829 -0.42705533 -0.080506675 0.022223182 0.33032537 -0.45004022 -0.6692607 0.14973012 0.21151221 -0.36323562 0.22993107 0.35538393 0.25765246 -0.20244978 -0.33825523 -0.5618254 -0.14648452 0.010439504 0.3002994 -0.7326563 -0.2233345 0.25128758 -0.439969 -0.83907527 0.11805994 -0.07741734 0.69461066 -0.21547449 0.10696354 0.5174121 -0.35848135
2125 -0.34109628 0.045837846 0.11303299 -0.25947142 0.72518075 -0.10784633 -0.3488823 -0.21168882 0.05834876 -0.19265816 -0.53609616 -0.53138864 0.36607015 0.08571424 0.5060662 0.37377065 0.45743844 0.5949178 -0.00085518835 -0.28752196 -0.17271784 -0.1147211 0.4543419 -0.2253222 0.18875301 0.5834483 -0.10117124 0.10159416 0.043457966 -0.5108241 -0.32278076 -0.1645196 0.5464381 -0.49798676 0.17811465 -0.27779773 -0.043360107 0.31801873 0.3992342 -0.053115778 0.20734642 -0.040947247 1.3024229 0.23892699 0.70509297 -0.21065865 -0.111039646 0.6702337 0.22215115 -0.5084073 -0.49455613 -0.30643257 0.35377923 0.63798815 -0.28464592 0.6197642 -0.31340098 1.1281301 -0.18084794 0.29862922 -0.49624467 0.07575693 0.47855955 0.32814437 -0.7313858 -0.09627659 -0.28620797 0.34236318 0.8428158 0.42479578 -0.22420673 -0.527226 -0.13976583 0.66990983 -0.63615793 0.08829141 0.32755324 -0.1508255 0.51651484 0.28250122 -0.20186813 -0.23541339 -0.042467177 0.05736327 -0.4549894 -0.43137723 0.31359905 0.36039478 -0.40667403 -0.08464986 -0.5259847 0.18252711 0.10532813 -0.3489018 0.21136232 -0.43169326 0.044162102 -0.47180244 -0.2104701 -0.04367032 -0.7319134 -0.54006344 0.11075372 -0.31303126 -0.36136985 -0.018681217 0.4181589 -0.005547678 0.29020917 0.08224266 0.2754937 -0.17314067 -0.1270338 -0.12466071 0.055272374 0.581438 0.57809716 -0.17641708 -0.069553606 0.65704584 0.16749372 0.17717984 0.043096263 0.005999794 0.21104528 -0.2567202 0.6615531 0.10701333
2272 -0.3175646 0.3359118 0.09385808 -0.1426849 0.3470007 -0.25531036 -0.2815702 0.24452257 0.6045616 0.09132007 0.34389347 -0.072267 -0.8707689 0.27683142 0.6769625 0.32174897 0.5568667 -0.1578771 -0.2709252 0.1340885 1.2102474 0.4677536 0.00879058 -0.41476846 0.09724568 -0.27004024 0.39405635 0.06934451 0.3609628 0.06840841 0.07797968 -0.26271966 0.05443399 0.74219507 -0.120512895 -0.3465009 -0.13323969 -0.025981408 -0.26093674 0.47094274 0.38655996 -0.2885481 0.7043774 0.23120238 0.43908346 -0.06686301 -1.137529 0.079229966 -0.23360234 -0.25837106 -0.114429824 0.61389637 -0.37354818 -0.06232122 0.4104216 -0.19294842 -0.26967752 0.12361471 -0.42529777 0.5224001 -0.34812868 -0.1317368 0.0012957039 -0.4469857 0.23802103 -0.017467475 0.372793 -0.13737664 -0.4509021 0.38073745 0.83289826 -0.55879265 0.2215984 -0.46247402 0.6276506 -0.406393 -0.4539741 0.22043899 -0.43680453 -0.29663587 -0.48254383 -0.2057185 -0.3392217 0.28987077 0.09112231 0.50443536 -0.3452059 -0.55920565 -0.30271894 0.08108494 0.2548386 0.81042635 0.41368395 -0.4768137 0.2678851 0.3335439 -0.52522737 0.27004957 0.5948061 0.12852006 0.5225077 -0.11687428 0.7389772 0.2845353 -0.049175978 0.6068372 -0.40291482 -0.33898744 0.08160017 0.016367353 0.087895855 0.13199228 0.032904916 0.4064452 -0.35169873 0.46382847 -0.060619004 0.1469249 -0.47293335 -0.35238808 0.37698987 -0.6302957 -0.4602056 0.058108263 -0.17960688 0.053209595 0.09771767 -0.50478256
198 -0.08125742 0.07529126 -0.21019202 -0.3618995 0.17751308 -0.042038474 -0.19093955 -0.0078817345 -0.03838323 -0.10848895 -0.2468753 -0.07907966 0.049494445 -0.10907089 -0.23790097 -0.35455498 0.09037932 0.16980967 -0.030376922 -0.13254152 0.18253958 0.058361698 -0.0526903 -0.032516576 0.008209628 -0.10991478 -0.15216191 -0.5038051 -0.055447567 -0.26662147 -0.37508973 -0.04404449 0.16339988 -0.19103858 -0.61172825 0.43284923 0.5514526 0.11355192 0.17145324 0.42762324 -0.09732376 0.22254927 0.4259727 0.01640028 0.3651406 -0.39650854 0.10213355 -0.30377537 -0.22383901 0.49432686 -0.023917217 -0.33633995 0.24722143 0.39672014 0.07758062 0.58797556 0.17690668 0.4821839 0.0117208455 -0.17075479 -0.011451757 0.2716029 0.22460823 -0.6137386 0.052745525 0.12992957 0.24965984 0.558741 0.64020157 -0.12130037 -0.23895237 -0.41901597 -0.13910168 -0.28392154 -0.2796344 0.15226865 0.26692027 0.40997943 0.19387043 0.2434365 -0.38415322 -0.30369714 0.16086148 0.116759636 0.009065429 0.09006874 -0.20668285 -0.22833411 -0.15635614 0.06695056 -0.075644866 0.07605551 -0.40394747 0.35248736 -0.5960799 -0.3005851 -0.03580423 -0.25479674 -0.40152612 0.0041571474 -0.2042388 0.09216888 0.1523643 0.4396834 0.32519752 0.4942989 -0.06993374 0.13894053 0.62218976 0.17131037 0.1475952 0.5253902 -0.29350254 -0.11323485 0.23181276 0.12292721 0.31995836 0.22566128 -0.30010667 0.49697617 -0.57594365 -0.12224012 -0.41248673 -0.14519818 0.004495387 -0.4016844 -0.22087121 -0.38350466
2138 0.04550119 0.24257386 0.33168235 -0.030837912 1.2162756 -0.64575076 0.010154672 -0.2771453 0.18329225 -0.44244954 -0.3464488 -0.2971803 0.9955597 0.058340766 -0.16657831 0.28118807 -0.30435416 0.18954213 0.31364244 0.49616605 -0.23898463 -0.2194017 -0.07241162 0.011367062 0.26534295 0.55717355 0.11188613 -0.27033693 -0.53314435 -0.41733912 0.050029166 -0.01061618 0.20968847 0.09276041 0.2620172 -0.76148045 -0.6198688 0.2112827 0.10509845 0.12082691 -1.0698111 0.19476418 -0.20199043 0.39040008 1.0975494 0.19830477 0.23827016 0.6387942 -0.069015674 -0.20473938 -0.33599573 -0.9174227 0.10236583 -0.078624845 0.30422652 0.13573472 -0.067913376 0.46263868 0.1654439 0.044774875 -0.042286344 -0.31319913 0.07203709 0.3984263 -0.16766374 -0.4326743 -0.1979096 -0.123643965 0.3712648 -0.4628405 0.09101792 -0.43554562 -0.4073816 0.08912671 -0.23253952 0.12163325 -0.20116042 -0.109530896 0.3942371 0.48290437 -0.308981 -0.34918633 0.27837875 0.7080137 -0.5384836 -0.7619035 0.15530667 0.10357656 0.63780344 0.002782967 -0.058281228 0.47300056 -0.5874048 0.3833856 0.3172599 -0.23089798 0.23558944 -0.013472455 -0.66503567 0.1543628 -0.6658958 -0.6076884 0.03668518 -0.086512014 -0.13335313 -0.12507279 1.0502727 -0.59462464 -0.096040666 -0.298337 0.64515376 -0.17694852 -0.14277822 0.56436646 -0.8759635 0.5828775 0.47357526 -0.00033463445 0.11511529 0.16550106 0.7667575 0.64086246 0.62632966 -0.26512375 -0.09665995 0.23552695 0.36099145 0.43876132
326 0.3808072 -0.58487344 -0.258273 -0.106835976 0.3333016 -0.02416448 -0.24936295 0.20558041 -0.37328327 -0.2481543 0.45559567 -0.47902757 0.008397803 0.11866184 0.16665351 0.026154842 -0.4151371 -0.13225591 0.83598757 0.044140313 -0.5185113 -0.11181576 0.088780835 -0.46003604 -0.038429786 -0.32836542 0.37876526 0.3911358 -0.14947666 -0.45903453 -0.12026534 0.24977256 -0.621553 -0.12399619 -0.36611417 -0.0311177 0.59134674 0.58401644 0.37609604 -0.6049766 -0.21205275 0.2779933 -0.13666046 -0.06579932 0.0949387 -0.20309858 -0.025751913 -0.23970534 0.34584284 -0.23904094 -0.3568698 0.7819449 -0.20465486 -0.3587977 -0.052819185 0.421652 -0.25787994 0.09605135 -0.0397302 0.027840825 -0.04417283 -0.32263318 0.15991004 -0.006699686 0.47713977 -0.36272797 -0.34895515 0.26924217 -0.04107696 0.6087612 0.18691279 0.16563317 -0.19191252 -0.08866503 -0.014474808 0.16041122 0.20411925 0.41739315 -0.2437709 -0.40484607 0.73753774 0.3914884 0.24783704 -0.4287235 -0.57588744 -0.12021071 0.25094435 -0.2704415 0.4349503 -0.12958473 -0.55424005 0.07746866 -0.1847651 0.308299 -0.28801546 0.1467457 0.49284708 -0.16195066 0.28516042 0.19895506 0.54887754 0.10926153 -0.21653968 0.24578056 0.18899876 0.07076612 -0.24252921 0.0019691978 -0.70141256 -0.060494103 -0.62828666 -0.17314896 0.3429354 -0.9582836 -0.46951827 0.6725593 0.44309056 0.52616674 0.10406009 0.20285815 -0.01504902 -0.124637045 0.5364758 0.012963166 -1.1806433 0.0847398 -0.87964743 -0.63945585
1629 0.29070038 -0.748335 -0.41982153 -0.35919946 0.025919877 0.16306762 0.14763433 0.03358313 -0.54722136 -0.2459284 0.5494029 -0.20382231 -0.19659209 -0.3647889 0.34041893 0.017131831 -0.5131316 -0.80603963 0.27138928 0.17767863 -0.48111358 0.027904827 -0.066944435 -0.45702326 -0.32800713 -0.70761836 0.5362676 0.6431878 -0.61487484 -0.00465292 -0.0135406265 -0.20562457 0.036069453 -0.7760832 -0.8978127 -0.20774233 0.38302648 0.7179987 0.2300725 -0.7539094 0.21655901 0.35602364 0.3177694 0.047572978 0.14554437 0.22681035 -0.22825697 0.15642132 0.40759897 -0.5886651 -0.35190782 0.43379822 0.39094105 -0.511797 0.36181045 0.45468703 -0.4168185 0.2111481 -0.13690831 -0.31706518 0.47178108 0.3360778 0.4313501 0.30168313 0.6103701 -0.24431819 0.2175743 -0.20250392 -0.29109555 -0.09358282 0.34559977 0.39817607 0.06511422 -0.2407057 -0.4372934 0.33893186 0.3616048 0.16945699 -0.03894811 -0.717358 0.54154396 0.48483017 0.09174193 -0.35910916 -0.14626761 -0.38558614 0.3813816 0.2669601 0.89700884 -0.7358718 -0.26788396 0.18767501 0.40403944 0.18819664 -0.07703866 -0.026050605 0.29790697 -0.81963575 0.50708586 -0.20132144 0.7599429 0.39434835 -0.5433463 0.24311016 -0.46774662 -0.098430306 -0.61104137 -0.06840651 -0.2273662 -0.19470525 -0.28033042 -0.0787951 0.8059964 -1.0927211 -0.036795538 0.079568885 0.15865645 0.22469737 0.31801537 0.3392741 0.405484 0.117282264 0.2269908 -0.112254985 -0.5586864 0.28606343 -0.44869292 0.08931804
2606 0.40949 0.7579478 0.34232807 0.3063824 0.7082998 -0.39659354 -0.2427296 -0.8196633 0.65503734 -0.24906805 -0.76268786 -0.6713732 0.6221384 0.19685091 -0.053994726 0.46453312 0.24075589 0.15358461 0.16548504 -0.4674352 -0.11681431 -0.31578004 0.34204343 -0.3628898 0.34847978 0.4619117 0.6425611 0.39439 0.018536609 -0.39733776 0.10815818 -0.27547988 0.1817326 0.7456517 -0.13563539 -0.70043623 -0.35440376 0.21497758 0.1436527 0.16343167 -0.8588937 0.14585394 0.625267 0.96450406 0.22172078 -0.41142282 0.18643975 0.35653108 -0.8690657 -0.47917813 -0.7063582 -0.013920363 0.13558899 0.23193139 -0.254832 -0.6382281 -0.57444984 -0.22940956 0.34981087 0.5039517 -0.39934474 0.06467753 -0.2947618 0.17321855 0.20506316 -0.9582392 -0.0468861 -0.0010116994 0.21698548 -0.11514466 0.062138043 0.09922772 -0.1910062 0.25286654 -0.5816977 0.41295153 -0.041137263 -0.4037498 0.5226496 -0.09787135 -0.1599367 0.35598233 0.036678392 0.91205144 -0.42790693 -1.044096 0.22597024 0.19235434 -0.14023317 -0.13854316 -0.048842907 0.12825933 -0.026691856 0.61148894 0.052790068 -0.33085185 0.6175224 -0.21912804 -0.7402217 0.47858617 -0.7681981 -0.46247053 0.19773634 0.17430152 -0.1009392 0.118729785 0.546118 -0.58410996 0.56086814 -0.32565275 0.11710113 0.22764082 -0.027735911 0.67375696 -0.3947392 0.009154375 0.39082608 0.24685882 0.08527776 -0.03176541 0.7740335 0.23796031 0.07342181 -0.37451077 -0.54081047 0.5835201 0.53467506 0.42771974
2044 0.36952993 -0.16334288 0.7729692 -0.30820638 0.4354372 -0.41905165 -0.8992812 -0.67387235 0.5094733 -0.13374484 -0.8205648 -0.039782085 0.09470549 0.08864459 0.49436796 -0.17494327 1.0392133 0.40854514 -0.13547285 -1.1997997 -0.8952283 -0.42561072 0.61323935 -0.52775013 0.2971952 0.20046681 0.41920963 0.62516713 -1.457342 -0.17615041 0.13771975 -0.28658715 0.46445355 0.8533986 -0.14395115 -0.6728553 -0.8855326 0.38814408 0.8651737 0.61697584 -0.16346698 0.03643864 0.45585632 0.1508031 0.108244665 -0.7791585 0.37901226 0.28119737 -0.40873218 -0.9604597 -0.48883998 -0.668299 0.35251084 0.5733034 -0.07372638 -0.62002575 0.51883787 0.1560728 0.6864518 0.560254 -0.19256341 -0.3791822 0.34233868 0.53281313 -0.20948787 -0.23333937 -0.358229 0.49559173 0.58571565 -0.015118205 0.17008556 -0.03178188 -0.20577075 0.3470596 -0.7608728 0.68346053 0.08672766 -0.72932816 0.3656714 0.3309592 -0.30496797 -0.71897113 -0.19281378 0.18345088 0.14631557 -0.5777137 -0.16453224 0.1527801 0.34312665 -0.60949135 -0.71021 0.25621438 -0.9573474 0.028114509 0.06799787 0.26985592 0.22402436 0.05014728 -0.34731328 -0.577046 -0.6479099 -0.55981076 0.6261637 1.2382812 -0.317451 -0.08953822 0.3168248 0.15108414 -0.024144396 0.07428597 -0.24041313 0.040557556 0.09012591 0.12292301 -0.5056526 -0.48152557 -0.0025248686 -0.07228555 -0.05347409 -0.2722997 -0.1178352 0.64012975 -0.25723323 -0.45796573 0.071317025 0.6264998 -0.1269673 0.8260705
1534 -0.3296831 -0.46445984 -0.2643573 -0.15475695 -0.20629968 0.060468543 -0.28824976 -0.69924664 -0.25600055 -0.26185924 0.046710216 0.14738683 -0.3466198 -0.39702865 -1.1393349 0.37665403 0.7903129 0.5873151 -0.35196757 -0.24087904 0.08250419 0.0952717 0.088466436 0.47388452 0.22858359 0.6512516 -0.3934777 -0.53215456 -0.22813368 -0.09946143 -0.11998496 0.36794624 0.47385883 -0.5318311 -0.045678742 -0.1950549 -0.3546457 -0.32293373 0.36918792 -0.27657732 0.29572448 0.2152646 0.11831491 -0.62818676 0.4718623 -0.8435895 -0.3806058 -0.19062126 -0.34320536 0.45555958 0.030050676 0.06847609 0.14839022 0.4231167 0.18258026 0.45580658 0.65450066 0.8439893 -0.26970017 0.99801105 0.40585595 0.38781038 0.086454615 -0.10672114 0.12963708 0.5725376 -0.09620401 0.25810325 0.3312974 -0.3777206 -1.0805069 -0.55376434 0.52772707 0.113295 -0.2430164 0.17312765 -0.17339973 0.37011072 0.1917263 0.19574924 -0.7394111 -0.32837912 -0.569865 -0.51683474 0.7251144 0.39531946 -0.25303462 -0.43803057 0.3550975 0.13649371 -0.31663835 -0.93770033 -0.3865146 0.5842804 -0.17869318 0.68223256 -0.46646208 0.9426325 -0.65303344 -0.42576313 -0.51813143 -0.8203188 -0.10300131 0.59004414 0.42838708 -0.22575061 -0.4978866 -0.2002014 0.08606623 0.024182953 -0.81781584 -0.21314368 -0.22274673 -0.3504234 0.0021476634 0.2960887 0.62122667 0.09769888 -0.83964235 -0.19103947 -0.2880398 0.98463356 0.083261184 -0.38088036 0.1447082 -0.6571414 -0.5411044 0.5439803
2438 0.2982053 -0.040677432 -0.15208185 -0.4970492 0.39273274 -0.5524925 0.32888493 -0.060496096 -0.09588521 -0.30669746 0.6669523 0.50307244 0.06984264 -0.16222797 -0.18622276 -0.35738176 -0.1492562 -0.6403641 0.47633028 -0.19328302 -0.31010887 -0.1267654 0.0032837885 0.34993026 0.2641163 -0.2669587 0.12954211 0.017753668 0.10406347 0.03641284 0.24641608 -0.6031877 -0.29206425 0.178563 -0.36100823 0.0010193652 -0.59454244 -0.037575405 0.38215706 0.238323 -0.40725222 -0.3447848 0.12249665 0.058608264 0.008000174 -0.3847302 -0.039638333 0.6563137 -0.021751365 -0.21915476 0.034209903 -0.00046479376 0.35204062 -0.3062989 0.47998938 0.70760864 0.054172087 0.37200007 -0.53597987 0.042278975 0.116056524 0.07232376 -0.18614765 0.3525212 0.03732557 -0.05610002 0.42884383 0.044313073 -0.32090658 -0.13585992 0.16635971 0.25234762 0.278403 0.13053168 0.07614376 -0.10140693 0.16554795 -0.3939491 0.0071857497 -0.08631994 -0.08443363 -0.45345142 0.4420891 -0.13979103 -0.14829524 -0.559097 0.31632638 0.21597452 -0.32134128 0.09678474 -0.006956123 -0.08288558 -0.4227358 0.20904875 -0.08069083 -0.15448786 -0.45630178 0.108220816 -0.09574117 -0.5038067 -0.08995866 -0.06991778 0.29636538 0.31762508 0.008774502 0.27963677 0.22827774 0.58853537 0.51622325 0.026119977 0.3339285 0.037162744 -0.0892536 0.19042262 0.14148389 0.1574455 -0.17385232 0.026493147 0.3367395 -0.24882886 -0.2025026 -0.1497557 0.09137452 -1.0111727 -0.19837256 -0.20750797 0.12246953 -0.42277682
1499 0.57060236 -0.2880867 -0.26619515 -0.3143051 0.18740043 -0.1753001 -0.2179434 0.5328072 0.24624717 -0.16041955 0.75381666 -0.043383233 0.23773189 0.1438465 -0.15517019 -0.15049323 -0.29242232 -0.24100754 -0.0019910294 0.08308741 -0.09072151 -0.15151258 -0.22356191 -0.4949964 -0.10595148 -0.53999025 0.41794294 0.13339117 -0.19121745 -0.34050608 -0.08813318 0.83112556 -0.15264201 -0.22362046 0.06875679 0.008942149 0.5984932 0.6815762 0.053805023 -0.7163588 -0.22979812 0.12510233 0.30211294 0.1785404 0.6517538 -0.03453172 0.019677883 0.20344858 0.38508737 -0.10629093 -0.15586343 0.33171898 -0.18915246 -0.6289517 -0.5214898 0.6008424 -0.25060627 0.30609378 -0.25799167 -0.14858362 -0.16721353 -0.59172755 0.11040299 0.2909792 0.37190545 -0.6905095 -0.10775994 -0.08794272 -0.14163277 0.690911 0.15085189 0.101842515 -0.001615921 -0.21801353 0.094026625 0.27806288 0.24633299 0.0788996 -0.24046385 -0.71295905 0.17823575 0.17323409 0.109443426 -0.12066926 -0.7161366 -0.11666703 0.43483952 0.05601012 0.06869713 -0.3908076 -0.42850178 0.14798796 -0.15634492 0.020168241 0.046902552 0.13609418 0.16794279 0.117596835 0.16658828 0.17095792 0.11996118 -0.11749628 -0.13961793 0.5241454 0.11230695 -0.031138513 -0.087148726 -0.0820258 -0.5524071 -0.04258702 -0.16845532 -0.6751028 0.16640612 -0.36491495 -0.64210415 0.7345934 0.21642232 0.20254607 0.031942554 0.12350796 -0.23657636 0.027995372 0.2754515 0.08081698 -0.83480555 -0.0016693315 -0.78762573 -0.40913227
1177 -0.21169342 0.3845823 0.77532697 -0.19200207 0.7886902 -0.33159655 -0.3506999 -1.0366634 -0.053092226 -0.14756463 0.09987713 -0.1696772 0.6988058 -0.24570158 0.0088807475 -0.13562754 0.074322216 0.4658655 0.05988281 -0.5225047 0.13845421 -0.029068958 0.46504745 -0.057070903 0.25255796 0.13508397 -0.22264901 -0.17361498 -0.17901962 0.16024446 0.048724674 -0.0924993 0.43562892 0.4903328 0.25446317 -0.7025267 -0.30799755 0.23321961 0.08832359 0.81724316 -0.14584322 -0.23989275 -0.33252788 0.28602514 0.4995254 -0.28956684 0.18949106 0.32343167 -0.33100104 0.052932672 -0.018448044 -0.21287303 -0.2664715 0.06468761 0.048712738 0.18135242 0.36885837 0.4541045 0.38359702 0.50529355 -0.26288486 0.15908328 -0.7915905 -0.26991516 -0.36818185 -0.51340777 -0.2958788 0.3069628 0.38088888 -0.515897 0.24336846 0.034728985 -0.28254345 0.3496379 -0.3690888 0.3695472 -0.4041126 -0.60448235 0.31439787 0.19395386 0.111695945 0.4270564 0.5424948 0.47220725 0.064944334 -0.7412228 -0.5600876 0.10944508 0.34906405 0.04974721 -0.42212963 0.06011388 0.11773175 0.30283117 0.32364684 0.42578772 0.38324112 0.0669231 0.063834034 -0.19149108 -0.58102554 -0.04327665 0.5655892 0.5409444 -0.36050564 -0.23865652 0.46307877 -0.43817726 0.1984811 -0.3684143 -0.16475014 -0.422062 0.11895 0.61376894 0.11357625 -0.019986574 -0.43580857 0.1911835 0.048937164 0.9939484 0.3905463 -0.0023036953 -0.37723604 -0.3939926 -0.88618684 -0.43689102 -0.05810795 0.81861585
139 -0.5405433 -0.2368096 -0.303889 0.029574689 0.12249493 0.12332119 0.15858495 0.18557076 -0.23208366 0.7352662 -0.08983072 0.47974125 0.53054076 1.0992776 -0.19942991 -0.6277309 -0.1682652 0.85867304 0.17307504 0.4523498 0.35077694 0.051025875 -0.52923226 0.27550364 0.3331347 0.06967038 0.15258314 -0.4593414 -0.12434209 0.5708209 -0.60088027 0.42626405 0.20735252 0.16865335 0.44884172 0.64685524 0.25713387 0.117545396 -0.35135955 0.5089536 0.08174318 0.16517067 -0.603015 0.22790004 0.29460528 -0.5748632 -0.24926242 0.07170923 -0.4691794 0.22314525 -0.046808723 -0.27476647 -0.30110762 0.009595898 -0.4215292 0.44906127 0.41349906 -0.08677605 -0.5543754 -0.41880047 -0.72188014 -0.5742093 -0.8162 0.013892765 -0.5320947 -0.5613901 -0.11813563 -0.6246518 0.07249503 0.21248761 -0.42167032 0.43961248 -0.3711041 -1.0616298 -0.01849544 -0.36300585 0.15105103 0.11785263 0.34817445 -0.13664477 -0.17270891 0.04931675 -0.1885138 -0.44131222 -0.5042002 0.45217046 -0.4061163 0.38776177 -0.7232195 -0.2247467 0.41790885 -0.74500346 0.052982748 0.08949905 0.079631 0.20316598 -0.46354768 -0.074349985 -0.16617411 -0.3389002 -0.085197575 0.6265743 -0.3233184 -0.74949473 0.17591345 -0.010415319 -0.09220743 0.4501852 0.3695801 0.22644144 -0.104259804 0.124240406 -0.54515684 0.053496398 0.28603876 -0.10445321 -0.677303 0.28819627 0.76141506 -0.56929153 -0.6384037 -0.6403965 -0.26849368 0.45999548 0.042808775 -0.16193683 0.10667962 -0.23374552
2667 0.033581223 0.6390086 0.45354393 0.27105433 0.77883446 -0.4193687 -0.012269236 -0.5657551 0.36673564 -0.30899784 0.27838454 -0.57180077 1.228833 -0.053143106 0.0876369 0.08400282 0.47543332 -0.10183828 0.33376688 -0.24367031 -0.30321392 0.21083121 0.21585062 -0.5160992 -0.47228438 0.05663019 0.15535562 -0.04530049 -0.33764312 -0.3739822 0.14323182 0.2539091 0.77339286 0.14257622 0.24060361 -0.5435351 -0.5140417 -0.25169545 0.7012285 0.59371597 -0.8534857 -0.41957954 -0.15986837 0.42432424 -0.0015459573 -0.4315072 -0.5321855 0.19384906 -0.18431498 -0.8014664 -0.23618527 -0.47014943 -0.39247206 0.6388848 0.23370418 -0.39886224 -0.19863914 0.005083818 0.40480784 0.100566015 -0.059522867 -0.12927452 0.18789838 0.22133851 -0.30519176 -0.30023277 -0.20579067 -0.10147807 0.48289227 0.2139495 -0.19304924 0.39640138 -0.27532595 0.91631055 -0.3833523 0.4799496 0.09259711 -0.63334817 0.81759906 0.20174447 -0.14642474 -0.24286927 -0.27812374 0.94289124 -0.40511104 -0.5655036 0.0676062 -0.13322954 -0.20699988 -0.04677621 0.061206266 0.5748807 -1.0707703 0.0651641 0.397129 0.17570575 0.18583688 0.17185278 -0.638908 -0.12988195 -0.12510166 -0.39605823 0.62848264 -0.029587734 -0.1552746 0.60973424 -0.42530715 -0.08215589 -0.1171149 -0.016454615 0.20079885 -0.4167535 -0.26589838 0.58591086 0.4894903 0.31890923 0.77960736 -0.36713558 0.26701915 -0.3198552 0.7364054 0.18156414 0.25292093 -0.31147057 -0.6075344 0.29421908 0.2848139 0.47815487
481 0.88739747 0.06763595 -0.112100676 0.37929186 0.5612826 -0.40239897 0.31866536 -0.6095826 -0.6917698 -0.066568375 0.18208656 -0.11436305 0.020918578 -1.0529317 0.3160339 0.15348841 0.09792658 0.16453296 0.49489534 0.41183037 -1.30402 0.347371 0.08588621 0.037229277 0.038274657 -0.13914682 0.75455844 0.39076644 -0.28894404 -0.3370892 -0.48937798 -0.3174979 0.06876898 -1.0169182 -0.4065987 0.30712315 -0.20524774 0.113581195 1.0391388 -0.10935376 -0.6567948 0.44166154 0.17661785 0.1247293 -0.46705964 -0.4513351 -0.05764877 0.011776164 0.4735889 0.6438194 -0.34756476 -0.011778858 -0.41637337 -0.22981153 0.41085184 0.2700143 -0.7013921 0.15586783 -0.009968227 -0.5526139 0.5158445 -0.024136191 -0.1905501 -0.056164507 0.29133087 -0.2725081 0.31065536 -0.00900992 0.49940333 -0.47607005 -0.11988349 0.487836 -0.19631587 0.092691526 -0.41437104 -0.08766216 -0.2055505 0.59250844 -0.623863 -0.63374734 0.3930416 0.33092868 0.9397498 -0.3093358 -0.28047964 -0.64053243 0.6198807 0.1103336 0.029976582 -0.588127 -0.6821317 0.03442723 -0.0025105495 -0.3569388 -0.28076676 -0.077688865 0.75173485 -0.1777689 -0.20726015 0.47647268 -0.37514162 0.1763268 0.0455115 0.09021865 -0.068032786 -0.050444644 -0.018812336 -0.24208756 -0.34812284 0.36644885 -0.36242542 -0.36804885 0.06864142 -0.9772412 -0.16442944 -0.22414905 0.804861 0.24377684 1.1755953 0.03214651 0.7363443 0.93149066 0.54294634 -0.5064808 -0.07966747 0.47062534 0.32350814 0.5994037
1264 0.2519123 -0.12700813 0.59584904 -0.30777848 -0.1280366 -0.1869388 -0.059762582 -0.29392368 -0.4154617 -0.0375416 -0.07218789 -0.27585992 0.007087199 -0.46833977 0.2730476 -0.24942681 0.1959995 0.22019985 -0.20004389 -0.091400005 -0.39131123 -0.23712759 0.12805656 0.46364146 0.19970158 0.39830875 -0.35611263 -0.43586016 -0.300435 -0.30134198 -0.50079334 0.004759747 0.05053684 -0.38669345 -0.21887828 -0.30008978 0.06699748 0.3875648 -0.040339917 0.05078394 -0.085966006 0.92344 0.3379609 0.29993257 -0.54583406 -0.18447435 0.2635149 -0.19470395 -0.16862594 -0.3173801 -0.24588345 0.5016235 -0.12833677 0.30264154 0.41523355 -0.09135617 -0.15711993 -0.13274677 0.3806693 0.07686686 0.41746253 0.27671826 0.2855382 0.20101663 0.08075539 0.8112402 0.21648528 -0.0018198937 -0.19361883 0.14868066 -0.394881 -0.57069445 -0.32825014 -0.0801518 0.2893814 0.5118203 0.13686365 0.31568515 0.0882008 0.47617847 -0.21353151 0.075139806 -0.14646281 -0.16998209 -0.3385433 -0.64199036 0.05457526 0.22008358 -0.27769768 -0.09901413 0.1323659 -0.03315952 -0.553372 0.18714397 -0.09890589 -0.2534066 0.3266005 0.0008625146 -0.3295305 -0.14530143 -0.31650072 0.19781537 -0.28779474 0.859216 0.094010964 -0.5314189 0.0805196 -0.04893113 -0.5113037 0.28410295 0.20152242 -0.04678885 0.18059781 0.20392609 -0.11922279 -0.38618374 -0.13047016 -0.3195579 -0.38385776 -0.057438683 0.015469363 0.09238049 0.17276706 -0.056345217 0.031367306 -0.49943507 0.005882649 0.025363715
725 0.5629543 -0.40239313 0.10710652 0.36432794 -0.69145775 0.541747 -0.11092063 -0.3691631 0.09471945 -0.3470126 -0.6026231 0.080633916 -1.0402963 -0.49959645 0.25156012 0.0052957945 0.48162815 -0.5047859 0.19655786 -0.60180646 0.22825037 -0.09891475 -0.18118316 0.74664503 0.5904719 -0.027479384 -0.6493217 0.39624116 0.08604898 -0.32355338 0.5294858 -0.116674915 -0.5724474 -0.35917866 -0.28772193 0.16321701 -0.19827688 0.22915652 -0.7139753 -0.9972777 0.19522114 0.87482154 -0.8616793 0.51945823 -0.45091268 0.91846275 -0.4188235 -0.70787877 0.057644255 -0.07571826 0.2018755 -0.38253048 0.029444974 -0.0118148355 -0.29817164 0.045343805 -0.40729392 -0.40736458 0.3812405 -0.7148589 0.33919966 -0.53319293 -0.03232309 0.5737306 0.2409418 0.6806668 -0.5184032 -0.076869965 0.7294937 -0.95804834 -0.016864406 0.1124851 -0.1144845 0.4215745 0.8647202 -0.12890819 0.32222605 0.13224378 -0.49402177 0.3814618 0.20159994 0.45865992 -0.06240071 -0.12661174 0.61292195 0.08472091 0.15981527 0.3960212 -0.7753781 0.51901984 0.42314112 -0.40537345 0.70535743 -0.42438707 -0.49031085 -0.28391784 0.7475157 -0.5851874 -0.09079156 1.0174402 0.72102827 -0.112196624 -0.069788866 -0.121616185 0.03723438 -0.23538461 0.10933453 0.50863904 -0.5239266 0.21253711 0.2287197 0.7741193 0.6076009 -0.060267694 0.51538455 -0.2297517 0.36277297 -0.38708952 -0.18462668 0.06377138 -0.034068264 0.098999396 0.30068818 -0.015603403 -0.088903 0.54934984 0.47226357 -0.2335316
2326 -0.16827975 0.4657722 -1.0578786 0.12542948 -0.10874293 -0.21571927 -0.44323587 0.58855414 -0.008285293 0.17389011 0.17092173 0.040626533 -0.099924564 0.9200548 0.5713536 -0.12840526 -0.042938925 0.57834977 -0.41248795 0.68343645 -0.16207926 0.38778907 0.4022516 -0.26815277 -0.6314259 -0.5604249 0.046085518 0.4804304 -0.25128844 0.07369513 0.029855184 -0.42237827 0.2173985 0.82414055 0.02914382 -0.28431597 0.43472573 -0.051170375 -0.17682785 0.50839084 0.56672394 0.4533904 0.07398221 -0.20843059 0.15608963 -0.015906164 -0.17043483 0.60241514 -0.35209668 -0.15258932 0.09165267 0.5824653 0.12777929 0.47808346 0.3528372 0.29338098 -0.13008776 0.33255044 -0.27657342 -0.14256157 -0.6145225 0.090158395 -0.16229078 0.32443884 -0.28586575 -0.25637487 0.6578278 -0.53720725 0.20650922 0.82003516 0.21382427 0.13859236 -0.29672268 -0.629575 0.14599036 -0.4089446 0.011695845 0.14977196 0.07770302 -0.45430797 -0.19545427 -0.5063874 -0.88829994 -0.090330586 -0.4345863 0.55342543 -0.26389468 -0.30165803 -0.16104701 0.26678482 -0.19039431 0.21473019 0.84051305 -0.12429302 0.42288098 0.04944665 -0.44669947 -0.2450432 0.13530988 -0.3027705 0.48596418 -0.08382383 0.87670684 -0.26225606 -0.09643346 0.8873788 -1.0337226 -0.0020957943 0.022970624 0.14374936 0.26560256 -0.036851995 -0.0861169 0.53445494 0.24932857 0.5951663 -0.07481785 0.66831875 0.22628899 -0.069457054 0.12777402 -0.520528 -0.23806562 0.4677825 -0.47775227 -0.28494644 -0.12367608 -0.4126643
344 -0.43415508 -0.16298732 -0.7550008 -0.060819108 0.42084607 -0.3002781 -0.18656248 0.51450527 0.011705374 -0.103420556 -0.4648988 0.06180433 -0.49761462 0.6267313 0.56815255 0.11946237 0.08643187 -0.47412878 -0.5826272 0.047737796 0.9089963 0.82349646 -0.07851301 0.5087318 -0.09991929 -0.9166119 0.608197 0.16304757 0.124444105 -0.19524947 -0.22232853 -0.45220986 0.39791256 0.25564146 -0.3272361 -0.49365968 0.35951778 0.10402338 -0.538556 -0.13695458 0.3304663 -0.22763614 0.12383573 -0.22993971 0.18481043 0.68714833 -0.6617833 0.11096044 -0.31297484 0.15634856 -0.27844965 0.44801524 0.6387266 0.48494124 0.46788174 -0.09634563 0.5164539 0.84493876 0.03697356 0.7952916 0.06997346 0.6849827 -0.027722847 -0.03650442 0.2454038 -0.5455279 0.62233275 0.34560546 -0.0002893228 0.60644096 0.32790005 -0.42643258 -0.3485106 -0.437175 0.7297501 0.033491846 -0.7067184 0.69425917 -0.7944328 0.40867913 -0.52884305 -0.28611627 -0.5820138 0.23415068 0.29512015 1.0027333 -0.42895004 -1.1086551 -0.06377872 1.1681726 0.34379584 0.5290735 0.9431478 -0.33487839 -0.18895346 0.33642745 -0.238695 -0.51118445 0.92021143 0.75266 0.67673707 -0.18343191 0.00463451 -0.9252876 -0.5446521 -0.5458007 -0.052381903 -0.6524959 0.48479694 0.5271879 0.56502175 -0.37134197 0.45472917 -0.057270534 -0.30927357 -0.275792 0.26056594 0.715476 -0.003397921 0.18127322 -0.5069371 -0.6126516 -0.6361544 -0.023027973 0.1474987 -1.0347984 -0.101644725 -0.6588206
27 1.1252563 0.23998901 0.6165689 0.371051 0.1558502 0.32525215 0.23420691 -0.3154688 0.0269666 -0.10803874 -0.27022302 0.13225205 0.020240605 -0.12837406 0.3112996 -0.019803856 -0.12017239 -0.4823019 0.67215145 -0.0696523 -0.21340992 -0.07050792 -0.019791964 0.35256916 -0.0075693605 0.38973454 -0.27628678 0.15786645 -0.9133853 -0.16906619 -0.22284213 -0.6695861 -0.22231083 0.19227427 -0.42134857 -0.21428202 -0.39299512 -0.7143167 0.14005467 0.34237835 -0.28765696 -0.17936064 0.20423122 0.07964906 -1.3377814 0.23499306 -0.12184181 0.09234126 0.30746987 0.11319942 -0.07249292 -0.11149268 -0.09560414 -0.22989461 -0.14282261 -0.5694887 -0.24314612 -0.16502565 0.4246741 -0.685749 -0.30883545 -0.25289243 -0.05397749 0.10459613 0.5118332 0.30949703 -0.3786392 -0.112712815 1.6115791 -0.42850676 0.2713426 0.18543226 0.040259123 0.5970174 -0.06489797 0.37598616 -0.16597815 0.21369138 -0.28867704 -0.10573854 0.29298538 0.5339691 0.35302883 0.34674987 0.07159398 -0.28117114 0.44508046 -0.08324454 -0.18248434 0.24269605 -0.20498528 -0.019295616 -0.016393455 0.2721488 -0.2590467 0.27822545 0.5014772 0.012371136 -0.1697064 0.41552803 -0.6144733 0.88636875 0.79871505 0.66061115 -0.5952729 0.083211035 -0.2380797 -0.31957698 -0.4874466 0.1507068 0.8076132 -0.3333029 0.14645237 0.2722499 0.04350825 -0.28741026 0.22573613 -0.484605 0.57057315 -0.052729715 0.39411142 0.97969353 -0.042829845 -0.09669453 0.14447808 0.3887328 0.2755228 0.3392937
2432 -0.53333443 0.2176103 0.3225958 0.51149255 -0.120992266 -0.21616162 0.61669475 -0.038190726 -0.19235559 -0.14697233 -0.044317447 -0.17985255 0.31198254 -0.1327128 -0.042737763 -0.30070087 -0.110446714 0.38663715 0.8160248 -0.3034259 -0.60194564 -0.68921596 0.28292868 0.27802068 -0.111978054 0.118520275 -0.22245944 0.37521103 -0.3291566 -0.47919694 0.34031767 0.333652 0.10138051 -0.47227407 0.38624123 0.080013074 0.04531399 -0.5142877 0.692809 -0.02266183 0.5148518 -0.21587646 0.17605242 0.30226478 -0.21587737 -0.6080849 -0.09092838 -0.2709825 -0.20079301 -0.17510515 -0.16352525 0.07087824 0.6277035 -0.30712923 -0.17413467 0.041045874 -0.951595 0.55496764 -0.029301634 0.35812402 -0.75643456 0.67658985 -0.6430529 0.34915662 -0.26781607 -0.5102984 -0.47228587 -0.34284735 0.031548887 0.0026960662 -0.31068256 0.6024394 -0.44831458 -0.24909517 -0.42092565 0.8649873 0.16729878 -0.038755953 -0.18062633 -0.33543944 0.53295004 0.34900805 -0.0054443297 0.13383742 -0.023960104 0.5223396 0.25550783 0.29322994 0.27304333 -0.3725725 0.19219775 0.37224686 0.051286675 0.57244194 0.04805857 0.032703735 0.30472195 -0.116051815 0.46162656 -0.27765834 -0.11139915 0.44940996 -0.30243763 0.21051477 0.46638185 0.03207081 0.13654533 0.31572312 -0.015299036 0.29315332 0.347543 -0.21342166 0.25323108 0.7483312 -0.15867488 0.39391863 -0.387226 -0.1234203 0.3012265 -0.20476897 0.041984983 0.47936782 -0.03303049 -0.121644355 0.2722958 -0.03283582 -0.5533001 -0.009609712
2648 0.036902864 0.32637116 0.23754494 -0.19388054 -0.019277163 -0.19266298 -0.6520364 -0.12314063 -0.008905048 -0.78348184 -0.18725255 -0.40452853 -0.25143346 -0.5727018 -0.698328 -0.091548204 -0.13299236 0.79450923 0.14041921 0.1989175 -0.18824045 0.5066993 0.46636942 0.6609333 0.7832386 0.76359475 -0.40449455 -0.5318911 0.061533224 -1.1302092 -0.32086623 0.20359197 0.15011984 -0.53404385 -0.9517497 -0.0578556 0.30998835 0.22573908 0.24385282 -0.102249496 0.10769526 0.36894917 0.31306306 0.33177656 -0.19428484 -0.44975993 0.15877083 0.13088362 -0.129252 0.22941451 0.5415182 -0.12118612 0.7017769 0.743146 0.09593762 -0.27310938 0.0024725846 0.54002875 0.13629636 0.5704615 0.7650359 0.41071308 0.5067149 -0.2830391 0.3673227 0.26711208 0.90622735 0.66790843 0.4409731 0.27275333 -0.061916724 -0.5429669 0.5675267 0.64229083 -0.34304765 0.43529883 0.65882975 0.84958017 0.10456877 0.44434595 -0.55758417 -0.6417917 -0.58075476 -0.55978596 -0.009063026 0.5062681 -0.25263274 -0.10349813 0.038370185 -0.20713769 -0.29783255 -0.8298665 -0.47903562 -0.4560431 0.37834042 -0.114859365 0.19476801 -0.13814692 -0.48010686 0.07035791 -0.4236543 -0.13014305 0.22684582 0.5235617 0.473899 -0.47027048 -0.6008741 0.6693464 0.20967832 0.41388172 -0.29880086 -0.14340176 -0.9833729 0.051008455 0.22052285 -0.54649085 0.14687805 0.16812022 -0.9780168 -0.04204807 -0.42646697 0.62724936 0.5091867 -0.37532833 -0.073589854 -0.64670783 -0.42356157 -0.08742656
2175 0.20267121 -0.14333764 -0.30212542 -0.20423691 0.58441 -0.13762651 -0.24161303 -0.5526763 -0.25439224 0.11992574 0.039257847 -0.31153628 0.10561443 -0.6231447 -0.005476164 -0.22310501 -1.1219043 -0.024144195 0.21270578 0.2372417 -0.43501857 -0.30866316 -0.6168011 -0.27971599 -0.29303667 -0.52262235 0.395783 0.44714844 0.1452265 -0.3346937 0.21311128 -0.07387045 0.7092671 -0.7135048 -0.78052634 0.14030042 0.72651196 0.23579678 0.18628365 -1.0067557 -0.606065 -0.17924415 0.7168846 -0.22335419 0.16170275 -0.39359584 0.13977827 -0.02731274 0.47938508 -0.11443948 -0.15554254 0.570302 0.8044357 -0.77674425 -0.673595 -0.091267675 -0.8160025 -0.26915967 -0.0661963 -0.06504314 0.07751862 -0.19535235 -0.08900593 0.08253336 0.7128262 -0.33617792 0.5160225 -0.17724589 0.7659388 -0.23969084 0.1112317 0.4090676 -0.06010846 0.2658597 -0.22161543 -0.030418132 -0.10482979 0.79069793 -0.34767866 -0.8812021 0.9860581 0.54009384 0.3995423 -0.3628918 -0.22584951 -0.0621415 0.605249 0.063815124 0.27812105 -0.9897791 -0.09725247 0.28956872 0.091119245 -0.30533692 -0.40672007 0.024161242 0.1829572 -0.63528794 0.246438 0.4642607 -0.008952476 0.5704063 -0.7422849 -0.1600155 -0.44192278 -0.4837546 -0.22395875 -0.038716726 -0.36119887 -0.16245952 -1.0517263 -0.11256692 0.22036603 -0.48516375 -0.7105181 0.47096294 0.052696854 0.4476407 0.38352278 -0.20325406 0.2778451 0.25187436 -0.34151834 -0.12239251 -0.7269381 0.6139133 0.086157694 0.30292496
292 0.2753659 -0.049317483 0.20639485 0.96403855 -0.3514322 -0.29935864 -0.43152803 -0.29852414 0.7055142 0.2769452 -1.1758435 -0.12534142 -0.35145575 -0.7316209 0.15538017 -0.21787018 0.1926074 -0.49942344 0.88918066 -0.5359279 0.22346781 0.06574253 -0.20522118 0.85016793 0.37264118 0.38075677 -0.14897728 -0.2091668 -0.3277968 -0.023797464 0.5732614 -0.24605381 -0.65579903 -0.5121132 -0.2644895 0.20441009 -1.0902412 0.11122288 -0.25791213 -0.607659 0.11955239 1.1839051 -0.6592409 0.23464759 -0.2559065 0.7039595 -0.27339125 -0.42240906 -0.033829726 0.5592447 0.39637005 0.19707578 -0.25805292 -0.7937894 -0.16000526 -1.0757415 -0.6536571 -0.69154334 -0.17361571 -0.61381596 0.8139473 -0.5804613 0.68777627 -0.5610983 -0.21248984 0.1134587 -0.44538698 -0.043988824 0.5341894 -0.50421 0.53439283 -0.06837962 0.32514673 0.28267023 0.9958042 -0.36951646 0.5242341 0.20316212 -0.7328379 -0.3518672 0.031717993 0.028162641 -0.43680474 0.30918804 0.05354401 0.17735372 0.16127492 0.79329884 -0.51655424 -0.061213393 0.54870206 -0.28453034 0.7158354 -0.32070446 -0.058077514 -0.2646311 0.4475452 -0.02217202 0.33977756 0.50281614 0.71630454 0.12627703 0.17603357 0.36206222 -0.2084992 -0.08740896 0.80895394 -0.04021617 -0.2587261 0.2920935 -0.04561023 0.032091074 0.29658166 -0.350712 0.76169306 -0.021700744 0.65351665 -0.6435053 0.07471144 -0.2044765 -0.16768576 0.30202055 0.6615284 -0.12449265 0.10745896 1.1569037 0.5994505 -0.1623221
1549 -0.40794355 0.23576604 -0.2267553 0.19215882 -0.19065428 0.3027519 0.022279166 0.1964333 0.18429706 -0.25115123 0.16114706 -0.5515557 -0.43809435 0.65496093 -0.13624711 -0.4012523 0.46042767 -0.21875104 -1.0217059 0.11685153 0.9418981 0.10144185 0.07191479 -0.2442675 -0.8390649 -0.85188055 0.32433078 0.057558753 0.74975675 -0.30130985 0.27120566 -0.71124715 0.25350043 0.3873027 -0.45323262 -0.4903614 0.38171554 -0.7898158 -0.1312195 0.024879089 0.3324641 -0.54908335 0.3003522 0.124237634 0.5644916 0.2364078 -0.4899062 0.021696582 -0.13797404 -0.14272004 0.4089793 0.8820766 0.36828065 -0.1670453 0.5809528 -0.7836351 0.05596077 0.42050433 -0.11401751 0.66615355 -0.20883651 0.4217332 0.3151193 0.1641576 -0.13663168 -0.006033322 0.44229272 -0.20781095 0.107852936 0.06008724 0.8829466 -0.4188319 0.328612 -0.36358503 0.5285282 -0.5755685 -0.08524428 0.060820073 -0.5491927 -0.40276247 -0.40685356 0.05691777 -0.35424277 0.07792324 0.36560348 0.09759271 -0.07548825 -0.5975033 -0.15835196 -0.0074235983 -0.13687494 0.67848897 0.9766575 -0.07813369 0.019495638 0.09437487 -0.5269864 0.1471953 0.54543144 0.650761 0.05566179 -0.262904 0.5812026 -0.5409506 -0.3581177 0.30018315 -0.35856074 -0.37159273 0.20929635 -0.22794104 0.36886126 -0.33418527 -0.01815448 1.1308877 0.19759017 0.37970057 -0.06267071 0.4568786 -0.1991476 0.3966272 0.44923693 -0.7966285 -0.6855539 0.72371006 -0.18053281 -0.18720871 -0.3833756 -0.6071589
573 -0.4294805 0.61866325 -0.29638568 -0.4379824 0.087859504 -0.042722445 0.09729209 0.20153794 0.0021586102 0.5738621 0.103050314 0.20035324 0.53835845 0.19920081 -0.03261226 -0.12967561 -0.14793316 0.6513272 0.12122342 0.57249606 0.12725174 -0.117178485 -0.7604933 -0.0613242 -0.3354234 -0.69209445 0.23289894 -0.24971348 0.267791 0.6836157 -0.36000213 0.5636792 0.22622268 0.15308377 0.035583176 0.069488935 0.14218704 -0.13265382 -0.24205524 0.31842968 0.054804955 0.41735306 -0.4292046 0.366977 0.35963622 0.07300996 -0.1986888 -0.003072966 0.15909927 -0.03136448 0.34339237 -0.43927497 -0.2374172 -0.18245262 -0.101620086 -0.06581114 0.046986837 -0.19424717 -0.993168 -0.4806339 -0.48257956 -0.32329717 -0.44752887 0.14986742 -0.40731794 -0.12635873 0.29803157 -0.46844363 -0.06215565 0.16011062 -0.040909544 0.28221148 -0.011645207 -0.8217069 0.5079936 -0.8490198 0.22998552 0.20305395 -0.1260364 -0.26059735 0.19055973 -0.050042674 -0.1831147 -0.008090167 0.17755707 0.0816921 -0.40359282 0.43136898 -0.29871404 0.20189475 0.14010511 -0.3091601 0.28459978 -0.18341282 0.31100038 -0.0852701 -0.24282005 0.124977484 0.42602766 -0.6652251 0.36465198 0.56882274 -0.5314823 -0.58771956 0.1624316 0.05045792 -0.09922894 -0.23996189 -0.40059698 0.17155746 0.16710144 -0.18066052 -0.3132608 0.19486067 0.27561295 0.014838303 -0.41967845 0.10414353 0.12711062 -0.47967464 -0.34601638 0.03629201 -0.035203245 0.4009897 -0.09953862 -0.26259443 0.55315727 -0.33429906
1502 0.2561995 0.6933416 0.35800794 -0.025136914 0.7584308 -0.5691231 -0.05885268 -0.79162025 0.31572598 0.029813226 -0.44082692 0.19896676 1.4349082 0.18743545 1.0214394 0.5545151 0.20086187 0.3706826 -0.044505876 0.050585408 0.17912154 -0.0069029136 -0.020352457 -0.40900567 -0.019975053 0.89090466 0.2563006 0.5496118 0.0006613243 -0.41970286 0.1412087 -0.5437294 -0.3561379 -0.34141308 0.28810334 -0.7160383 -0.9241281 0.51483876 0.9149666 0.16508102 -0.1623893 -0.0041329456 -0.30022633 -0.033891283 0.46136937 -0.20569439 0.27532947 0.16224025 -0.6883791 -0.71336275 -0.31921807 -0.5208561 -0.09123119 -0.09266615 -0.039227895 -0.62395704 0.24651584 1.1939677 0.42616576 0.2688008 -0.38607162 0.21722835 0.1835229 0.8141075 -0.17273107 -0.21910475 -0.86650395 0.06652641 0.47228137 0.1136596 -0.50102365 0.57607245 -0.13074897 -0.49036196 -0.4606432 0.03843611 -0.106575385 -0.21482286 0.29453158 0.51988757 -0.085716896 0.042661384 0.736431 0.60634536 -0.561322 -0.9355018 -0.48379433 0.34405023 -0.15628733 -0.009833965 0.1017492 -0.33339518 -0.4424836 0.19730318 0.3753326 -0.06060397 -0.56175256 0.05267687 -1.2537035 0.2881096 -0.64275986 -0.5436718 0.010189752 0.35527095 0.17154482 0.39209643 0.08154243 0.33649823 0.48881102 -0.09079083 0.086624935 -0.8861714 -0.25200233 0.38022864 0.08101532 -0.06694626 0.84579194 -0.39509204 0.85225755 0.06288119 0.6977631 -0.12607479 -0.018924903 -0.17731842 0.11891479 0.5093926 0.05279237 0.24480577
224 0.42524487 -0.6002744 -0.6076387 -0.7895661 -0.29639757 -0.055225234 0.13350824 -0.05989373 -0.3755311 -0.7319739 -0.41012302 -0.61480767 0.37865636 0.16297983 -0.24999563 -0.75227743 -0.22193831 0.4567041 0.18794139 -0.16567688 -0.50398535 0.49182224 0.45741108 -0.21884735 0.30250588 0.5544137 -0.7350226 -0.12562126 -0.63859844 -0.7584034 -0.8530383 0.27813748 0.27002493 -0.0014884125 -0.09853486 0.30462947 -0.3768157 -0.5013429 0.57567 0.19189349 -0.1280143 -0.069616355 0.38210535 -0.41127098 -0.4951739 -0.22259526 0.3037071 -0.14180009 -0.13987707 0.26282033 0.29029453 -0.3904698 -0.19930892 1.0275514 0.4931912 0.14725861 -0.0020904192 0.546128 -0.34008187 -0.0156195 -0.023029363 0.36667475 0.6084294 -0.22326364 0.3887357 0.23414613 0.31322595 0.6121497 1.5000205 0.035493836 -0.08417128 -0.3287799 0.33878043 0.24666342 -0.38797668 1.2897211 -0.007042067 0.56056154 0.03471332 0.06463593 -0.6051501 -0.2803528 -0.058617633 -0.8996783 -0.7721446 0.27516645 0.4235553 0.08057008 0.0073639806 0.62988704 0.066902354 -0.46190554 -0.7361217 0.26723868 -0.32186556 -0.1246322 -0.43139148 0.99450433 -0.8276454 -0.8092271 -1.2251391 0.6873113 -0.056638945 -0.20596184 0.19059159 -0.3560665 -0.49367088 -0.037047453 0.63912976 0.4422556 0.6636938 -0.3092328 -0.6794943 0.5633043 -0.58948666 -0.92603815 0.8693324 0.4942252 -0.689555 -0.08723891 -0.32913122 0.40969363 -0.46468648 -0.09531433 0.2258566 -1.0791596 -0.8714635 0.061502226
2455 -0.60467124 -0.0047979536 0.2612831 0.04080863 -1.3461257 -0.016922276 0.541301 -0.3811534 0.6032948 -0.7439643 0.5074511 -0.0025216732 0.6547482 -0.8128897 -0.1550203 0.2656084 -0.61847556 -0.5187343 -0.10121939 -0.7340288 0.62798107 -0.48116738 0.2657651 -0.54952806 0.26751727 -0.38129336 -0.87862813 -0.8930508 0.9983901 0.3224707 0.38827217 0.21432297 -0.5198249 0.40221667 -0.07349508 0.08963866 0.27894828 -0.62005305 -0.46598345 -0.8372113 -0.22473691 -0.6124271 -0.12738328 -0.36266565 -0.34943822 0.05368977 1.0737362 -0.11679104 0.60523885 -0.3822203 0.029253583 0.11706333 -0.30144474 -0.12229708 -0.24938428 0.07132484 0.09432957 -0.1686515 0.28959346 0.13138646 -0.1601583 0.29741183 -0.36896834 -0.51298386 0.41686434 0.30171326 -0.50128716 0.022212863 -0.47049534 -0.042673767 -0.28708103 0.6198941 0.28635547 0.2852302 -0.66673267 -0.17938209 -0.72136027 -0.51983726 0.94312394 -0.5255629 0.2739718 0.26588845 -0.088390306 0.18943009 0.5433297 -1.1578919 0.2824216 0.4317618 -0.035734504 0.67798555 0.09883858 0.1942824 -0.5632313 -0.09613999 0.63387597 -0.9538247 0.003839668 -0.09413695 0.42745858 -0.029675685 0.53681016 -0.27426827 -0.9081798 -0.49560323 -0.14404678 0.10610612 0.89818126 -0.2720036 0.3443053 0.020839952 -0.31716168 0.41833803 -0.06204603 -0.027012892 0.20486459 -0.66058826 -0.3209835 -0.5250852 -0.21016325 0.2927993 0.051899694 -0.598273 -0.20758885 0.48173308 0.22074077 0.17889997 -0.22181782 0.7681573
2223 -0.40310693 -0.26808038 -0.36030683 -0.28588253 0.016624171 -0.053024035 -0.0039057508 -0.65064096 -0.48632345 -0.64426655 0.12248992 0.30345267 -0.38411707 -0.65868974 -0.3500716 0.10834275 0.46549508 -0.2983613 0.048808236 -0.118892655 -0.020959398 -0.00691102 0.2262096 0.11789919 0.62148327 0.61494625 -0.53576726 -1.0750364 -0.2322895 -0.60736173 0.028438263 0.2406465 0.12566063 -0.39944282 0.021866137 -0.08017894 0.0550704 0.7659327 -0.012791753 0.028510367 0.74970925 0.27496788 0.6391285 -0.053377163 -0.02362857 -0.37360415 -0.054107554 0.068003014 -0.1277767 0.04318838 0.23902124 -0.2692606 0.1569333 0.76070595 0.77194506 0.73128957 0.4127258 0.78291744 0.06775283 0.54337996 0.16238974 0.2738447 0.6890632 -0.5899061 0.19205755 0.12781924 0.4211701 0.5018607 0.23782343 -0.1714508 -0.24259312 -0.52850723 0.67631185 0.44139048 -0.13563488 0.7053797 0.05422835 0.6491545 0.20176744 0.34756523 -0.43109834 -0.3657824 0.110673055 -0.17981416 -0.16727452 0.4842476 -0.40805712 -0.61211026 0.07028297 1.03083 0.10679594 -0.4406737 -0.5067623 0.41064438 -0.6675118 0.38863 -0.38906175 -0.2131473 -0.1588613 -0.6196172 -0.4868762 -0.17261326 -0.54815125 0.11258401 0.765086 -0.07166824 -0.050826512 -0.16849616 0.34668127 -0.02795833 0.17753972 0.41753903 -0.746491 -0.20188957 -0.5124118 -0.5752206 0.9142043 -0.087209456 -0.7999786 -0.061806295 -0.3288887 -0.15198314 -0.7894554 -0.47378713 -0.054668542 -0.78561395 -0.5609481 0.45100966
1172 -0.2271225 0.1855779 0.33496022 0.02152136 0.31681687 -0.38642606 0.15178269 -0.051138524 0.31491694 -0.45395735 -0.37379876 -0.1492461 0.61487633 -0.2712875 -0.006756323 0.20545843 1.0166175 -0.4142028 -0.12580381 -0.17553522 -0.49330473 0.13067567 0.027674843 -0.6097017 0.09615306 0.47977698 -0.23851515 0.2394192 -0.26996598 -0.74645406 0.6591736 -0.30252334 -0.3188853 0.14578131 0.33343825 -0.59237105 -0.8216414 -0.13373736 -0.23739293 0.33100623 -0.30023205 0.084680155 0.24789745 0.5404962 0.3317997 0.3615849 0.15257931 0.24375513 -0.39494857 -0.8009817 0.27215707 -0.6544218 0.19508483 -0.747295 -0.07336993 0.14848943 -0.013885731 0.009302046 0.6182333 -0.07466175 0.6166162 0.21869949 -0.062277373 0.52557087 -0.16972815 -0.5613053 -0.12265561 0.45699546 -0.5612764 -0.8723374 0.34405452 -0.21099572 -0.095812716 0.059510477 0.53091586 -0.39529657 -0.077523276 -0.70939195 -0.326237 0.38630235 0.27817738 0.25682718 0.19913094 0.5620625 -0.40538856 -0.09312624 -0.5525151 0.4795673 -0.0080856625 -0.6275506 -0.0878358 0.46370107 -0.283785 -0.16975766 0.19740671 -0.34963757 0.26541296 0.15290551 -0.19994396 0.018353969 -0.31312397 -0.28477037 0.39183873 -0.1636025 -0.011112528 -0.006627891 0.9786704 -0.033465065 -0.3832374 0.040005274 0.035416413 -0.19375262 -7.82311e-06 0.30336237 -0.29692593 -0.17280024 0.31519005 -0.794655 0.22059524 0.05593222 0.55403453 0.63165766 0.117637895 -0.56662554 -0.06081511 0.47101992 0.24269392 0.3844048
2607 -0.012251359 -0.7541877 0.011838047 -0.40182993 0.65728635 -0.35019878 0.43141264 0.006168861 -0.6210633 -0.2622498 -0.17802101 -0.52933854 -0.16174711 -0.49587333 -0.16844651 0.6296747 0.0005499646 -0.87955904 0.3186101 0.3798208 -0.10717221 -0.9140557 -0.45167327 -0.0685923 0.3417974 -0.4303203 0.25723344 0.23740375 -0.50238425 -0.09583544 0.41265264 0.05216962 0.4819511 -0.24842125 -0.6862252 -0.3111864 0.31774262 0.5273715 0.14305462 -0.21879452 -0.29369032 0.50170773 0.7039685 -0.2756088 0.21537843 0.41808307 -0.40938511 0.33790082 0.8875057 0.2941217 0.40634003 0.26733953 -0.08940717 -0.36433727 -0.06939828 0.70836335 0.39823782 0.043146778 0.36042145 -0.4064549 0.46138653 0.54602516 -0.05373199 0.7380877 0.20772026 -0.5739517 0.11827281 0.098545134 -0.020269023 -0.55267113 0.21395552 -0.5229199 -0.2381855 -0.58133197 -0.40582398 0.58417153 0.793259 0.5323521 -0.19805074 -0.562095 0.44268012 -0.25919303 -0.4497408 -0.087574035 -0.8526942 -0.32599247 0.10122038 -0.15945677 0.10585054 -0.79526156 0.2056173 -0.021123989 0.35838032 0.34778288 -0.5526187 0.06897808 0.2965663 -0.27729732 0.051176514 0.6384096 0.52481323 0.60482883 -0.82561654 -0.14643472 -0.19925018 -0.24511552 0.38886425 -0.17694752 -0.17230487 -0.1875948 -0.3155347 -0.37875092 0.1707241 -0.2449702 -0.5727323 0.1315217 -0.26517144 0.3368798 0.12446415 -0.049873535 0.57617384 0.3189444 0.60715497 0.020727491 -0.6404724 0.18618554 0.32206637 0.41525605
946 -0.0961266 -0.6055166 0.6283408 -0.6757846 -0.28747937 0.0053444235 0.19963047 -0.3140198 -0.3209968 -0.18646428 -0.02125776 -0.19293958 -0.10990244 -0.5582948 -0.4526983 -0.2757453 -0.09580272 0.46867815 -0.12820736 -0.082920805 -0.058178134 0.09930589 -0.056551848 0.93706167 0.37405187 0.25594375 -0.60607916 -0.48141867 -0.41669932 -0.70025885 -0.05853086 0.3615783 -0.03706494 -1.176922 -0.2722851 0.20655806 0.16048075 -0.30500683 0.14561191 0.22755575 -0.033429544 0.45368728 0.15248995 0.14720847 -0.09581301 -0.15717222 0.109986335 0.07113382 -0.11631536 0.36360237 0.8177926 0.33322307 0.3094115 0.20624915 0.5737865 0.07156244 -0.028903225 0.6379251 -0.14090061 0.32864308 0.47217938 0.7179875 0.527766 -0.32418093 0.40552992 0.79252416 0.1558963 0.03500428 0.23409268 0.14810593 -0.70152116 -0.5051796 0.30007148 -0.08583276 -0.38943264 0.6364711 0.27114892 0.85282433 0.2530611 0.07234087 -0.7203648 0.016570551 -0.027043711 -0.66794515 -0.526341 -0.25664753 -0.22024634 -0.3534034 0.20105627 0.20381477 0.2190762 -0.5335203 -0.27205908 0.22850093 -0.33253634 -0.062902816 0.082607225 -0.033741474 -0.5408213 0.19163954 -0.3933836 -0.25406587 0.11851347 0.90607595 0.3472209 -0.07727596 -0.26298696 0.53060377 -0.056835815 0.023203008 0.11549633 -0.08101734 -0.13533387 0.4200215 0.05568323 -0.7664091 -0.25852114 -0.1828389 -1.1192838 -0.110261016 0.13757548 0.05502235 -0.100748576 -0.117191784 0.15941668 -0.626044 -0.028142514 -0.5854457
475 0.067818224 0.21065526 0.51585865 -0.0042918203 -0.5033185 0.7662029 -0.31391513 -0.25986224 0.21244335 0.711536 -0.95497376 0.13022137 -0.6233435 -0.34560475 0.33133686 0.19673908 0.27983359 -0.23033369 0.25324452 -0.5425173 -0.10120901 -0.09251308 -0.39756307 0.24857987 -0.22342367 0.40708914 -0.10259865 0.29673615 -0.3891388 0.06155743 -0.007759095 -0.69790024 -0.3658401 0.20483252 0.25155026 0.18103573 -0.49548152 -0.21885245 -0.3156013 0.04366929 0.47661304 0.08684743 -0.72534955 -0.16509376 -0.10379794 0.6306656 -0.16682783 0.017845348 0.6053652 0.4691594 -0.09833335 -0.28545094 0.18434939 -0.60977054 -0.20735225 -0.8768676 -0.305907 -0.7296991 0.10486454 -0.6305567 0.36583447 0.47073755 0.02934068 -0.10323421 0.2580939 0.55067116 -0.6871275 0.03315054 0.14853452 -0.87568885 0.17104568 -0.6886512 0.06608579 0.90280324 -0.04328634 -0.2997736 0.027001118 0.017248202 -0.6199031 -0.5751397 0.21930456 -0.07686584 0.06106468 0.2738188 0.41930035 0.6459459 -0.31426662 0.3266146 0.4611662 0.24163839 0.36566478 -0.24143748 0.46585417 0.09572821 -0.41776714 -0.21159653 0.46532166 0.23092918 0.105013475 0.38031638 0.25745764 0.7857584 -0.03566641 0.09837309 -0.3159808 0.15059048 -0.049111977 0.49163887 -0.25328174 -0.257035 0.3585705 0.37137863 0.20268035 0.025687747 0.68558604 -0.04320905 0.18975145 -0.6538256 0.5889483 0.1722419 -0.52797556 0.5148103 0.45637116 -0.03726855 -0.050985564 0.6127878 0.73644954 -0.47247425
1850 -0.03474183 -0.037013505 0.81767535 0.82721263 -0.25843728 0.33874094 -0.5810064 -0.42243487 0.8455861 -0.124268055 -0.19685614 -0.008055219 -0.4478377 0.09258678 0.96037847 -0.13011935 0.26273197 -0.0011884505 0.37532702 -0.06576175 0.002795091 -0.25115252 -0.32181615 0.33356023 0.3141818 0.49526885 -0.9003897 0.11544387 -0.2851995 0.4329131 0.2651535 -0.45527324 -1.2820565 -0.09869609 -0.7865661 0.0114309555 -0.48258817 -0.32593772 -0.33976045 -0.24081898 0.45367023 0.36512065 -0.6009295 0.31236747 -0.57596976 0.5807719 -0.48370168 -0.5326535 -0.03826069 -0.25741693 0.4381521 -0.21142839 -0.27717495 -0.59158015 -0.01566502 -0.38701302 0.13084865 -0.6720858 0.38142926 -0.30638698 0.6856417 -0.24733546 0.68904495 0.16245201 -0.43329054 0.27959833 -0.21498556 0.1946639 -0.51291555 -0.95110035 0.33770943 -0.5354637 0.14356 0.45662317 0.3301239 -0.3563931 0.25291768 -0.27596745 -0.39173257 1.0482308 -0.1301382 -0.27491316 0.19850747 0.16069898 0.500116 0.3089402 0.073211245 -0.01617939 -0.6297989 0.01488426 0.51303744 0.20198189 0.872976 0.332707 -0.69864094 -0.9481772 0.3840015 0.3926769 -0.1088879 0.07845736 0.5221052 0.104964375 0.5571791 0.28765503 0.10993262 -0.09640592 0.6590565 0.68644196 -1.0653826 0.13202009 0.32577094 -0.046947815 0.37893674 0.21710742 1.0941707 -0.28297552 0.43776196 -0.6232962 0.19121253 0.2767817 0.15996584 0.0037009958 0.28640035 -0.36941743 0.28692582 0.8851964 0.22841845 0.13323367
226 -0.08452591 -0.37726313 -0.11640747 -0.3850109 1.3313279 -0.29005045 -0.5684036 0.1773347 0.26469555 -0.38546893 -1.0153768 -0.23538087 0.35750118 1.0197597 0.13256656 -0.04998905 0.61899745 0.26243246 0.19286329 0.6180041 -0.33020252 -0.15042265 -0.004000987 -0.50540316 0.8211426 0.54864407 0.60405403 0.07846434 -0.8685062 -0.69812644 0.75960386 0.06258385 0.22807826 0.67047095 0.13007656 -0.748868 -0.95236176 0.0024169716 0.101018906 -0.0051920656 -0.70106757 -0.3694735 0.2742696 0.36681467 0.6465783 0.14256969 0.23583284 0.29648995 0.03243161 -0.2626491 -0.3773207 -0.82222426 0.13536447 -0.29401174 -0.0743148 0.110373765 0.18638507 0.49561077 0.4985798 0.4331516 0.29134905 -0.14958811 -0.43419462 -0.046529595 -0.08381378 -1.0938627 -0.14740992 1.02656 0.7291797 -0.07279008 0.1739611 0.060695406 -0.1368444 0.11380354 0.025704011 0.41094244 -0.33881876 -0.5897923 0.061937146 0.34475362 -0.16202824 0.08754293 0.2596821 0.4494456 -0.096197926 -0.7140665 0.022435116 0.39429983 0.40567726 -0.26934555 -0.38687694 0.4485908 0.181312 0.47223675 0.86411136 0.29218206 0.41185927 0.45000607 -0.591673 -0.17588383 -0.26073223 -0.2143144 0.60481143 -0.38319835 -0.27030325 0.023205413 0.5419071 -0.55614847 -0.2547272 -0.029024146 0.029601503 -0.051019847 0.22031146 0.41051945 -0.49400076 0.33157012 -0.06622806 -0.5421472 -0.20052592 0.01008555 0.48218408 0.74478924 -0.15323587 -0.17077138 0.8244676 -0.033781 0.54795414 0.069008544
721 0.07948765 -0.75981086 -0.16821602 0.15728472 -0.41818005 -0.029863473 0.21149033 0.54389846 -0.7496188 0.2486665 -0.03181774 -0.522719 0.36991963 -0.3707705 -0.20233229 -0.02180523 -0.3639092 -0.08337092 0.8592315 0.26059568 -0.73989385 -0.43532696 -0.56348914 -0.7421048 -0.048125375 -1.1327181 0.41529346 0.99520427 0.28722766 -0.28096977 0.45038348 -0.1325931 0.5284406 -0.27290392 -0.57469106 0.2209346 1.0120587 0.069776185 0.41776454 -1.1602008 0.10557033 0.19787012 0.47640496 -0.24546233 -0.041739874 0.40367115 0.5416192 -0.104238614 0.7679028 -0.41468874 0.06695496 0.2589006 0.15227184 -0.856965 -0.2467939 0.55472255 -0.03578021 0.49492377 0.17564651 -0.2387837 -0.2032213 -0.32807696 -0.4068968 0.29217345 0.46173686 -0.24670434 -0.100453906 -0.1740245 0.6756988 0.43257478 0.039875746 0.43145296 0.1092102 -0.081625216 -0.6521735 0.3683634 0.4175626 0.7172158 0.19083321 -0.5560702 0.7310198 0.33174774 -0.0036678729 -0.22433686 -0.926055 -0.21712786 0.5611564 -0.0035232091 0.56015503 -0.3738387 -0.32625616 0.07823096 0.5089163 0.3640654 -0.35678238 0.13202131 0.5363967 -0.65229684 0.37679166 0.81728333 0.5248692 0.07958108 -0.863334 -0.37355357 -0.045060918 -0.09005785 0.29231954 -0.3701124 -0.8112615 -0.14898545 -0.43985993 0.013280446 0.48024482 -0.7447235 -0.66291374 0.36160317 0.5735241 0.66459817 0.27648968 0.24834773 0.4965089 0.33907306 0.44384447 -0.14263608 -0.43175286 0.42991585 -0.47179383 0.53893566
1447 -0.07816276 0.40018088 0.48107645 -0.3406744 0.87910527 -0.10494374 -0.33728006 -0.8659146 0.36491284 -0.21843773 -0.3629585 -0.45403686 0.6564778 -0.33705664 0.40896648 0.6289175 0.28033036 0.54006284 0.7315847 -0.40985134 -0.05953937 -0.29326576 0.6257404 0.05258973 0.59637743 0.5151449 0.2789353 0.32126018 -0.4793066 -0.07582965 -0.07509937 -0.035335105 -0.008504561 0.13446613 0.12357437 0.05278603 -0.20665367 0.24012168 0.2518738 0.3281835 -0.021766286 -0.20571768 0.13055043 0.68367034 0.0032113725 0.0082744565 -0.05584377 -0.05696039 -0.51652306 -0.089995496 -0.2428046 -0.4213906 0.010543131 0.24717993 0.52625114 -0.035255205 -0.2939231 0.4507138 -0.10070227 0.1452861 0.44312602 -0.022373205 -0.100737646 -0.06826521 0.22791196 -0.092217766 -0.26925018 -0.17389448 -0.061492696 0.034467377 -0.19987361 0.50931543 0.2534238 0.06189861 -0.1735801 0.39912066 -0.32666504 -0.16988656 0.80102664 -0.012070164 -0.07842274 0.26766363 0.32534555 0.42441764 -0.33739284 -0.35027918 0.047347885 0.16971771 0.27880204 0.30799016 0.2923181 0.32414693 -0.21491203 0.46747148 0.03417594 0.20690401 0.2686352 -0.43634003 -0.45848903 -0.19945568 -0.47165343 -0.62934107 0.99482536 -0.33850107 -0.54945475 0.65610933 0.8082114 0.023354838 -0.055769727 0.029690832 0.45774916 -0.44639042 0.23217118 0.37833178 0.14141983 0.38364196 0.30195048 -0.4706925 0.14367975 0.078358494 0.13339898 0.8915275 0.31214926 -0.38485193 0.0427637 -0.3493127 -0.08004075 0.104303524
2053 -0.15436642 0.2698564 0.23825292 0.2821272 -0.4000886 0.32452688 -0.06579662 0.1674403 -0.32039192 0.6596416 -0.32025215 0.22480038 -0.8606435 -0.4113848 0.30253354 0.2686635 0.23958793 -0.29142517 0.43709037 -0.5423229 0.3594495 -0.22862919 0.22014415 0.37799096 -0.041574363 0.1782167 -0.24613984 -0.0033651376 -0.5310618 0.01589698 0.023916893 -0.6894457 -0.51523167 -0.078121565 0.02507575 0.3631538 -0.739289 -0.1532979 -0.48261032 -0.05553714 0.09575011 0.10563222 -0.62014365 0.09150671 -0.22291613 0.76553756 -0.024096677 -0.4931618 0.15652303 0.5442055 0.18290935 0.12511368 -0.22329096 -0.06356251 -0.9735367 -0.4443835 -0.5157925 -0.5440454 0.26446623 -0.43784374 0.022691572 -0.18451175 0.33217323 0.1208935 0.46752036 0.21374342 -0.33318576 0.3903485 -0.019489618 -0.7527041 0.23856376 0.08904614 -0.24623413 0.92860305 0.17348523 -0.5156146 0.3242162 -0.60484004 -0.5138747 0.22098275 0.13270153 0.1367181 0.0764645 0.06814098 0.41918018 0.6058551 0.16064289 0.0670408 -0.3128161 0.33911544 0.32812774 -0.38068676 0.8901691 0.04940128 -0.09986363 -0.40475065 -0.05135088 0.5466104 -0.043376956 0.326607 -0.05496835 0.28202736 0.02070291 0.37337413 0.015402583 0.12073347 -0.19003698 0.36147246 -0.8446839 -0.36482343 -0.32598642 0.6761723 0.64586014 0.2285043 0.8887708 0.11622385 0.2891472 -0.1676137 0.5749947 0.5278167 -0.6000583 0.0030444805 0.049391527 -0.45561108 0.062465746 0.35145235 0.90981025 -0.21257876
232 -0.5087131 -0.47419474 -0.11713934 -0.37615237 1.0848222 -0.20676078 0.1982168 -0.25774404 0.81111676 -0.042511616 -0.9510426 0.1593591 0.33170617 0.8161734 -0.159254 0.2476474 0.91688627 0.15492249 0.06581875 -0.18252797 -0.5791786 -0.3613654 -0.3610929 0.16343619 0.43725505 0.5427611 0.12251268 -0.3516081 -0.40885377 -0.49387422 0.6922662 -0.29634598 0.2398125 0.018045789 0.40864745 -0.3834013 -0.48060897 0.41049325 0.46736053 0.30816847 -0.9050774 -0.21756549 -0.0779485 0.34482825 0.47793797 -0.28813624 0.07678246 0.22214739 0.774397 -0.01429672 -0.18117861 -0.7097832 0.32177827 0.36988768 -0.029827274 0.121977925 0.15813659 0.47097203 0.10641169 0.32079452 -0.091882624 0.014446849 -0.277191 0.35525894 0.067288466 -0.6542398 -0.6184916 0.69625884 0.48115277 -0.17645219 0.38034067 -0.17163113 -0.30127656 0.11675463 0.15429911 0.12614033 -0.41908222 -0.87065053 -0.15257394 0.5184156 0.19465871 -0.2452944 0.7336486 0.3732745 0.060412835 -0.8347927 -0.25567722 0.4085039 0.1532022 -0.5599675 -0.026159763 0.7532769 0.025404302 0.3478741 0.87016433 0.26850632 0.56618786 0.62268174 -0.8409107 -0.5646011 -0.28996396 -0.072050706 0.67966676 -0.1699875 -0.63944924 -0.024878372 0.5474433 -0.37059096 -0.26767388 0.047948204 0.19340199 -0.5991028 0.3194336 0.37278086 -0.09026927 0.34571958 -0.077801496 -0.17335445 0.22825249 -0.3889588 1.0696187 0.7278594 0.19507165 -0.31182256 0.5076127 0.06493341 0.22538407 0.3379306
220 0.29464316 -0.4575476 -0.08647242 -0.07868919 0.018784098 0.10954125 0.33301345 0.21460792 -0.19208276 0.23892525 -0.20814267 -0.26582637 -0.24663621 -0.21601382 -0.22502778 -0.16183808 -0.017227761 -0.2796288 -0.25072265 -0.43292654 -0.16455495 -0.044507455 -0.17481768 -0.27456868 -0.3143699 -0.88703465 0.47366232 0.6425556 0.24989639 0.17867377 -0.035108812 -0.6954744 0.30745324 -0.62173647 -0.623904 -0.32793948 0.58752227 0.26052985 -0.029108196 -0.60970443 0.42263886 0.074948914 0.6782106 0.027809242 0.47052997 0.26569727 -0.5223732 0.24192394 0.10810656 -0.6005531 -0.17153043 0.82860345 -0.01014332 -0.21179792 -0.21948646 -0.07841186 -0.6373322 -0.1381974 -0.45803893 0.36077914 -0.24485853 -0.18623583 0.3930198 0.22250593 -0.17615186 -0.58011216 0.56670237 -0.47401512 0.09412052 0.18663311 0.6847119 -0.09844258 -0.108517714 0.59158385 0.0615844 -0.1254018 0.044586807 0.62965506 -0.49497736 -0.4541539 0.5349566 0.07258563 -0.41498056 -0.6724369 -0.281369 0.02523368 0.3449282 -0.37058574 -0.033633657 -0.47528285 0.25218034 0.10039551 -0.05397713 -0.14331326 -0.25674486 0.31417596 0.12360102 -0.5332195 0.6243932 0.54582006 0.38911974 0.367588 -0.2796445 0.26450562 -0.7781155 -0.2349121 -0.3404765 0.15318786 -0.46841684 -0.3470681 -0.33378366 -0.18829587 0.25726342 -0.012439169 0.024070803 0.43206912 0.41859388 0.73070353 0.20306142 0.100655854 0.7315131 0.16279778 -0.04982957 0.04382942 -0.55163765 -0.01561243 -0.032955736 0.0031162668
2501 -0.17404988 -0.11521819 0.43304065 0.14424948 0.49637365 -0.6190012 -0.20621914 -0.5393334 0.5011717 -0.53586924 -0.5942058 -0.34662703 0.18830237 0.33212537 -0.2966587 0.18439028 1.0262756 0.22684827 0.07182499 -0.17974018 -0.4934055 0.06032758 0.07059196 -0.47585574 -0.12998457 0.38268182 0.34723207 0.4043892 -0.33102298 0.090361305 0.071184866 -0.34269962 -0.037529618 0.22142488 -0.41386813 -0.38214126 -0.5557764 0.33399847 -0.0497908 0.2377715 -0.17218044 -0.21508579 0.17938907 0.72601354 0.37107736 -0.16163881 -0.081283234 0.44730473 -0.6281187 -0.45173636 -0.2599378 -0.55730724 0.0024553025 0.18393575 -0.505688 -0.10808872 0.12793028 0.39624426 0.16993535 0.117677465 -0.5458775 -0.123046614 -0.18004945 0.41114408 0.045998566 -0.28718317 0.29947034 0.2416039 0.7607047 0.100782104 -0.00069104263 -0.028451268 0.14215241 0.22206551 -0.47581154 0.40122014 -0.19789407 -0.68569463 0.26858637 0.8171835 -0.121664256 -0.30541322 -0.009686183 1.1545308 0.11569791 -1.1869794 0.15277928 0.46635133 -0.18448289 -0.05364609 -0.0007650554 0.77985746 -0.7277624 -0.23064563 0.7917089 -0.515761 0.42538372 0.2747271 -0.50007814 0.11423422 -0.6591275 -0.8466457 0.6053573 0.5417332 -0.26402438 0.18685865 0.20565934 -0.0672613 0.60269 -0.33375284 0.08962628 -0.24825977 -0.13182491 0.03903199 0.16272546 0.52249444 0.41617283 0.29863596 0.6367082 0.805408 0.46283942 0.3190039 0.42692474 -0.44702774 -0.3718702 -0.092519455 0.12267983 0.480724
1015 0.38516843 -0.68247104 -0.20071527 -0.8288806 -0.34523427 0.3769382 -0.32254142 -0.17123997 -0.54879075 0.7711791 -0.06862382 0.1616724 -0.4886548 -0.77882445 -0.80925614 -0.026556868 0.4003459 0.16534686 -0.059758883 -0.26992673 0.68469465 0.6402976 0.15355195 0.8324866 0.41350245 0.06878539 -0.31889847 -0.4036273 -0.53872174 0.10900829 0.0023094183 0.6589402 0.16559078 -0.70603454 -0.31871715 -0.27165857 0.51548225 0.082915425 0.16511369 0.0758469 0.40360996 0.26182657 0.04903438 0.12007458 0.13909312 -0.5060416 -0.09439864 -0.21774921 -0.21754204 -0.09403392 0.2931106 0.3210655 0.27655992 0.2905888 0.16016391 0.6488402 0.3563041 0.78252965 -0.321701 -0.059610292 0.0063377265 0.45691624 0.33189476 -0.3749213 -0.028100451 0.800925 0.12448236 0.31964344 -0.1634124 -0.19094087 -0.9529603 -0.65361845 0.109756075 0.6864704 -0.7713351 0.22306623 0.37811562 0.10008946 0.3931306 0.2530986 -0.30432874 -0.4216412 -0.16433501 -0.8591676 0.35251424 0.7145009 -0.14398119 -1.1560955 0.6308894 0.31768444 -0.41434944 -0.3229791 -0.803518 -0.09833678 -0.1875793 0.3948541 -0.37777248 0.7360768 -0.57632744 -0.74314666 -0.2602349 -0.5598037 0.5404321 0.57699096 0.17650339 -0.02647603 -0.8742837 0.23544908 0.5148237 -0.11208335 -0.44787434 -0.031288303 -0.4720034 -0.52347726 -0.017615307 0.0058965785 0.8373184 0.23743115 -0.5664074 -0.19858266 -0.39644763 0.6839437 -0.40039358 0.37350646 0.055759136 -0.37437764 -0.14464766 -0.18908219
2200 0.008869323 0.049836796 0.48032594 0.083581775 -0.01590944 0.3078495 -0.26434848 0.13684967 0.11484081 0.9660463 -0.21768901 0.39229298 -0.552407 -0.6077213 0.07932572 0.30363986 0.022381328 -0.44348007 0.5551421 -0.09571233 -0.3007616 -0.10088659 -0.064648636 0.42847258 -0.30944702 0.09919283 -0.024999637 0.10291431 -0.7226674 0.3418453 -0.14031741 -0.5400758 -0.6097941 -0.20284352 0.21812834 -0.44099173 -0.6516648 -0.13927956 -0.33578596 0.32133225 0.023570362 0.34593734 -1.0220988 0.057982735 -0.75317955 0.6157359 -0.115589015 -0.23713414 0.082888104 0.08483424 0.09425042 -0.015956711 -0.14140101 -0.068564326 -0.8476095 -0.7935019 0.14206418 -0.6464068 0.14019793 -0.39073855 0.2047993 -0.15104064 0.27363464 0.16096246 -0.049462043 0.06013014 -0.43879932 0.43282208 0.21594219 -0.687089 0.071072 -0.33691218 0.4825205 0.7135617 0.3504028 -0.47417152 -0.021121489 -0.6586615 -0.04997167 0.14013854 -0.29393804 -0.33189228 0.5574758 0.2903976 -0.042591784 0.5287052 0.06982622 0.28906566 -0.51286614 0.30919802 0.6358909 -0.37136632 0.31395268 0.50457096 -0.5648388 -0.29374212 -0.08826627 0.28356582 0.17011839 0.4527303 0.21929842 0.4244727 -0.46405983 0.75411344 -0.33917624 -0.17999989 0.1284351 0.5794753 -0.12826537 -0.19018 0.12664945 0.28430644 0.49651542 -0.21712863 0.75817394 0.1689234 0.38239864 -0.5165428 0.26308915 0.7111857 -0.58385545 0.433026 0.44142702 -0.19382055 -0.18439557 0.4862526 0.4528728 -0.2723898
306 -0.5232035 -0.03670757 -0.15459087 0.5181027 -0.39585876 0.23214771 -0.21149284 -0.27782372 -0.17377314 0.79016155 0.3057769 0.565648 0.59028035 0.5843971 0.07059382 -0.99277747 -0.4910927 1.3734438 -0.07604473 0.7752838 0.3302785 0.00891905 -0.8623414 0.3748644 0.384116 0.33567217 0.06256579 -0.56287646 -0.34327322 0.7695445 -0.49097764 0.26834127 -0.40367085 0.37810197 0.107590295 0.78565794 0.7280195 0.23721458 -0.57761097 0.48226243 0.24827902 0.25315878 -0.5043525 0.14544095 0.27291092 -0.25599352 -0.3798202 0.086503714 -0.49573445 0.106618606 0.35880768 -0.29851538 -0.110173486 -0.18738121 -0.6696333 0.18988843 0.50015664 -0.24128316 -0.635007 -0.42940974 -0.63905185 -0.7321386 -0.7172757 0.17474967 -0.4756238 -0.39780274 0.15616322 -0.6311456 0.09860415 0.22178873 -0.37443286 0.30171457 -0.04069797 -1.0005468 0.43618312 -0.66968536 0.32658702 -0.18777522 0.24711794 -0.15899451 0.065625906 -0.32722276 -0.03843574 -0.5538528 -0.41196677 0.3057762 -0.27548546 0.76593757 -0.63411164 0.113426715 0.3921857 -0.71710896 -0.015290054 0.35994482 0.16271067 0.21998708 0.07460034 -0.24788283 -0.45435816 -0.72360635 0.46199185 0.8902073 -0.052332986 -0.794948 -0.079288006 0.029070493 -0.17273784 0.32851726 -0.096840136 0.083145864 -0.23102935 0.034984298 -0.29625562 0.23241612 0.5751386 -0.2522769 0.021251082 0.16350117 0.7806632 -0.5555476 -0.74609405 0.38565657 0.019206244 0.29277188 0.021619996 -0.1984489 0.18313628 -0.19555227
188 0.1603022 -0.9152769 -0.17538217 -0.3498244 0.05586218 0.26635376 0.044260703 0.047890168 -0.23887905 0.25952843 0.65234923 -0.32465446 0.075455666 -0.7023303 -0.00019423524 -0.17230996 -0.119394995 0.15505204 0.8122941 0.4383729 -0.071390875 -0.25253794 -0.040237654 -0.21904598 -0.08521922 -0.38868365 0.50205874 0.3007789 0.05729958 -0.2840467 -0.04123073 -0.114635676 -0.0100223115 -0.67900753 -0.58425605 0.3330108 0.62967795 0.7162255 0.52901137 -0.7012824 -0.06291841 -0.014934946 0.18945141 0.03809849 0.42354342 0.2656578 0.049847044 0.08047657 1.0974797 -0.22584279 -0.36535507 0.76973164 0.29185656 -0.9985862 0.00091946777 0.5701266 -0.111556925 0.15438037 -0.06531031 -0.17441691 0.4622668 -0.5333873 0.03907117 0.09321829 0.6791709 -0.01105023 -0.026721971 -0.06653035 -0.26215428 -0.081149034 -0.078554615 0.39399967 -0.3627389 -0.017054388 -0.26284865 -0.19230144 0.10775702 0.41892347 -0.3284878 -0.30808336 0.89988136 0.52773505 0.54648894 -0.114485055 -0.4812002 -0.5099275 0.065626435 0.09210395 0.76033646 -0.6597951 -0.46500403 0.075149804 -0.03866616 -0.48991436 -0.18778369 0.570056 0.27351543 -0.30300257 0.57322073 0.3005491 0.03499659 -0.080321044 -0.20681952 0.5897872 -0.12093234 -0.11435741 -0.270307 -0.31753698 -0.8126302 -0.120160624 -0.33844534 -0.5444335 0.27593023 -0.8804995 -0.12585038 0.46591872 0.18281633 0.44364744 0.17791054 0.20158802 0.08898791 -0.46133706 0.5063979 -0.16419931 -0.74279946 0.121064834 -0.5581947 0.059789315
777 0.44365403 0.35599867 0.33179238 1.2505972 0.25844666 0.48417136 -0.45004144 0.2522353 0.19104698 -0.015096385 -0.044991054 0.37880653 -0.744599 -0.25864136 0.24897893 0.26691905 0.52222514 -0.074547835 0.65968275 -0.44444862 -0.33111328 -0.40835533 -0.072997004 0.84523195 0.45190728 0.7655208 -0.34823725 -0.3160067 0.31834438 0.25474337 -0.046751462 -0.3567897 -0.8033348 0.32809225 -0.656721 0.28945896 -0.21557382 -0.035307623 -0.16521086 0.14865941 0.21524385 0.066284545 -0.12438807 -0.2285585 -0.5644176 0.30504116 -0.078873925 -0.21024431 0.09186078 -0.44063446 -0.06974205 -0.19316973 0.033439346 -0.43456483 -0.37134576 -0.58593726 -0.15480831 -0.72057694 0.79333156 -0.7055216 0.64810044 -0.12985101 -0.016807329 0.6659679 -0.32429683 0.6718493 -0.575234 0.03799644 -0.23978743 -0.98603916 0.36091334 -0.12595752 -0.072287224 1.0029318 0.510598 -0.42677432 0.6098394 -0.30816963 0.094471015 0.043999985 -0.23418362 0.30180833 -0.34414068 0.46520478 0.683033 0.07865032 0.3393759 -0.16447897 -0.53465164 -0.11742717 0.5401164 0.002360585 0.7905781 0.54803956 -0.65003604 -0.658721 0.30503386 0.3723136 -0.01641055 0.09796434 0.31596243 0.27677366 0.7530058 0.18980335 -0.5508512 0.24153325 0.58888954 0.14089645 -0.46543553 -0.31281713 0.17610481 0.8944205 0.09952777 -0.023560025 0.6349249 -0.15534753 -0.35811207 -0.24736337 0.24019898 0.34848976 -0.40590438 -0.4704151 0.74327755 -0.28491202 -0.24548636 0.5081127 0.44436336 -0.12579454
1627 0.68029934 -0.3758241 -0.084928066 0.14220837 -0.1727515 0.081663325 0.52293104 -0.02491254 -0.4016186 0.029205885 0.6384143 0.16799474 -0.16648397 -0.52468234 -0.67220134 0.3083482 -0.18064684 -0.087394856 0.51456666 0.006223713 -1.1738183 -0.39666712 -0.2099928 -0.08455447 -0.4075418 -0.18238345 0.16763167 0.9689976 0.0869622 -0.57872164 0.0694103 0.05853266 0.44404423 -0.5882644 -0.71397096 0.081160806 0.31988358 0.47595045 0.15127602 -0.8425905 -0.21688585 -0.06679671 0.59683156 0.6133468 0.57044524 0.24183783 0.39082313 0.011907399 0.53774875 0.006241953 0.27893662 0.66475594 0.4733667 -1.0462359 -0.14292854 0.28741887 -0.7931052 -0.2721233 0.3215529 -0.09284273 0.07269394 0.09785917 -0.41680288 0.07326584 0.6246273 -0.75974214 0.9968399 0.25024992 -0.2576539 0.22549409 -0.24988942 0.4875946 -0.09117926 0.016740805 -0.29235515 -0.23121578 0.06032963 0.61057377 -0.40115762 -0.5039625 0.7493931 0.2654696 0.37937164 -0.22923425 -0.5915589 -0.6873449 0.6734058 -0.028915413 0.2450443 -0.7568872 -0.3937195 -0.227126 0.33582017 -0.2338771 -0.4915478 0.5938541 0.511976 -0.61896014 1.0593139 0.574942 0.38643792 0.25134784 -0.2021222 0.24661647 0.09177676 -0.37115368 0.29110274 -0.30566216 -0.22091405 -0.033756245 -0.7106108 -0.3110546 -0.07572765 -0.86047053 -0.26847327 -0.1974575 0.044242874 0.33369768 0.568771 0.038386922 0.20692724 0.44021478 -0.20916034 0.22201386 -0.82815075 0.4398709 -0.030190112 0.41581813
1577 0.41646212 0.5630785 0.4462403 -0.03911965 0.8755408 -0.58941984 -0.27971303 -0.25801885 0.045723118 -0.7168178 0.17879608 -0.5163483 0.70360196 0.5976747 0.130538 0.09102461 0.17208919 0.36865816 -0.083388455 -0.6627873 0.3188996 -0.008673887 0.2846299 -0.611957 0.19297913 0.6342483 0.3329815 0.24915242 -0.13501495 -0.04229672 0.65630627 0.056792278 -0.18238276 0.33378062 0.10555235 -0.62732524 -0.6574999 -0.14935972 0.47047457 0.7923563 -0.51524395 -0.33601192 0.07240735 0.53632224 0.81650484 -0.1308273 0.61854696 0.54161286 -0.60193354 -0.20643508 -0.17423882 -0.1501895 -0.43977967 -0.40319747 0.09480863 -0.093675196 0.1809096 0.8496463 0.25977388 0.7212851 -0.55840695 -0.07078559 -0.06431712 -0.48163983 -0.5053984 -0.28154117 -0.75570744 0.30852538 0.939004 -0.759854 0.39503574 0.63548684 0.19190028 0.083021216 -0.19692369 0.3419868 -0.67644244 -0.75219953 0.18147871 0.1490842 -0.083630905 0.35914424 0.72208333 0.43986076 0.12786482 -0.7668024 -0.587039 0.5722035 0.73163855 0.30314988 -0.50195134 0.021995993 0.41240853 0.29159343 0.80500036 0.76872236 0.6474848 -0.117700204 -0.5327652 0.01945616 -0.6088924 -0.35181767 0.11754406 0.3649521 -0.44991663 -0.11304739 0.6518714 0.091345064 0.032337263 -1.0310808 -0.30133933 -0.2000456 0.24388865 0.92817163 0.17228316 -0.14517662 -0.4117436 -0.22636943 0.45435807 1.1373963 0.94814306 0.07529751 0.1738246 -0.69190544 0.13674963 0.40471616 -0.13140064 0.33505788
1052 -0.036691036 -0.32270324 -0.09046039 -0.33824113 1.2822495 -0.23256724 -0.5450187 0.22306298 0.35980922 -0.4683576 -1.0929127 -0.30948842 0.3602007 1.0342356 0.091732934 0.0481739 0.51676726 0.19302686 0.18631674 0.5904864 -0.47344184 -0.12223209 0.0053790556 -0.4265353 0.7213912 0.6951841 0.5652183 0.17291096 -0.68020356 -0.768411 0.80641973 0.112427115 0.31163403 0.65322435 0.18307611 -0.79125595 -0.90788615 0.022773866 0.09879498 -0.083907716 -0.688151 -0.4532465 0.22170967 0.3596253 0.66166687 0.18199322 0.3332905 0.16237466 0.020055542 -0.34030193 -0.3324984 -0.80817807 0.13310364 -0.41338632 -0.095283635 0.18161526 0.11142295 0.4384211 0.52346945 0.39426476 0.2042316 -0.13436359 -0.5560864 -0.09867782 -0.18429445 -1.1068704 -0.16183904 0.8908611 0.86085784 -0.011297845 0.15513651 0.072776996 -0.16299148 0.076432474 0.048993334 0.35736647 -0.34325182 -0.78814846 -0.00917948 0.20397289 -0.16154753 0.2112313 0.22764032 0.49080575 -0.11702838 -0.75436556 -0.022062933 0.3195376 0.45082325 -0.16160537 -0.26959264 0.4896597 0.2857499 0.41346073 0.86740065 0.24867745 0.47793067 0.27241918 -0.5283813 -0.05801537 -0.11473472 -0.16669746 0.6179694 -0.4639568 -0.41515854 0.07995011 0.65718526 -0.5491282 -0.2681016 -0.19969344 0.03597084 0.057681106 0.33115736 0.46870595 -0.5376554 0.39962685 -0.080126315 -0.5404971 -0.21346544 0.062749356 0.48424768 0.93104446 -0.0690308 -0.09974333 0.82278174 0.13955665 0.6779571 0.10264723
