2405 128
1287 -0.9842599 0.7388972 0.3271948 -0.35636494 -0.817836 0.6053061 -0.0943306 -0.13718718 -0.4795256 -0.54901814 -0.76842266 0.75401425 0.16722146 -0.061246835 -0.57275534 -0.64145607 -0.16356188 0.34417278 -0.4258409 -0.48085037 0.8333376 -0.19311582 -0.65640116 -0.3015762 -0.5486468 -1.1062238 0.24010144 -0.047770925 0.20809601 -0.14190736 -0.3200916 0.8211541 -1.12391 -0.13517737 0.7705494 0.42756522 0.46949664 -0.4410452 0.26220798 0.12005288 0.45168373 -0.16106066 -0.099931456 0.47859758 -0.4651862 -0.37879702 -0.5925022 0.04441695 0.6788261 0.052321296 0.14794077 0.1861371 -0.5759611 -0.18796796 -0.50016433 0.571704 0.8058441 -0.10269184 0.0349123 -0.20920913 0.37008592 -0.3499386 -0.123357624 -0.10947002 0.8223869 -0.4388145 -0.8933705 0.42780954 -0.99109226 -0.4002619 0.8923401 0.5791558 -0.31444585 0.21634357 -0.8415836 -0.81990045 0.008700326 0.6789027 0.03443303 0.5814611 -0.86121327 0.42240334 -0.74263966 -0.031323537 -0.33761922 -0.2802366 0.3940568 1.0381283 0.37125376 -0.056389414 -0.22019887 0.5280546 -0.49879694 0.078343846 -0.9478406 0.27980986 -0.41835138 0.12246091 0.23957671 -0.78788495 -0.041723713 -0.18736649 -0.83464587 -1.254694 0.28480354 -0.14530754 -0.39930308 -0.19316345 0.70581704 0.431594 0.6660696 0.4104974 -0.0406498 0.5302353 -0.9918328 -0.27805027 0.0916785 0.89889777 -0.051972657 -0.5381903 -0.10868693 -0.6144602 -0.21666013 -0.6000866 0.552995 0.5186182 0.1896686 -0.9286907
235 0.26786897 -0.15188612 -0.18396223 -0.5564096 0.14200252 -0.72665244 0.116403304 -0.9163111 0.73000336 -0.18889734 1.7135042 0.039711535 -0.4707839 0.06192977 0.12726396 0.5128283 -0.07776352 -0.5636957 -0.66099054 -0.076217666 -0.51775193 -0.2665978 0.5729182 -0.671556 -0.24144498 0.36433297 0.74366945 -0.14004612 -0.09492527 0.39416832 -0.18414639 0.4125666 -0.09086903 -1.3577657 0.22173546 -0.7264043 -0.49054268 -0.39073563 -0.091721214 -1.0377486 0.08316348 0.78821945 0.12355349 0.3725344 -1.5765042 0.18956855 -0.034738883 0.5265424 -0.78470695 -1.1068099 -0.06273032 -0.29593197 0.3768901 -0.37628388 -0.47623193 0.42852306 -0.77801806 -0.11300034 0.06720634 -0.13334069 -0.06775855 0.66408986 -0.92394155 -0.3752381 -0.8096894 -0.07402005 0.2826755 -0.9021559 0.4957759 -0.21400808 -1.0210594 -0.8026544 0.21981548 0.79015297 -0.28989276 -0.47420648 -0.28651595 -0.05022219 -0.3989076 -0.27117 0.6329724 -0.8378261 0.3454797 -0.93451506 -0.35537472 0.6820819 0.30552268 -0.098953485 -0.19078559 0.2805034 0.46695217 -0.910655 -0.2011677 -0.37648934 0.82962584 -0.17440121 0.438339 -1.1938059 -0.24145679 0.2909459 -0.44658664 -0.40071052 -0.075143315 0.4034421 -0.35747895 0.008645959 0.50415343 0.264135 -0.005089052 0.3730666 -1.28066 -0.319843 -0.6753835 0.86683834 0.9104915 0.5477002 0.26649278 -0.17999361 0.039474785 -0.17593294 0.054774188 0.89001656 0.6162765 0.25009283 0.22020128 -0.61860895 0.7459528 -0.55627227
373 -0.6859217 -0.5904515 -0.35844058 -0.3825098 -0.015901513 -0.8337318 0.06551524 0.49407277 -1.2340255 -0.0836356 0.054843143 -0.27847636 0.73538923 -0.24583268 0.23713654 0.69447637 -0.41451994 -0.9764106 -1.0723768 -0.039290056 -0.37811503 -0.49199432 0.54710186 -0.20257847 -0.75552166 -0.019663043 -0.3015308 -0.050596848 -0.08132386 0.44058788 0.42051542 -0.5204207 -0.38467303 -0.88434446 -0.177137 -0.002960192 0.9782477 -0.3064525 -0.5420537 0.27366135 -0.3987008 -0.3289468 0.33246726 -0.37500834 -0.0869987 -0.7218976 0.36020905 0.466707 0.19935916 -0.8781641 0.8749553 0.81476593 -0.2752489 0.6904719 -0.26243907 0.7504741 0.63326806 0.57611454 -0.330997 0.28166223 0.27607793 -0.15142539 -0.42538914 -0.15847835 -0.057501324 0.0362939 -0.6452912 -0.2294854 0.059464354 -0.47478843 0.9194971 0.28532293 -0.3696825 -0.54356056 -0.034946498 0.023921708 0.37179598 0.12882811 -0.5387548 0.1453548 0.68828565 0.2958662 -0.07562305 -0.44421777 -0.07970827 0.32037532 -0.4982291 1.0601889 -0.34686112 0.28478885 0.9928071 -0.62090313 -0.54142344 -0.46189243 0.36904496 -0.11221035 -0.02771724 -0.3029137 0.46952346 -0.73905134 -0.37276968 0.6699205 -0.115929514 0.1053853 -0.46982557 -0.6328935 -0.4453938 0.7084432 -0.2704096 -0.33209917 -0.7941651 0.15522243 -0.8622664 0.2987146 -0.96207714 -0.86987305 0.15114057 0.2631154 0.66788685 0.99951595 0.83510786 -0.09637718 0.74613416 0.27547854 -1.0953007 -0.5180949 0.48383802 -1.0876046
1377 -0.7723393 0.06513913 0.32580715 -0.5536543 -0.7420228 0.52923566 -0.16792777 -0.14329 0.2776178 -0.120447904 -0.4410947 0.5625853 0.29311216 -0.4314183 -0.15347007 -0.83376604 0.09726707 0.8011226 -0.262828 0.4752964 0.6885761 0.25738716 -0.3139006 0.017872646 -0.67672294 -0.9875739 0.6904641 0.21048072 0.12624632 -0.3164346 -0.21648349 0.66831225 -0.7611496 -0.17267476 0.5977915 0.44503713 0.56583 -0.5150088 0.4556866 -0.27945122 0.4881009 -0.5096937 -0.99657744 0.011230305 0.025754247 0.009656876 -0.6905585 0.5037427 0.98756504 0.079996675 -0.0054785376 0.08607477 -0.51762754 0.070120744 -0.5366776 0.49813685 0.588007 -0.42365354 -0.12047444 -0.0908755 0.36165708 -0.07482015 0.5576363 0.27923754 0.34918022 -0.36265796 -0.31870297 0.42289013 -0.33764967 -0.32580966 -0.031533204 0.23316035 -0.13011815 0.18797572 -0.35430315 -0.61860335 0.10891469 0.2564018 -0.89873976 0.4890617 -0.3951126 -0.2997722 -1.0679673 -0.30047247 -0.56927603 -0.14733441 0.83649445 1.1432862 0.23970777 0.021879055 -0.4197344 0.6974194 -0.19713089 0.17915466 -1.0453767 0.26824826 -0.47262928 0.13472152 0.13334869 -0.25270277 -0.47358897 -0.4500005 -0.8346013 -0.661913 0.13094908 -0.1490086 -0.33494118 -0.22312477 0.6808449 0.91893655 0.93231714 0.37728438 0.1985469 0.20154248 -0.7720243 -0.37407413 -0.40003914 0.6375408 -0.24609792 -0.9885814 0.0048881993 -0.81093365 -0.3015723 -0.4598044 -0.029388972 0.5956726 0.00046471693 -1.2488228
1816 0.48284617 -0.3943431 0.59383154 -0.18534192 0.5782178 -0.3766858 -0.4601079 -0.5457929 0.10855791 0.60788405 -0.4846527 0.17745271 0.32789356 -0.6564123 -0.19219798 0.009931739 -0.4262113 -0.25404888 0.13955566 -0.46697298 -0.91906005 -0.84911853 -0.16598742 0.42458618 -0.4440472 0.18173793 -0.47390687 0.1284825 0.16100797 -0.37482882 -0.5026253 -0.50726736 0.39250615 -0.50853896 -0.31973487 0.08964749 0.68853474 0.3023985 0.06529867 -0.35335755 -0.2510294 0.49087468 0.676493 -0.17952697 -0.5470141 0.50240743 0.40942138 -0.22100991 -0.50788015 0.019698557 -0.8937457 -0.69334424 0.017897643 -0.2923571 -0.3660579 -0.3488231 -0.3013417 -0.09408871 -0.22569932 0.28326672 0.5491466 0.099336006 0.23913902 -0.11830536 0.46844563 0.4022031 -0.0008323863 0.24296433 0.2752857 -0.24780153 0.28880247 0.50708216 -0.31693912 0.8952864 -0.60900503 -0.32008317 0.43197438 -0.3498404 -0.20495078 0.18784645 -0.48085114 0.3965546 -0.288632 0.120660536 -0.9280972 -0.5562036 -0.44154602 -0.047526598 0.25170738 0.24673435 0.021941446 0.050491348 0.1985696 0.5129178 0.20929676 0.43539485 0.035270654 -0.20532137 -0.7271927 -0.4842375 0.06755564 0.7453262 -0.5309873 0.55599713 0.2683391 -0.32502794 -0.49884623 -0.37273693 0.15659264 -0.6130908 0.16671479 -1.0873605 0.1398239 -0.2562623 -0.02462939 0.7237598 -0.55449474 0.3342169 -0.28971884 0.16744824 0.45514074 0.49199682 0.4031848 -0.28444004 -0.27010113 -0.90889066 -0.38467652 0.46458682
2311 0.75810814 0.24156776 0.80216396 -0.086895905 0.42034483 0.6142115 -0.029109156 -0.7256882 0.26159003 0.9614028 -0.53942233 -0.003757909 -0.7023047 -0.38923755 -0.5277142 -0.2667571 -0.004128553 0.24834412 -0.65992576 0.091092676 -0.30091712 -0.48792413 -0.66764903 -0.103809066 0.26725256 -0.46888617 0.083561376 -0.05103706 0.41434035 0.539809 0.496987 -0.8777839 0.45519987 0.42500415 0.41626728 0.6711771 0.63514346 0.5646854 -0.31915766 0.43137914 -0.61666566 0.6492419 -0.20823117 0.3062657 0.31204343 -0.51936376 0.47023872 0.69580996 0.06728607 0.32747644 0.46784872 -0.18800202 0.106079556 -0.5504407 0.17730023 0.060970493 0.0559586 -0.059201904 0.050274175 0.9764608 0.3298055 0.10808206 0.7529992 0.26202497 0.7807475 0.57425916 -0.23595509 0.2657945 -0.2990506 -0.15932395 0.03812217 0.6587244 -0.54567367 0.15593617 -0.019172665 -0.41066888 0.3586194 -0.5660492 0.62155104 -0.23405963 -0.04093083 0.58554393 -0.119029984 -0.15942723 0.1437664 -0.063145205 -0.88204837 -0.15602091 -0.08062345 0.67454404 -0.15835929 -0.20474666 0.4601386 -0.004077427 -0.22956131 0.43560076 0.5331475 0.4450722 -0.54122204 0.346938 0.18450107 -0.1416947 -0.5867022 0.36672902 0.35711467 -0.036592983 -0.14060187 -0.3672883 -0.06373524 0.42538127 0.4811647 0.47633114 -0.57968146 0.019823458 -1.124851 -0.35667482 -0.9650841 0.7258172 -0.77653617 -0.48667142 -0.11887922 0.107517764 -0.004985164 -0.08229398 0.09761315 0.0014155358 -0.47916675 0.25595936
2256 1.1134429 -0.051936492 0.9019829 -0.3368582 -0.2937178 0.46152204 -0.54199 -0.35613003 0.31568366 -0.33293724 -0.5113465 -0.027329624 0.16159447 -0.34064093 -0.48285607 0.2756946 0.54288965 0.12665454 0.17118867 -0.1637427 0.14758621 -0.20571561 -0.7998189 -0.68389225 0.25341138 -0.48761824 0.8339151 0.09794173 -0.25425425 -0.057212263 -0.13613047 -0.38855103 -0.07294395 0.24609838 0.6973566 0.6133848 1.1778408 0.029875102 -0.78039515 0.25473982 -0.8596616 0.022894956 0.020500848 0.7675411 0.65440416 0.7032206 -0.18133728 0.2860159 0.851573 0.88060343 0.059890516 -0.9057872 -0.15906286 0.16140951 -0.52266854 0.70487475 0.6390203 0.13584864 0.51175153 0.69993734 -0.031530496 -0.10218503 0.21189004 -0.078432694 0.73599386 0.6860201 -0.6892341 -0.52767 -0.110300675 -0.5794582 1.2966319 0.09566912 -0.9229594 -0.008200755 -0.8184439 0.14485289 0.38947785 -0.6050083 0.29492742 0.087215066 0.19602999 0.7662773 -0.45561993 -0.13596061 0.07680743 -0.36626166 -0.027164675 0.49201652 -0.16803934 0.044950835 -0.11241668 -0.84113127 1.0700724 -0.25448596 0.6684623 0.36661395 0.19494256 0.29608768 -0.761543 0.1403038 0.5742304 -0.5189266 -0.119267575 0.112981394 -0.3257524 0.40064377 -0.1514036 -0.40785527 -0.061117798 0.021896802 -0.6624303 -0.58706236 -0.11681934 -1.2849444 -0.47329617 -0.7696229 -0.2900269 0.07285811 -0.5405936 -0.118383944 -0.25300455 -0.34559163 0.5011954 1.0412579 -0.4403242 -0.37900105 -1.1671437 0.19622974
920 -0.6652309 -0.26923588 -0.60259265 0.6071168 -0.53069216 -0.78862894 -0.4072598 0.19964513 -0.31320074 -0.1280764 -0.3123911 0.29266468 0.5511736 -0.836832 -0.19434756 0.81926304 0.047567405 -0.12335818 0.90538865 0.13680418 -0.19794749 -0.7285058 -0.13699351 0.18782954 0.4634838 -0.4900221 0.46640205 -0.35984766 -0.44355917 -0.5025744 -0.09354811 0.26391053 -0.27892947 0.1767713 0.33665302 0.8073705 -0.622093 0.37373534 0.27535188 0.00449986 -0.116425075 -0.42459646 0.24640998 -0.024922773 0.42600226 -0.16103487 -0.31820366 0.59330523 -0.2796983 0.2933689 -0.6302854 0.26823816 0.28748748 0.47972235 -0.14952137 0.10089638 0.8336163 0.5036473 0.36145246 0.24919352 -0.33947417 -0.4860438 -0.74752814 -0.17120475 0.28910056 -0.17416796 -0.7681356 0.34765622 -0.3594626 0.36593306 0.20807078 0.45750448 -0.9923125 -0.8661986 -0.95840317 0.8493542 -0.18175134 -0.19023937 0.18303224 0.48545492 -0.85521644 0.06830393 0.048879 0.36568707 0.32632568 -0.5482969 0.03976635 -0.20765601 -0.543985 -0.003589414 -0.5785373 -0.05230683 0.4894725 0.90686977 0.6374917 0.11930466 -0.3959497 -0.039220028 0.45227557 0.20504455 0.28409204 -0.52633387 0.36077258 -0.008977858 -0.03318435 -0.8455965 0.52016073 0.7262913 0.2875701 -0.8708512 -0.5334165 -0.090278395 -0.06776245 -0.117274076 -0.18404113 -1.4843979 0.17602406 -0.29946733 -0.04747182 -0.72521037 -0.17717442 -0.045444604 -0.23511314 0.26431423 1.2009319 -0.20374724 -0.64786714 0.47560346
517 0.9322446 -0.2709066 -0.5703147 0.32113585 0.06566026 -0.03183219 -0.3108591 -0.04267373 -0.05255105 -0.28577742 -0.42310607 0.7897343 -0.2619111 0.8911957 -0.37278816 0.28687328 0.9502837 -0.7277664 0.55995685 0.9961579 0.542716 0.40059552 -0.4402853 -0.7229469 0.09684161 0.8840199 0.04122827 0.73935246 0.2613268 -0.94957316 -0.24798514 -0.53816617 -0.08805882 0.4392867 0.688697 0.13574989 -0.6650692 -0.63510066 -0.85014397 0.5826189 -0.6636671 -0.97212946 0.8987419 -0.21185066 0.543558 -0.80026567 0.27326 0.6976202 -0.5015854 -0.54284257 -1.4747956 -0.6277138 -0.028579287 -0.010538317 0.15004115 -0.33609083 -0.2125068 0.52401584 0.6196306 0.1958371 -1.0937651 -0.89965034 -0.013353646 0.52057177 0.5531576 -1.453208 0.63528633 0.6676258 1.1005414 0.5856054 0.47131404 0.043142512 0.7774846 -0.15910761 0.67757636 -0.5105995 -0.14307573 0.16795906 -0.15948242 0.038353294 -0.45577744 1.0622205 0.74192506 0.6794592 -0.36194244 -0.26473975 -0.20241421 0.55810046 -0.15849596 0.029695176 0.47592306 0.49387237 0.047458705 0.5320296 0.44524 0.0033084638 -0.5863698 -0.4700515 0.2927859 -0.62240255 0.07485541 -0.34073696 -0.60004973 0.03943628 0.28057724 0.20072016 0.6081093 0.7672684 -0.02986028 -0.86913127 0.61967075 0.4710922 0.8575571 0.27411854 0.2000044 -0.05556643 0.28269553 -0.37016863 0.30829015 0.6945644 0.21596584 -0.13902058 0.39880928 0.316368 -0.11856147 0.5893041 0.43103454 0.32707813
758 0.33645025 0.15481022 0.48727995 0.121922016 -0.25609612 -0.10991998 -0.030332958 -0.07275393 0.60234845 -0.2911369 -0.111871585 0.5117198 0.24556564 0.3805301 -0.06113202 -0.21225703 0.021342449 -0.42248 -0.3703391 0.3668445 0.10286389 -0.6364433 -0.31927967 -0.26784968 0.2959335 0.13032693 0.38352513 0.24648747 0.034510434 0.26723695 -0.08429265 -0.23044589 -0.19258973 0.42064354 -0.04401235 0.5968111 -0.16908579 0.2109721 -0.18398926 -0.067733996 -0.5047848 0.008278139 0.08829958 0.28947747 0.45057502 -0.38201556 0.2764818 0.03151892 0.667985 0.20776929 0.73076344 -0.41536462 -0.10548191 0.066998385 -0.4507357 -0.072322346 0.3773914 -0.042877622 0.27114213 0.4421985 -0.95005053 -0.6193467 0.19449684 0.21540019 0.580581 -0.08673131 -0.3001018 -0.2546193 0.15331651 0.18545043 0.15003422 0.03920299 -0.22682303 0.0028958414 0.31477207 -0.5041747 0.05763343 -0.2673388 0.42768663 0.05789247 -0.30840567 -0.010019656 -0.03507643 -0.31651405 -0.41595545 0.17741738 0.019413978 -0.14055371 -0.11590046 0.16542658 0.2927077 -0.48756325 0.84848034 -0.25695026 0.4212105 -0.13450925 0.11352178 0.02542267 -0.27614424 -0.3165723 0.69505066 -0.21981019 -0.39110368 -0.031770945 -0.3873904 0.19013163 0.19841617 0.1871631 -0.18104646 -0.14230523 -0.3219391 -0.44894686 -0.3923065 -0.61479217 0.06725671 -0.34363234 -0.12191941 0.25050855 0.31347024 -0.529179 -0.3307345 0.029009957 -0.3326483 0.12761138 -0.22628707 -0.49722487 -0.13039677 0.36882153
213 0.6051863 -0.4147231 0.036114916 -0.3302935 0.309154 -0.59991676 -0.12036569 -0.5559465 0.461097 -0.73113906 1.1460987 -0.15362772 -0.07602103 -0.23837522 0.22440931 0.0934023 0.78889954 -0.3666502 -0.39409107 0.4677182 -0.47149312 -0.2736397 0.34295115 -0.71639395 0.029050998 0.62313414 0.5867741 0.010107664 -0.43945265 0.057445236 -0.11272963 0.29178882 0.12682721 -0.32590073 -0.082891 -0.7752614 -0.5835468 -0.13109688 0.20991468 -1.0269637 0.012702785 0.50662297 0.517539 0.79060656 -1.2632952 0.017238192 -0.18330584 0.36843532 -0.6560325 -0.62320805 -0.030202456 -0.26309642 -0.08634596 -0.5510266 -0.8157389 0.64230466 -0.57068545 0.7070111 0.06171949 -0.15542123 -0.5491876 0.18999746 -1.3186803 -0.3843557 -1.075659 0.007160045 -0.07308959 -0.5552789 0.3170317 -0.36994064 -0.82315403 -0.41768417 0.07935129 0.887318 -0.013235416 -0.5920834 -0.58107185 -0.2305677 0.020939073 -0.12974362 0.1480298 -0.8656496 0.57979757 -0.13831049 -0.35658088 0.50733036 0.16801128 -0.1883448 0.22003329 -0.1324597 0.28175196 -0.57647383 -0.3906942 -0.33688718 0.7818432 -0.03646573 0.43110606 -0.6717481 -0.40411368 0.34415102 -0.8543923 -0.43809408 0.06580105 0.22347522 -0.62994504 -0.15089211 0.8179247 0.5566155 -0.65106386 0.09799688 -1.1043463 0.017825536 -0.23165347 1.0438133 0.9281504 0.55412114 -0.13283636 -0.14796273 0.15387377 -0.48410735 0.08951115 0.78078264 0.8184011 -0.060813613 0.19306204 -0.68818295 0.6331777 -0.43337476
173 0.44915196 -0.11708149 0.49173862 -1.086697 -0.3141488 -0.31095105 -0.02492032 -0.2344495 0.79396844 -0.22072548 -0.0907006 0.7737191 -0.3101172 -0.56866056 0.11533014 0.7809183 1.1874337 -0.5538562 -0.1637326 0.33049086 -0.9260562 -0.19315799 -0.025007159 -0.25820553 0.09518232 0.88337725 0.401676 0.39033055 -0.36336166 -0.013537003 -0.80793107 -0.033300232 0.52209896 -0.7275553 -0.22799799 -0.43241644 -0.64577097 0.15420757 0.43468073 -0.37799683 0.51265836 0.6922841 1.0224348 0.24818613 0.09172101 0.1861099 -0.60810715 -0.60902625 -0.7346847 -0.776467 -0.21265198 -0.66335785 0.40148497 -0.23760232 0.029479792 -0.18212226 -0.37500626 0.6063764 0.61718976 0.09016647 -0.32186627 -0.2305685 -0.5632284 -0.27331665 -0.6370709 0.2645161 0.15452826 -0.082693756 0.68558836 -0.099100545 -0.9952728 -0.64183795 0.17489527 0.32426777 -0.42198953 -0.82720983 0.23747754 -0.5734906 -0.23675972 -0.063853264 -0.54642975 -0.5332477 0.6301746 0.48878443 -0.30785936 -0.2258035 0.2350285 -0.66383886 0.91255474 -0.20731169 0.17103764 -0.8404303 -0.004526537 0.8050393 0.22815478 -0.5909131 -0.18891469 -0.8458079 -0.5595308 -0.058029428 -0.79307616 -1.1120952 -0.06262454 -0.21891883 -0.28665102 -0.17114744 -0.23166984 -0.03495264 -0.25974143 0.3832212 0.15265578 0.023471184 -0.0051441044 0.7107256 0.605421 0.67714036 -0.6126721 0.49287337 -0.91556996 -0.46693432 0.017884046 0.5614236 0.20837402 0.03244721 -0.6182561 -0.5415281 0.12815537 -1.0637119
1329 -0.43817785 0.3125057 0.26513833 -0.36643654 -0.27650174 0.68105364 -0.054327466 -0.23064438 -0.0577047 -0.27777764 0.124745965 0.4021039 0.23328829 -0.41705635 -0.52599066 -0.7457116 0.053659223 0.42224008 -0.010380879 -0.10016595 0.527835 -0.060457103 -0.24713136 0.19960766 -0.67970735 -0.11750326 0.40363967 0.29088047 -0.027879894 -0.2757312 -0.3853097 0.8776368 -0.6686914 -0.33702278 0.11551736 0.15346222 0.3228002 -0.64448786 0.41067597 -0.68880737 0.3833398 -0.25485775 -0.5746906 0.32845598 -0.47735012 0.15745619 -0.54126936 0.82551837 0.4471434 -0.03194988 0.26939407 0.31529787 -0.6893797 -0.12841745 -0.29890743 0.38344064 0.904011 -0.20458813 -0.037295897 -0.3608235 0.16338988 -0.54649717 -0.20297799 -0.370041 0.6024307 -0.264801 -0.3388424 0.32944828 -0.24730578 -0.6896764 0.38406634 0.4544417 -0.028700635 0.1511497 -0.3794719 -0.22028637 0.27731702 0.22847962 -0.30951583 0.64847386 -1.1294942 -0.3115407 -0.74648523 -0.35510856 -0.35829914 -0.034639582 0.44729996 0.7479845 0.05308126 -0.16877452 -0.7578909 0.393063 -0.6360891 0.24607214 -0.3339841 0.5615459 0.19819346 0.21315998 0.20612045 -0.25441343 -0.4772164 -0.26344177 -0.98039573 -0.14387414 0.24370632 -0.49450466 0.110151015 0.3570437 0.39391583 0.9034508 0.56328356 0.01267495 0.1157718 0.82462007 -0.16293848 0.2252439 -1.1896259 0.15126581 0.23286924 -0.844048 -0.60979223 -0.7215158 -0.3597924 -0.9147505 0.25204334 0.2919722 0.63050884 -0.7742292
1547 0.9098294 -0.19906598 -0.43665314 -0.79671 -0.13890794 0.22069384 -0.38685897 0.19476295 0.2468475 -0.36474243 -0.20102163 -0.15926608 -0.22796433 -0.6071722 0.3868457 0.69379145 0.40867653 -0.20282894 -0.6004131 -0.2302006 -0.61493635 0.3309901 -0.05437249 -0.3793218 0.06226813 0.8084075 0.65112805 0.36271626 0.33224607 0.54678327 -0.09089304 -0.7587015 0.58737236 -0.41321367 -0.14024213 -0.11221799 -0.14450806 -0.23428178 -0.13307944 -0.08928058 0.61157084 0.09472331 -0.0935581 -0.25786436 -0.18418932 0.23567 -0.4341419 0.43252015 -0.13907157 -0.74362844 0.49369785 0.5377974 0.51210916 -0.27772182 -0.03350932 0.32469118 -0.15675735 0.2619464 -0.4944868 -0.8778221 -0.09037692 0.4785106 -0.22792463 -0.49365807 0.33831784 -0.15113223 0.3943261 -0.29182202 0.14864115 -0.23220053 -0.30940348 0.70460916 -0.18004046 0.9539257 -0.49690494 -0.6680407 -0.12384628 0.19069478 0.20276225 0.5160463 -0.23480567 -0.37239096 -0.76284397 -0.06072084 -0.8026102 0.3160001 -0.094486885 0.21285743 0.2214908 -0.692298 -0.19223717 0.69468725 -0.6616208 -0.24735638 0.45443326 0.06147195 0.5292601 -0.037853114 -0.6712637 -0.26300907 -0.04143008 -0.60143214 -0.53673124 0.38173553 0.35465842 -0.43097046 0.2475107 0.14717674 0.17262802 0.2597121 -0.67826176 -0.15169333 0.10247736 -0.02300011 -0.35260174 0.4579466 -0.51563805 0.4108554 -0.64250547 -0.14043497 -0.5814302 -0.9021502 0.5157169 -0.27352247 -0.23043579 0.16721317 -0.08703296 -0.06500693
392 0.074514635 0.018187463 -0.027067974 -0.07267104 0.79775584 0.8226683 -0.15424126 0.04409699 -0.1111397 -1.034566 0.2978294 0.26119787 -0.23443876 1.019423 -0.6617667 0.19808432 1.0833687 -0.51280123 0.57185185 0.06524904 0.8908449 0.87637115 -0.9078605 -0.30255294 0.47301978 0.9020905 -0.41159233 0.58831525 0.8657916 -0.49580893 0.4487391 -0.6821648 -0.27492347 0.92967415 0.3811782 0.1835487 0.803755 -0.12509191 0.10883313 0.3406471 -0.8784391 0.09571744 0.53641534 0.510705 0.4879245 -0.45971355 0.3044237 0.010127544 -0.62275517 -0.53109 -0.32491425 -0.7486162 -0.5665457 0.06857803 0.4858834 -1.6283553 -0.048588187 0.03743864 0.68948716 0.9855323 -0.36031002 -0.39360902 0.5674016 0.33620235 1.2490499 -0.64747816 0.9507757 -0.034981467 0.0665427 0.7334536 1.068611 -0.15573588 0.123171434 0.36163867 0.07000244 -0.26880693 0.114651516 0.31482676 -0.2932656 0.18810631 -0.14697713 0.38713464 0.55525786 1.2042725 -0.61564153 -0.6157812 0.0026156977 -0.17038947 -0.16582292 -0.2107547 0.80385214 0.5694906 0.18579343 0.29136413 0.46118692 -0.7004746 0.16336584 -0.92120403 0.317445 -0.20887901 0.6159506 0.6814213 -0.3088327 -0.44707042 -0.2271196 0.48407403 0.68106294 0.4897815 -0.30882743 -0.22854851 0.87778866 0.7002746 0.21567737 0.36360136 -0.54906315 -0.2199541 0.2405846 0.021295264 0.5551646 0.33603933 0.05360233 -0.03002819 0.85423183 0.3217576 0.46029782 -0.2538155 0.34895924 -0.11005476
1929 0.29269654 -0.0055714548 0.1546148 -0.9144641 0.5975891 0.21859054 0.08291488 -0.42502815 -0.2620672 -0.52176154 -0.26696795 -0.7643203 -0.005370423 -0.05047428 -0.7319017 -0.3426263 -0.2582377 0.6078112 0.47001725 -0.5834938 0.40556315 0.46831188 -0.12123458 0.08729622 0.19630843 0.18301788 0.14999929 0.13346612 0.5622064 0.25988495 0.80100167 0.7969672 0.32871422 -0.45630273 -0.5009663 0.31142274 0.23050855 -0.32817554 -0.18067878 -0.66514885 -0.25996023 -0.3329406 1.0726067 -0.67441964 0.3467793 0.8399582 0.032890096 -0.4056452 -0.35590625 -0.6109336 -0.37597033 0.33919552 -0.75610757 -0.12878133 -0.2722393 0.25038615 -0.40269178 -0.27518338 -0.18223134 -0.15483579 0.46819657 0.5883935 0.6056879 0.3896147 0.41191518 0.17548317 -0.53579813 -0.48262596 -1.1369528 0.19591562 0.29414096 0.8629161 -0.27261442 -0.36868656 1.2075162 0.4427077 -0.8412578 0.22835949 -0.5830817 0.27832478 -0.83721244 -0.49677807 -0.25616708 -0.5170136 0.20487356 0.549054 -0.08948261 -0.9923712 -0.02529189 0.66248333 0.32716045 -0.43544436 0.9133943 -0.26369613 0.45082483 -0.74630505 -0.612392 -0.28137624 -0.515896 0.0064552277 -1.1729673 0.14572047 0.88685143 -0.71188414 -0.16262689 0.002617605 0.035755303 0.939869 0.42951268 -0.30164307 0.7077197 -0.6254451 0.29541332 0.24114545 -0.21466938 0.7542531 -0.28200465 -0.8824615 0.49419498 -0.39793086 0.21391165 -0.4310182 -0.7967929 -0.5478935 0.32456672 -0.23608783 -0.522878 -0.5317124
2349 0.5174445 0.053029343 -0.54052454 0.90485704 0.06031602 0.55124557 -1.0424621 0.22175574 -0.7536424 -0.47503522 -0.45876598 0.8007381 -0.026849978 0.23724231 -0.19564673 -0.613232 0.5023668 -0.49912578 0.22145386 0.3593129 0.543271 0.8065775 -0.25272912 -0.021776125 -0.22579703 0.9387674 -0.11435093 0.5331633 0.82691956 -0.29439238 -0.17679556 -0.503989 -0.1723746 0.61521053 0.22980063 0.8089155 0.48672584 -0.34746712 -0.57707405 0.2340725 -0.22211277 -0.9975833 0.50797975 -0.6762869 0.5815962 0.055376813 0.20599967 0.23741892 -0.17779864 -0.33290905 -0.16432354 -0.34855458 -0.41601264 -0.44704938 0.35150135 -0.5902213 0.62521446 0.6434366 0.9262741 0.7383772 0.12637964 -0.8987644 1.0555322 -0.17303798 0.1857675 -0.34176692 -0.4625498 0.8169774 -0.44463405 0.6478277 0.18244699 -0.84215426 0.16669701 -0.28439665 0.571381 -0.83630234 -0.019706458 0.031023994 -0.245529 -0.26071036 -1.0007411 0.564782 0.7963284 0.74453455 -0.10659442 0.039549932 -0.05508142 0.9259521 -0.5829794 0.37714309 -0.04581642 0.5379746 0.76144147 0.35889056 0.039893966 -0.07964802 -0.06074819 0.21485844 0.38834324 -0.24732307 0.18155466 1.0838059 -0.7891862 0.7220229 0.09226704 0.8745217 0.8270822 0.3475716 -1.2340813 0.30937797 0.42284712 0.85018694 -0.3906771 1.1636077 -0.22944663 -0.18355708 0.3176056 -0.25323933 0.99401414 0.4180442 -0.014543004 -0.28595605 -0.5701457 0.24521814 -0.4556473 -0.3730216 0.65135074 -0.0077699013
649 -0.092689775 -0.08498068 0.2394091 -0.37268493 0.42161787 -0.9035659 -0.28582516 -0.6778051 0.5009301 0.2674671 0.020479515 -0.09102601 0.05035562 -0.09922891 0.058757223 0.20718598 -0.041286126 0.17663348 0.55441684 0.5478703 -0.22099547 0.22637434 0.35669503 -0.045446664 -0.15475836 0.15466513 -0.40874398 -0.04138881 -0.23643935 0.2487864 -0.47436845 -0.17128548 0.096948065 0.08101623 -0.17955564 -0.105468646 0.44638795 -0.15224591 0.1242914 -0.17508788 -0.2242997 0.23422042 0.30827996 0.015066586 -0.1172843 -0.16509762 0.46944806 -0.2823177 -0.70099616 0.10817216 -1.0477439 -0.0011923723 -0.3915681 -0.24097256 -0.5308155 0.5120712 -0.07406026 0.40665576 -0.13007785 0.12738441 -0.030167535 0.32157144 -0.00032642484 0.060019277 0.04126086 0.19532314 -0.3329128 0.26687872 0.25018665 -0.23523204 -0.2062147 -0.028973587 -0.49005407 0.26534292 -0.3983434 0.2189512 -0.2468577 -0.5178891 0.13619813 -0.12800093 0.09908701 0.23155464 -0.14917554 -0.28760365 -0.40276724 -0.021356497 0.35519326 0.09857738 0.5525775 -0.42562994 0.06464913 -0.115300715 -0.5558268 0.2083498 0.33565712 0.41829246 -0.14864811 -0.30792397 -0.3588746 0.055339158 -0.17520581 -0.016333822 0.39823803 -0.07570496 -0.0058615813 -0.043381207 -0.017282154 -0.18900439 -0.23313436 -0.051772185 -0.96782315 0.035375074 -0.03986013 -0.014294852 0.054704793 0.80006003 0.29723477 0.66246146 -0.4214874 -0.32329205 0.17573243 0.3124284 0.42766687 -0.35386348 -0.33882913 -0.34282863 -0.19975244 -0.08116068
545 -0.03440278 -0.3366185 0.13382989 0.49292532 0.14646518 0.8030689 -0.22722207 0.38417608 0.31838948 -0.41054457 0.8261504 -0.15368074 0.16463502 0.7850717 -0.0944015 0.29408887 0.25249285 0.29778564 0.6406672 0.0776203 -0.64012766 -0.26412496 -0.214608 0.738153 -0.35189924 -0.15089208 -0.61622643 -0.34985325 -0.44015855 -0.06791531 0.29787695 -0.60591507 0.88936496 -0.574445 0.09842627 0.6867246 -0.5721751 0.22694534 -0.52473557 0.72819805 0.4224925 0.111248024 -0.7840511 0.058513775 -0.44258708 -0.4903311 0.3072286 -0.6657192 -0.2927123 -0.83121234 -0.590237 0.50802946 0.57940686 0.074831754 -0.04937256 0.19343078 0.10082999 -0.3912645 -0.9531373 0.67405194 -0.042245846 0.2550222 0.5138531 0.5380271 -0.120810755 -0.44610617 0.32307804 -0.5552958 0.6018507 0.1424479 -0.7594355 -0.015257716 -0.653785 -0.12816052 -0.69429094 0.5693246 -0.012522191 0.2726391 0.39930996 -0.4052279 0.026517496 -1.1003917 0.18605722 -0.39747855 0.78766257 -0.1572751 -0.28183973 0.557974 0.07133791 -0.38202533 -0.56288606 0.24125767 0.11228502 -0.1876409 -0.5549792 -0.321015 -0.21163651 0.36570305 0.5285636 -0.071440384 0.1366726 0.8297793 -0.07113347 -0.23616615 0.005810379 0.26102224 -0.5552531 -0.2522931 -0.10170563 -0.08116234 0.37125802 -0.26708063 -0.1176403 -0.03750621 -0.46653873 0.2715792 -0.7025781 -0.8299951 -0.19215739 -0.031532437 0.356313 -0.5339702 -0.25702092 0.2602026 -0.35762632 0.5922837 0.36234426 -0.55344194
1290 -0.6950817 0.14161512 0.38055724 -0.5513141 -0.46998245 0.43184477 -0.43065473 -0.22460341 -0.31598768 -0.27732942 -0.19907622 0.8104414 0.2720849 -0.68532246 -0.8019392 -0.111808494 0.45187902 0.28414518 -0.07493233 0.05182237 0.34014872 0.76316077 0.09247339 0.5632572 -0.4069188 -0.5138678 -0.022337224 0.6114644 0.16597362 0.25572944 0.28073886 0.007260319 -0.6495659 -0.2541587 0.275129 0.5825043 -0.10504424 -0.8876709 0.3897229 -0.46042797 0.15690985 -0.4028783 -0.46734393 0.13211636 0.3046242 -0.048584923 -0.9993941 0.6674414 0.5664445 -0.15268329 -0.1890082 0.19708633 -0.4116161 0.2956432 -1.0014634 0.0933897 0.8305287 -0.4439721 0.81617755 0.527541 0.2835133 -0.54412884 0.21381041 0.26976922 0.38723224 -0.09195637 0.28033552 0.8694144 -0.60732156 0.04629596 -0.60550565 -0.025652766 0.031210348 0.22289112 0.25283298 -0.64708906 -0.37282637 0.6316352 -0.5950332 0.37331232 -0.53784007 -0.32113504 -0.42011562 -0.16482627 0.07822331 -0.12000163 1.0488178 0.8530654 0.42030096 -0.07092353 -0.37593648 -0.29436195 -0.70583445 0.049136706 0.1681259 0.28145924 0.011245318 0.27078933 0.1521333 -0.58034885 0.033240892 -0.9524365 -0.5103328 0.29930994 0.5491523 -0.42596978 -0.0953544 0.048429966 -0.06419831 0.7125625 0.532472 0.89250356 0.0056596845 0.13482206 -0.70869875 -0.12322055 -0.857095 1.0423033 0.2436322 -0.98857373 -0.14419901 0.050759617 -0.13129725 -0.783522 0.1706287 0.30328757 0.8236605 -0.80217874
1022 -0.29274634 0.34467843 -0.26475358 0.48638055 -0.33649582 -0.40897852 -0.4272903 0.29765934 -1.2018701 -0.14609848 -0.300054 0.03903064 -0.14290406 -0.6064135 0.54529595 0.54777986 -0.111430414 -0.39436147 0.54259855 0.1617381 0.047442507 0.090209745 0.8317468 0.14983974 -0.028417625 -0.7671131 0.23957683 0.12288503 -0.675608 -0.51170576 0.19672209 0.1942052 -0.10153916 1.0007467 0.37050238 0.31390435 -0.76156896 0.36622277 1.1565753 -0.23016167 0.8114917 0.30431256 0.17326044 -0.09294082 -0.27260768 -0.57166195 -0.2546109 -0.41662163 0.4098781 -0.37258637 -1.1293901 0.8565848 0.021131344 -0.16545568 -0.045676947 -0.9734303 0.041027173 0.47105736 0.19339466 -0.06022599 -0.7045615 0.11778166 -0.60182214 -0.34604096 0.08589103 -0.6811031 -0.7718262 -0.16509514 0.14293407 0.20734175 0.38129315 0.54106665 -0.46641076 -0.31295776 -0.8970765 1.0243652 -0.05075176 0.26977354 0.14888003 0.6640862 0.13649896 -0.35468715 0.054596733 0.7342179 0.49234447 0.14852935 -0.712143 -0.75475204 -0.7531759 -0.38815612 -0.8141252 0.13552439 0.7513355 0.667609 0.057865705 -0.30570707 -0.49087632 -0.35081676 0.19878632 -0.24950312 0.33046892 -0.7454718 0.79871863 0.034813643 -0.4815884 -0.9280997 -0.10552873 -0.0035698712 0.7800713 -0.85087734 -0.7896631 -0.61674553 0.52688336 -0.098197386 -0.0574202 -0.73810005 -0.098820314 0.075343505 -0.1206508 0.34147233 0.18002713 0.032418672 0.11736714 0.9878128 0.44634348 0.4775746 -0.2886924 0.522432
1757 -0.35257748 0.29728428 0.20456487 -0.13317817 -0.87299037 -0.026915476 -0.46354133 -0.37132785 -0.042756636 0.50594926 -0.48165137 0.2866016 0.26410025 0.49004444 -0.348791 0.4282758 -0.577907 -0.013694011 -0.04181516 -0.5348171 -0.783204 0.010161967 -0.0106303245 -0.73455685 -0.07496285 -0.2629578 -0.6930621 -0.6558595 0.09313375 -0.39752495 -0.47478408 -0.3157474 -0.23729819 -0.810055 -0.6485326 0.26615214 0.1496718 -0.062826514 0.018437676 -0.6297721 -0.37522128 0.0173584 -0.62433296 -0.20592538 0.40494978 0.34354663 0.44473127 -0.16635308 -0.6064255 -0.054448638 -0.6241777 -0.24511325 0.34935194 -0.07924346 -0.35040227 -1.0920924 -0.17853475 -0.39202803 0.5950171 -0.10508553 0.00081885327 0.3827888 0.49450845 -0.37322494 0.7684046 0.539104 -0.22115478 -0.3059712 0.11651529 -0.3260934 -0.08912339 0.49422315 0.1706449 0.84475595 -0.7019638 0.8955343 0.11511129 -0.4499878 -0.943347 -0.06554562 0.2720121 0.03292066 -1.1781254 -0.25940695 -0.46796682 -0.58599526 0.13752547 0.05049984 0.06281479 0.075696625 -0.2691229 0.4868062 -0.07484421 0.40237194 -0.27981642 0.49556375 -0.72349 -0.30649567 -0.39660013 -0.15845372 0.2771416 0.15012868 -0.29424134 -0.24453957 -0.5882776 -0.34309688 -0.3017941 -0.4789865 0.24114388 -0.21771981 -0.2749265 -0.6373912 0.4834035 0.4505246 -0.056858025 -0.37231475 1.2337251 0.5216954 -0.5743201 -0.12784326 0.32582843 0.44933045 0.040540155 0.22671355 1.0654172 -0.4171363 -0.32369354 0.6735953
2130 1.0828855 0.26099062 -0.027261168 -0.25678533 -0.03910344 0.24412765 -0.19979444 0.06621935 -0.33049282 -0.44175237 -0.22323927 -0.3128865 0.6502075 -0.46469972 0.51242787 0.19087858 -0.16222024 0.24331146 -0.41970974 0.161105 -0.3535389 0.119621255 -0.9939573 -0.079266325 0.18983233 0.16472289 0.5319173 -0.063073546 0.16658679 -0.20646915 0.063952364 -0.44182405 0.04086598 0.10581584 0.2144878 -0.13947518 0.8841986 -0.20443663 -0.35402516 0.36460388 -0.39735994 -0.532347 -0.8366046 0.4829172 0.2541554 0.9624641 -0.63214046 -0.23549363 0.5635889 0.3024037 0.09381092 0.015360717 0.5134603 0.0033450047 0.033326127 0.42116007 0.40867415 0.74944806 0.585087 0.28565797 0.56929654 -0.32918224 -0.142461 -0.05490064 0.35251907 -0.22208717 -0.51729494 0.12831716 -0.62042004 -0.115890905 0.24627542 -0.021901518 -0.8780257 0.58502525 0.095133215 -0.34871432 -0.16747382 -0.15517306 -0.061827503 0.42444184 0.1877101 -0.009455252 0.3425596 0.16574562 0.17846751 -0.06297752 -0.6744676 0.79426324 -0.105148464 0.1940572 -0.5698872 0.034692153 -0.103841245 -0.03495135 -0.09358527 -0.27519602 0.3936275 0.39952016 -0.36602768 0.48619556 0.32979777 -0.6081931 -0.527349 0.28466582 -0.0091367075 0.60873574 0.04875915 -0.31128088 -0.36116526 0.45462695 0.35376725 -0.21704073 -0.6075297 0.31225094 -0.6516655 -0.9434073 -0.7916528 0.41538513 0.22469807 -0.3191631 -0.9852137 -0.25946295 -0.05381639 0.3648821 -0.25968206 0.05269722 -0.12627608 0.18211453
1942 0.19715193 0.111162305 -0.09186749 0.60797083 0.090772204 0.53503084 -0.65831965 -0.4099522 -0.16921303 -0.13501969 -0.040921345 -0.17498675 -0.13610758 -0.053970225 0.09681488 0.05195975 0.30438766 -0.29122064 -0.09561126 0.18966696 0.22685076 0.5460487 -0.19053784 -0.35543507 -0.13089421 0.43036336 0.26456112 0.2395165 1.0237144 -0.1025582 0.084740646 0.13990778 0.36562428 -0.2926173 -0.24593504 0.102783576 0.35961875 -0.48397064 0.04748889 0.1409449 -0.065570645 -0.47659636 0.38360247 -1.1816422 0.5083434 0.4427298 0.854356 0.014062762 -0.48956507 -0.93482596 0.2849368 -0.057980176 -0.26813665 -0.08797697 0.16626273 0.09268921 0.4499739 -0.1692092 0.9766947 0.27779236 -0.29700294 0.20373765 1.0423763 0.30926302 -0.14092249 0.19516438 -0.4501366 0.41199762 -0.6486116 0.88213515 0.109479256 -0.38917884 0.5579297 -0.07534363 0.70469 -0.3360726 -0.6717528 -0.055151507 -0.5125379 -0.31902644 -0.7636169 0.3671981 0.53066397 0.1105497 0.1093479 0.1657912 -0.24011949 0.25927415 -0.3170193 0.88604796 -0.30015507 0.3409267 0.22287482 0.107338764 -0.23536856 -0.27807876 -0.65194446 -0.0887528 -0.47471473 0.00788261 0.28172344 0.78557086 -0.45036927 0.3156718 -0.5447365 0.7467322 0.8180558 0.22656795 0.10002438 0.3308077 -0.24971072 0.28509024 -0.1300626 0.8022676 0.036924146 0.6667715 0.42763448 -0.42712665 0.64244926 0.34921974 0.050031833 -0.5854506 -0.09354196 -0.19345854 0.25212508 0.17839032 0.3606158 -0.14210646
939 -0.18966529 -0.41634446 -0.15961595 -0.11071172 -0.20240206 -0.063639596 -0.38128695 0.5287576 0.14557531 -0.087566316 -0.4486729 0.48448664 0.38653338 0.17222589 -0.08926227 0.5950468 0.8718044 -0.39959604 0.9537709 0.04357907 0.22095664 0.55278534 -0.21239996 0.15180515 0.3018541 0.48578128 -0.3648184 0.9599769 0.576868 -0.72725433 -0.05942904 -0.055123482 -0.3585437 0.4209758 0.902835 -0.4975732 -0.82380474 -0.8593303 -0.3597788 -0.3200328 0.18624324 -1.0367359 -0.3197979 -0.34637952 1.0305305 -0.36367762 -0.22960778 -0.18377298 -0.4873736 0.42223942 -0.76907516 -0.26317832 -0.16757135 -0.47044194 0.39358544 -1.1836965 -0.44110096 -0.16525176 0.022601616 -0.08473998 -0.6710517 -0.88175887 0.23933709 0.0066567883 -0.2902376 0.116268955 0.42417938 0.34732127 0.22047304 0.6598524 0.45902923 0.076645195 0.4241053 0.015123466 0.3593469 -0.3407397 0.3917795 0.32877725 -0.5495531 -0.08139768 -0.17911604 0.34530854 0.32208094 0.5580493 0.19947651 0.11726327 -0.05383586 0.54414487 0.06276268 -0.20280409 -0.0015920848 0.9101591 0.5091896 0.4571704 -0.12853315 -0.32836443 0.18709248 0.20092693 0.38752767 -0.10859011 -0.0010719951 0.118552834 0.064758725 -0.014400331 -0.34531277 0.189286 -0.07213835 1.2805296 -0.08951963 0.04687088 0.66912234 0.60435414 0.36384982 0.06752159 0.19532962 0.19414651 0.09856729 -0.35109532 0.7918737 0.24073833 0.927546 -0.12344751 -0.24750875 -0.50293225 -0.6262805 0.35823515 1.0469568 0.6380104
2092 1.1321154 0.45773366 0.50533307 -0.22282445 0.08190233 0.55697894 0.24428707 -0.35495645 0.15142062 -0.21079406 -0.05620183 -0.015428215 0.4521907 -0.224172 -0.084631495 0.041569676 0.35268286 -0.021471716 -0.4862774 0.17806911 0.2754381 -0.096655004 -0.61721885 -0.59022826 -0.25171036 -0.07843653 0.52416605 0.08924094 -0.018635005 0.080557056 0.10502473 -0.5339232 -0.28905228 0.5519094 0.9504846 0.60405165 0.64837784 0.19291067 -0.5237619 0.6577495 -0.9618398 -0.39746475 -0.4900534 0.5124356 0.48364678 0.7136214 -0.5439633 0.25139147 0.40287066 0.64847475 0.38883102 -0.88887393 0.27954668 0.32709432 -0.38681644 0.32380632 0.2515819 0.13444157 0.36268258 0.504583 -0.11848294 0.048064224 0.11505297 0.34887365 0.3384298 -0.0026103482 0.07901957 -0.47987288 -0.29895523 0.124204025 0.8152186 -0.2525083 -0.63508385 -0.09886592 -0.16172707 -0.410803 0.06238088 -0.19163573 0.47271648 0.4807723 -0.06216874 0.19314902 -0.13635658 -0.05162879 -0.287738 -0.37799418 -0.32185376 0.6691022 -0.2871076 0.29818997 -0.12485536 -0.5922539 0.48696932 -0.45377147 0.26432467 0.22274137 0.62047607 0.0746621 -0.5746691 0.7301584 0.23684675 -0.50625145 -1.0658824 0.3011527 -0.096940845 0.44126853 -0.6611637 -0.36805674 -0.50312376 0.35092983 -0.4471571 0.07614321 -0.5056565 -0.28283247 -0.5777831 -0.6701021 -0.3998984 0.38219744 0.01699835 -0.18513784 -0.6433786 0.27485722 0.39360073 0.7082965 -0.55922997 -0.11823898 0.07446893 -0.098673806
1395 -0.41308066 -0.46037114 -0.23333825 -0.88523614 0.013503157 -0.053206876 -0.28466308 -0.28116977 -0.1172193 0.64680266 0.4204958 0.17730588 -0.50714624 -0.07989564 -0.88044584 0.6299384 -0.42487144 0.76164776 -0.5801664 0.805446 -1.2395737 0.4900532 1.244593 0.80645275 0.20901072 -0.2255801 0.6268974 0.8038833 0.3641216 0.2507961 0.2747758 0.2041609 0.7267483 -0.8728727 0.75418365 -0.1239001 -0.8766248 -0.97150815 -0.02901768 0.4391237 0.5978064 0.61285734 -0.6776324 0.208007 0.6496891 0.16660829 -0.8688685 0.20389879 0.16116022 0.22867961 0.0036022598 0.54549986 0.6324874 -0.07418785 -0.7756404 -0.9062147 -1.1862078 -1.1695992 -0.39056674 -0.4646213 -0.79586333 -0.13066092 -0.15080884 1.2651843 -0.940933 0.7120487 0.43497384 1.046591 -0.22157641 0.92317647 1.1249409 0.02506812 0.2106509 1.8421074 0.581616 -0.22474083 0.37699422 0.14114094 -0.6584536 -0.39052358 -0.07031017 0.14969514 -0.051988136 0.16006082 0.46109018 0.38595444 -0.61220187 0.43870944 -0.38043278 -0.4710004 -0.63086236 0.044522345 -0.47285056 0.47459093 -0.23560758 0.81792116 -0.2813136 -0.71420014 -0.357573 0.35881674 0.074044086 -0.69782645 0.62332845 0.5024081 -0.86635876 -0.22803932 -0.17044014 0.113381684 1.1182184 0.6706776 -0.0030357577 0.023088776 0.05828555 -0.14109804 -0.3549208 0.62003505 -0.16773285 -0.89498466 0.15585154 -0.5661141 0.91300195 0.43428898 -0.14732875 0.3890583 -0.4705475 1.1357758 0.27170932 0.15219007
138 0.46233293 0.039812982 0.010786995 -0.23464021 -0.5498018 0.048635647 -0.38899016 0.1510874 -0.14030904 -0.54217696 -0.23566185 0.39266223 -0.07196723 0.27234277 0.08356912 -0.35315096 0.73201144 -0.54376185 0.3222736 0.8472595 -0.027203921 0.3735846 -0.75344133 -0.21837284 0.17914361 0.52029353 0.16052128 -0.09912973 0.33753324 -0.22484322 -0.4494961 -0.4905914 0.340871 0.57003593 0.015009809 0.24631913 -0.44161406 -1.1825995 -0.34879103 -0.29513365 -0.32712615 -0.7642619 0.28261766 0.17315604 -0.250435 -1.0844576 0.1811098 -0.076946035 -0.1496471 -0.6889425 -0.58543813 -0.20582551 0.17972076 -0.596034 -0.07161946 -0.19597223 0.5837017 1.114978 0.36719126 0.62667596 0.67957395 -0.116372935 -0.33578795 0.095721595 0.45228675 -0.57499975 0.30152112 0.3622359 0.43261227 0.9637472 -0.17469832 -0.24788544 0.2503121 -0.11319225 0.1699838 -0.15588048 -0.1869702 -0.1930528 -0.033729695 0.113532186 -0.13860828 0.13553067 0.4211047 0.38651118 -0.85028905 -0.48406684 0.24717861 0.65442574 -0.22194618 0.1494489 -0.15677524 0.13242067 -0.15359196 0.22240335 0.57850075 -0.40527397 -0.026082315 -0.10148125 -0.047639605 -0.36071575 -0.29901245 -0.48334312 -0.5696341 -0.031194804 0.4850041 0.49355188 0.63691103 -0.12726575 0.13674343 -0.44581857 0.2438437 0.1150477 0.0937141 0.5967824 0.20715433 -0.2370418 0.1592589 -0.2242188 0.07235631 -0.440145 -0.41899303 -0.37084964 -0.21517105 0.9332811 -0.5555715 0.5279659 -0.34192294 0.20361347
811 0.6474636 -0.4583266 -0.008848593 0.14853679 1.0434595 0.20369495 0.40827468 -0.26825306 -0.1551647 0.20288357 -0.38429934 -0.16697302 0.25302482 -0.82763475 -0.09046249 -0.15261778 0.5604141 -0.18760717 -0.57606393 0.44648853 0.18873836 -0.121889524 -0.2597909 -0.39194536 0.35517704 0.4615251 0.49044657 -0.3895949 -0.033120215 -0.096484385 0.13648844 -0.20700845 0.4975222 -0.1750937 0.12068002 -0.77071816 0.51075965 -0.031563997 -0.45459664 -0.12053693 -0.12824436 0.47895733 0.35000795 0.68745726 0.37289387 0.7466595 -0.28466764 0.38836133 -0.047458507 -0.2657231 1.0608853 -0.14197172 0.57241094 -0.47104472 -0.17757614 -0.13246393 -0.8147505 0.12017498 0.57665133 0.47577634 0.24934325 -0.39156622 -0.32289743 -0.23966143 -0.116143115 0.28523558 -0.12974167 0.29622862 0.346342 -0.5864145 -0.40521052 -0.4311091 -0.7434523 -0.4922881 0.12978065 -0.22161725 0.3138232 -0.018271863 -0.023527944 0.3545128 0.974932 -0.35693532 -0.20984443 0.034327492 0.09385928 0.13453062 -0.31013665 0.26720443 -0.17709517 0.42412198 0.02793016 -0.24454495 0.12545569 -0.5078568 -0.07648654 0.12047255 0.114169665 -0.17437044 -0.4569663 0.26057416 0.15260182 -0.17036375 0.410872 -0.081941046 0.13484442 0.3028907 -0.4110683 0.14357603 -0.4429674 0.27253774 -0.06349148 0.20990333 -0.34551215 0.4403181 0.36988118 0.61319625 0.2639485 -0.7322377 -0.31104082 0.13152072 0.6919479 0.044924352 0.20676821 -0.03547109 -0.17898905 -0.2795233 0.37730515 -0.38469303
348 -0.7592097 -0.30748436 -0.48205405 0.23106554 -0.9032378 -0.17024039 -0.5272165 0.9273837 -0.988328 -0.16014466 -0.17990859 0.9607619 0.25381714 0.30198666 -0.4710241 0.09954247 0.04686763 -0.12552682 -0.3204382 0.37193766 0.15281282 -0.014560617 0.31963432 0.12748727 -0.57868254 -0.24037497 -1.0178753 0.016875802 0.08162105 0.08995444 -0.31902713 -0.24387279 -1.1159084 -0.07651205 -0.7018019 0.11549212 0.37264088 -0.72703934 0.2959225 0.014082976 0.8941087 0.09709749 0.22134937 0.10947658 -0.2499507 -0.069595486 -0.006758673 0.5335431 0.52522063 0.4997571 0.51231897 0.41386563 -0.4955643 0.06480854 0.085477464 -0.0060360655 0.28853682 -0.045854963 -0.28373152 -0.265881 -0.0018398417 -0.5705575 -0.61770254 -0.027847454 -0.50691515 0.7094538 -0.80599505 -0.05781603 -0.6092081 -0.29030254 0.30429164 -0.51797354 -0.59326065 -0.517622 -0.58431345 -0.74136484 0.45671102 -0.053492174 0.027476734 0.14562568 1.0929195 0.4204824 0.6485836 -0.49929944 0.8484741 0.04810424 -0.050476156 0.707055 -1.1016886 0.44105485 1.0440245 -1.1704152 0.15164292 0.76198554 0.12108143 -0.5777465 -0.6321184 -0.39843303 0.40658686 -0.66294473 0.2800819 0.55256826 0.16067907 -0.29293913 -0.6534773 -0.30674323 -0.11578726 0.9377157 -0.5316592 -0.8945853 -0.303679 0.20028579 -0.8735796 -0.43993166 0.6611853 0.44589758 0.35868007 -0.5391882 0.2898461 0.3432027 0.42962497 -0.26720247 -0.50443995 0.7107458 -0.8378436 -0.36790606 0.27110073 -0.6317953
1383 -0.11134627 0.14176738 -0.5582904 0.39345714 -0.52950615 -0.2757433 -0.23516376 0.29965207 0.11758497 -0.4429311 -0.5358819 -0.5483339 0.16337505 -0.4439615 -0.58980167 0.7454866 -0.51783687 -0.20032397 0.6729753 0.07309146 -0.13507967 -0.17438616 0.48922023 0.07045719 -0.09320658 -0.43311632 0.4187988 0.6348227 0.07391323 0.60084355 0.34808168 0.75747794 -0.9196519 0.10881139 -0.8915976 0.37950778 -0.37915352 -0.18751375 0.044061825 -0.33312845 0.32576254 -0.18767491 0.5715594 -0.17520846 -0.1848872 -0.3856172 0.20791446 -0.45012933 0.23280558 0.11988576 0.11761165 0.65937895 -0.2537775 -0.7774855 -0.17054245 0.08130019 0.18854272 0.21823248 -0.06284936 0.008825903 0.16392171 -0.23511413 -0.051023573 -0.07840229 -0.16068527 -0.6734009 -0.7800685 -0.20609343 -0.61458594 0.295231 -0.28434494 1.0056893 -0.8308265 -0.331517 0.29409865 0.6574817 -0.3417171 -0.034315407 0.10657594 0.6230035 -0.32330754 0.1580286 0.097840354 -0.1505776 0.23021963 0.24066256 -0.62903666 -1.2472019 -0.5302553 -0.6362828 -0.845327 0.3476606 0.9094835 0.27869412 0.47492692 -0.010796081 -0.16273665 -0.106415205 0.04124834 -0.12633453 -0.44124064 -0.14505978 0.4998314 -0.8315147 0.11139041 -0.75747603 0.15655524 0.22726619 -0.21570301 -1.0245126 -0.2740051 0.23697053 0.45178348 -0.3831671 -0.12361003 -0.4567204 0.051571414 -0.079184845 0.70126367 -0.7758566 -0.1746484 -0.34703457 -0.60142994 -0.25907257 0.2878787 0.18033198 -0.64485466 0.121315286
1132 -0.5295027 -0.2814702 0.01227282 0.24074057 -0.2178602 -1.053439 -0.104787625 0.0594733 -0.90212774 0.53215635 1.323383 0.94825673 -0.38541776 0.20664468 0.90532523 -0.21145666 0.046308182 -0.41192454 -0.09239432 0.1557937 0.15470389 -0.69951373 -0.41870028 -0.22954042 -0.02260317 -0.4931085 -0.9195231 -0.449528 -0.7845077 0.4830281 -0.38519263 -0.44548914 0.7896238 -0.27824152 0.82914245 -0.1992429 -0.1775723 -0.1056449 0.7099104 0.3313337 -0.4843527 0.1263828 0.5483455 0.51095825 -0.15129945 -0.36112294 -0.22783525 -0.22422007 0.67166114 -0.1913987 0.2779859 0.021205518 0.3816557 0.09016658 -0.028181264 0.42263028 0.23217943 -0.37931833 0.18492402 -0.18025658 -0.2354179 -0.6787088 0.04447204 0.5816186 -0.5973171 0.83378804 -0.08784432 -0.030692667 -0.47904146 -0.035019178 0.0855554 -0.63619363 -0.74755013 0.58507866 -0.23092157 -1.0059544 0.41167405 0.1327567 0.78467774 -0.6840712 0.056294635 -1.0024767 0.5067681 -0.16540712 -0.52906746 -0.29543746 0.12057621 -0.86541 -0.44167286 1.1485461 0.5660774 -0.21383661 0.6955361 0.043763585 -0.2302631 -0.35504913 -0.30431107 -0.31796956 0.16970958 -0.12579031 -0.7891528 0.110461354 0.08554826 0.4935481 -0.097857356 -0.46100023 -0.29999715 0.69598293 -0.2769028 -0.050580956 0.52107465 0.0073417793 -0.39557892 -0.5550769 0.65083873 -0.17326061 0.7910061 0.88065475 -0.031205393 -0.23514515 -0.5110218 0.066056475 -0.90757734 1.0069498 0.45075047 -0.4387595 -0.4535683 -0.51933885
2179 1.3975388 0.3862438 0.3993652 -0.7950518 -0.2763706 0.55386895 -0.40077052 0.23920682 0.12786491 -0.44842434 -0.37488312 0.2839662 -0.1485822 -0.74693865 -0.368812 0.05789205 0.08514785 -0.20126772 -0.15878187 0.13180447 -0.57254 -0.0675013 -0.3843718 -0.051509738 0.40738612 -0.008587456 0.37421358 0.05535093 0.31502473 -0.11771499 -0.24169958 -0.6556662 0.058699004 -0.44851956 0.15500213 0.5232172 0.7766837 -0.12679034 -0.6301373 0.47655702 -0.30106777 0.16229552 -0.041981928 0.21253861 0.42357427 0.2351448 -0.3055504 0.005837232 0.35937563 -0.28837532 -0.05606679 0.15728296 -0.034354143 -0.02529297 0.3279335 0.036786653 -0.1294983 0.0075645354 0.1138071 0.08716278 0.28655642 0.013915457 0.42988083 0.33638284 0.8310195 0.08022744 0.4252928 -0.36203957 0.47150776 -0.5076779 0.493405 0.17603865 -0.7180073 0.57853085 -0.49683338 0.042681836 0.4876561 -0.06301749 0.4672021 0.08162302 0.24884534 -0.14883143 -0.6337621 0.11625893 -0.7936603 -0.1204523 -0.09742325 0.17180945 -0.120441794 -0.52548426 0.47053602 -0.14796172 0.091067255 0.31453627 0.3303291 0.18902159 0.5931384 0.16172573 -0.2355964 -0.39454162 0.90247744 0.07915153 -0.86927825 0.4602912 -0.15434384 0.24586281 0.4144637 -0.44203126 -0.09040945 0.17619464 0.011729967 0.4562513 -0.08090253 -0.19810073 -0.520993 -0.34783745 -0.15875043 0.48469192 -0.35850734 -0.46963826 0.012836896 0.031979967 0.020299409 0.055770747 -0.4662493 0.10702262 -0.18159553 0.5081913
272 0.23213705 0.68613756 -0.13980488 -0.1109508 -0.035427235 -0.28815264 0.1075361 0.497506 -0.03150283 -0.26026127 0.018825449 -0.11614007 0.2084278 0.27728343 0.01548443 0.45115954 1.0130366 -0.96694446 0.6190575 -0.30692628 0.2460881 0.53550184 -0.0054291114 0.33916318 0.40663135 0.09147333 0.31408852 0.60685205 -0.66591954 -0.56143427 -0.09960815 -0.2369312 -0.290079 0.101938814 0.022424582 -0.10824819 0.07395367 -0.07101449 -0.20153493 0.46570688 0.044425875 -0.37582815 0.59497595 -0.062298656 -0.07977724 -0.11928967 0.17387736 -0.6015461 -0.013508314 -0.47102353 -0.5468023 0.18426763 0.054014094 0.14426461 -0.19914176 0.0438034 -0.0467858 0.39797664 0.51930195 0.1314593 -0.83413994 -0.10400527 0.006532818 -0.17369077 0.4849509 -0.25239244 -0.25011498 0.22558162 0.57396024 -0.49793556 0.06996201 0.5325743 -0.22294563 0.095520236 -0.01761898 0.12942669 0.59045064 0.4364124 0.65787566 0.22788644 -0.2993872 -0.39658505 -0.03940918 0.9890861 0.1560666 -0.556733 -0.18050358 -0.20058803 -0.096580505 -0.110073425 -0.012116797 -0.6897479 0.8247476 -0.53491473 0.07923849 -0.5266967 -0.40249997 -0.41559267 0.2577295 -0.42632407 0.16531457 -0.04661959 -0.08481293 0.38859028 0.14261544 -0.3015803 0.67406046 0.2841781 -0.16028056 0.08239763 0.28242025 -0.08420429 0.0316156 0.5420708 0.0057396237 -0.05361271 -0.27203172 0.23393719 -0.19333391 0.25971013 -0.26315692 0.16825 0.37808302 0.18778972 -0.409283 0.16312921 0.21996929 0.5019837
284 0.064706214 0.22443746 -0.1063187 -0.16803935 -0.12251974 -0.16901281 -0.25268742 0.12022691 -0.12660186 0.11990711 0.094225585 0.16967168 0.3090552 -0.1744959 -0.03714987 0.30750513 1.1497846 -0.3303001 0.296264 -0.27943555 -0.023289908 0.4874169 0.3408145 0.56479216 0.330074 0.22795153 -0.0110310875 0.52692294 -0.6148631 -0.5719353 -0.086852826 0.22385773 -0.49924988 0.34770828 -0.12296191 0.14264336 -0.072912835 -0.15308343 -0.24086866 0.07903137 -0.17275675 -0.18653014 0.44680205 0.013565071 0.28871343 -0.4029728 -0.14484708 -0.49132544 0.002911305 -0.09870759 -0.5040928 0.00020666793 -0.10131236 0.124933265 -0.13600382 -0.14752886 -0.014032558 0.2076253 0.50026816 0.39927232 -0.48956892 -0.20123872 0.038755834 -0.1486521 0.72825825 -0.3692635 -0.39050242 0.047671065 0.0552989 -0.09930611 0.21868557 0.6566272 -0.31184053 0.11485729 -0.043991562 0.32886824 0.36730042 0.51890093 0.39318037 0.19226195 -0.0015002117 -0.38340014 0.28788286 0.7050242 0.64453465 -0.44250858 -0.25843817 -0.49625713 -0.1277101 0.1131892 -0.3506129 -0.612822 1.0635664 -0.64694315 0.14048322 -0.37365437 -0.2811463 0.18297747 0.50353533 -0.20886959 0.1284591 -0.18775725 -0.35875842 0.031797513 -0.0013496885 0.17015263 0.6835398 0.55265695 -0.18441781 -0.11398903 0.26775157 -0.19932583 0.11467825 0.25232688 0.39501724 -0.3480073 -0.082005695 -0.1168177 -0.058129556 0.38428104 -0.6385993 0.2923638 0.036437925 0.1588053 -0.2857706 -0.18679005 0.095592506 0.7055923
72 0.073157586 -0.45586607 0.06547761 -0.5135783 -0.2937092 -0.27043998 -0.25326958 -0.5477611 0.18357703 -0.17548206 0.9448462 0.06821599 0.1482563 0.28460452 -0.09547143 0.33331317 0.62411237 -0.46349975 -0.540999 0.6439122 0.06921382 0.41598547 0.3410727 -0.16118361 0.06264181 0.10533844 0.3103533 -0.11938766 -0.19255705 0.2390968 -0.19068442 0.0053289495 -0.38245365 -0.5709161 0.45364016 -0.60526353 -0.67075455 -0.24840309 0.2090087 -0.41072553 -0.073798105 0.5389206 0.29523 0.4647743 -0.6343484 -0.46376017 -0.25417295 0.17330205 -0.9571497 -1.0015689 0.26464593 -0.36793363 -0.11678807 -0.4249267 -0.82510275 0.0942918 -0.10322718 0.48279232 -0.26266328 -0.19133466 -0.52064866 -0.39424583 -0.84075075 -0.09771339 -0.72605973 -0.49238357 0.1870924 -0.12722711 0.3285206 -0.68102366 -1.0825902 -0.9574449 -0.011530668 0.26304826 -0.3243799 -0.61650574 -0.45290795 0.080155775 -0.21309215 0.039380446 0.19382748 -0.59887505 0.5870651 -0.14320648 -0.057078667 0.08768667 0.44606763 0.6779014 0.20679545 0.011223607 -0.15356842 -0.5432862 -0.32434157 0.17047006 0.30604646 -0.039380696 -0.06396269 -0.69929945 -0.23397823 -0.0022709966 -0.93579435 -0.18095846 -0.38930458 0.041875035 -0.479652 0.42246142 0.74726814 0.3200714 -0.5170604 0.06619122 -1.0759887 0.16491269 -0.55681795 0.5036956 0.6655238 0.61648196 -0.044372514 -0.29141855 0.1865409 -0.7825162 0.24079049 0.29298937 0.66025 0.28735495 -0.011573128 -0.531641 0.6637822 -0.41714013
2234 0.63326323 -0.26883695 0.2673688 -0.5893135 0.1971212 0.070089996 -0.77481234 -0.87691516 0.84450173 0.21595901 -0.7933949 -0.45432413 -0.3384534 -0.35476768 -0.57854325 -0.08340895 0.27004907 0.35691524 -0.10218401 0.647403 -0.42295155 0.041820027 -0.45916954 -0.20720325 -0.08464154 0.3444307 0.3139611 0.29513496 0.2709398 0.4138312 -0.34260774 -0.05637652 0.6854261 -0.13071518 -0.16751514 0.0107477885 0.18108116 0.26177883 -0.39254957 0.11860634 -0.7899545 0.7347446 0.3946553 -0.2304834 0.18194109 0.9397696 0.3457011 0.1510291 -0.074748315 -0.32821202 0.025863089 -0.66155887 -0.55684197 -0.5318819 -0.12461022 -0.20529702 -0.016751155 0.43043256 0.11979149 0.27755243 0.020028207 0.35238293 0.80599004 0.029430233 -0.0013116151 0.22206068 -0.16958067 -0.12342633 0.15247427 -0.3242277 0.39844242 0.12344059 0.030054256 0.2279137 0.02492747 -0.38948983 0.117206305 -0.59338206 0.20773579 -0.13965176 -0.35615796 -0.07672465 -0.30353323 -0.02458375 -0.08142681 -0.67517126 0.15819532 0.110642105 0.6671476 -0.47730425 0.4564865 -0.4415189 0.30489403 0.4389251 0.7189554 0.248245 0.14771524 -0.6295511 -0.4679105 -0.6641541 0.24261849 0.062599614 -0.4419981 0.28181043 0.11930576 0.31136805 -0.5638447 0.26901758 -0.45491755 -0.0012892867 -0.12755218 -0.31034318 -0.30682826 -0.1384672 -0.40202436 0.43580955 -0.33475626 0.30573794 -0.54948324 -0.34216785 0.24837968 0.2266447 0.286882 0.3393545 -0.20151934 -0.37200472 -0.21248905 -0.6141596
2172 0.10312382 -1.1891673 0.24053861 -1.0417782 0.21944189 0.48898566 0.28396097 -0.56859696 0.8311885 0.31577983 0.25935745 -0.011431366 -0.052560136 -0.07089809 -0.6767283 0.6928373 0.17621574 -0.24672845 -0.04859507 -0.037005827 -0.26711532 -0.24456975 -0.47973087 -0.5369414 -0.024794996 0.12661493 0.32849193 0.1161983 0.5695542 -0.26645476 1.2997167 -0.70160913 -0.34041753 0.1613103 0.3091787 0.19740729 0.4796876 0.4504364 -0.900947 0.4590388 -0.8183778 0.3314065 -0.865357 0.2608465 0.30888346 0.31331947 -0.04131691 0.38396972 0.39377707 -0.37724775 0.06847235 -0.7484824 0.09291092 0.3348001 0.7081739 0.3550678 0.5793615 -0.0950459 0.4014723 -0.43426168 0.58761644 -0.69099313 -0.3123725 0.45750448 0.5596995 0.5131536 -0.24593836 -0.15837032 0.07760553 -0.41404793 0.41950345 0.3886654 -0.46980774 0.24734871 -0.16009544 -0.57149065 -0.24319181 -0.20868602 0.09248822 0.13533467 -0.16118556 0.28340748 0.2899345 0.13079801 0.060781635 -0.05628094 -0.21309212 0.65131485 0.13140726 -0.035979934 -0.80217093 -1.1004684 1.1857309 -0.44945306 0.12575848 0.21352598 0.93060774 -0.1847347 -0.19071002 -0.023097157 0.24658285 -0.35345963 -1.177986 0.4304719 0.7569286 0.5352865 -0.18967012 0.05255273 0.069616534 0.38680112 0.40225577 0.16661537 0.02279 -0.36183327 -0.041918643 -1.2592432 -0.7828789 0.32792407 -0.9962765 -0.35720494 -0.71982664 0.16338986 0.029542316 0.6994648 -0.06721967 0.40895903 -0.69451576 0.4511068
1598 -0.8595845 -0.29199317 0.3142175 0.3214697 -0.22841018 -1.2156332 -0.43195957 -0.12212377 -1.0137147 0.62411535 1.7060102 0.95558107 -0.45085955 0.6836007 1.2330457 -0.17303139 0.060080074 -0.13204175 0.12007688 0.603176 0.20296977 -1.0893272 -0.47079858 -0.4924366 -0.50130785 -0.43219665 -1.2012293 -0.2704199 -0.7772893 0.53873104 -0.65971756 -0.46779764 0.88606066 -0.40949428 1.3517892 -0.090680584 -0.5789196 -0.19679406 0.7806503 0.60179913 -0.45164272 0.21314642 0.61858076 0.9470958 0.0603928 -0.46478376 -0.42200813 -0.5985277 1.2036854 -0.25090116 -0.35317996 -0.08927292 0.6170057 -0.21693426 -0.5110274 0.73694193 0.30204067 -0.5274414 0.61947346 -0.12072184 -0.26662117 -1.0027856 0.22469306 0.96857077 -0.7028137 1.0466582 0.13716602 0.4210016 -0.53393555 0.026984889 0.23938659 -1.145927 -0.5974658 0.95406485 -0.53297037 -0.99451095 0.4250342 0.15029155 0.97749364 -0.6240659 -0.40402752 -1.2890229 0.14279337 -0.15406531 -0.43538004 -0.44532692 0.15233976 -0.92157614 -0.35220692 1.4316899 0.16979516 -0.037944973 0.92631155 0.20636192 -0.34075704 -0.40381253 -0.5190347 -0.33692765 0.073911205 -0.081398204 -0.92988586 0.37283325 0.2593439 0.7491024 -0.16834915 -0.91519934 -0.48107725 0.87925655 -0.093766294 0.12304544 0.7184067 0.25459793 -0.21103571 -0.52003616 0.9115318 0.19458586 0.9206645 0.99731773 -0.06126201 -0.196877 -0.70294076 0.17097881 -0.86861473 1.3363827 0.9032162 -0.25149646 -0.73911554 -0.6971276
1750 0.32138187 0.0674907 0.0751268 0.39266887 -0.20129855 -0.30331856 -0.30466703 0.24999431 0.26133293 0.49187556 -0.9568327 0.20767874 0.32847202 -0.14771032 -0.55310965 0.21950912 -0.041898318 -0.41820055 0.8232077 -0.1716071 -0.5690314 0.31960335 -0.5006988 0.18332894 0.15094718 0.0043175304 0.30177957 0.39934865 0.42999345 -0.7342779 -0.4130188 -0.32003486 0.6416749 -0.74879175 -0.28807044 0.0314347 0.6409829 0.44051656 -0.227261 -0.028916255 -0.62247247 0.30245927 0.13823009 0.45698327 0.1779746 0.15889858 0.4268815 -0.075979844 -0.26052558 0.08842832 -1.2069595 -0.75325775 -0.44397318 0.09937375 0.15482718 0.102485396 -0.4948842 -0.054293036 0.008165296 -0.33392715 0.10479752 0.3156019 0.61797214 -0.19251698 0.4886129 0.36219165 0.60248107 -0.532193 0.5148357 0.2586267 -0.33795598 -0.5061549 -0.11744392 0.3601062 0.40681338 0.31663397 0.30895612 -0.06504917 -0.7076268 0.81823325 -0.011868618 0.4224497 0.3342875 0.43088576 0.084524594 -0.31379575 0.16369885 -0.46707818 -0.016013503 0.36083838 0.6803141 0.44622093 -0.32013375 0.4303892 0.7749034 0.04249725 0.16702768 0.28081524 -0.84509724 -0.19698241 0.609898 0.2089459 -0.2927856 0.31470707 -0.37836564 -0.37666383 -0.7475984 -0.23270944 0.11843953 -0.5333794 -0.043735046 -0.43092647 0.089819565 0.49077076 -0.015648117 0.8225851 -0.52964103 0.12959401 -0.36447394 0.3634752 0.74725455 -0.4001271 0.3826845 -0.5559481 -0.31924462 -0.2536934 -0.088244475 0.13802467
2159 0.94528073 0.47888988 0.72896665 -0.37561095 1.0435159 0.8573183 0.7708283 0.37006423 0.68930215 -0.24755745 0.25578696 0.0766 0.42035633 0.11371861 -0.055914477 0.55484223 -0.33635178 -0.027439378 -0.74099433 0.11384791 -0.42742574 -0.669926 -0.600314 -0.6919737 -0.60010666 -0.49087837 0.44887495 -0.20612901 0.5504383 0.014493832 0.6263404 -0.5776903 -0.6087257 0.027734336 0.28883582 0.7065435 0.37482998 0.2867516 -0.1865699 0.33958173 -0.6321846 0.15034121 -1.1360701 0.033215 0.4707389 0.5801512 -0.10247727 0.05809906 0.5418311 0.51625746 0.9971816 -0.5780354 0.9079683 0.08480001 0.4489298 0.9533585 0.29375187 0.36092234 0.7034675 0.069539316 0.39985213 -0.24501917 -0.30655777 0.5837777 -0.07441036 -0.1362612 -0.06798867 -0.7869444 -0.71486264 -0.258442 1.6659278 0.50416064 -0.8561204 -0.26345578 -0.4644305 -0.7932993 0.06734581 -0.085306704 0.57475984 0.54728913 0.38252133 0.32093272 -0.20411786 0.40402237 -0.326266 -0.01367031 -0.5789211 0.47957554 -0.03321606 0.7522703 -0.19842964 -0.60577726 0.40814063 -0.8420639 0.65332425 -0.5558852 0.2924684 0.11733008 -0.55996495 0.63843286 0.14480272 -0.9520439 -0.29169482 0.7711827 0.5473072 -0.13489115 0.2136593 -0.14182782 -0.35765284 1.0039905 0.042276155 -0.4235522 -1.1419291 0.024011102 -0.39222685 -0.36103064 -0.21642189 0.5420775 -0.11046733 -0.42087537 -0.56179184 -0.35745794 0.41966107 0.9547952 -0.622024 -0.7648202 -0.54599994 0.071036294
708 0.1552906 0.2933811 0.18302698 0.22748253 -0.64276516 0.5236453 -0.3222469 0.3114649 -0.10339369 -0.006067738 0.08190088 0.5399983 -0.96311283 0.10982608 0.0042971447 -0.36412868 0.5928086 -0.8902765 -0.15348594 -0.04144983 -0.4225932 0.08823062 0.083164126 -0.23948155 -0.16977182 -0.23992616 0.71701133 0.7921878 0.49207234 -0.11340148 0.076074995 -0.17969978 -0.52057785 -0.26292306 -0.15984856 0.25218064 0.23028672 0.116294205 -0.3495945 0.19757915 -0.34072214 0.23294804 -0.26163658 0.37510693 0.60538197 -0.2958667 0.072662815 -0.18474942 -0.73964286 -0.16151641 -0.12255407 -0.49604395 0.09884801 -0.18521751 1.0213706 0.32680395 -0.63284105 0.75066733 -0.09889291 0.15680552 0.06718602 -0.11214068 0.005251944 0.017944358 0.022702001 -1.0484674 0.295522 -0.28137854 0.4435384 0.5888788 -0.93272966 0.05615112 -0.4528042 -0.1769922 -0.093361124 -0.028632572 0.063096344 -0.43365532 0.8111744 0.58548546 -0.080728225 -0.15952285 0.29608402 -0.14417085 -0.03755071 -0.3464659 -0.4936856 0.13775378 -0.15055096 0.16160583 -0.2620817 -0.09641433 0.25270116 -0.5007539 0.6304358 -0.31522387 0.117014594 -0.24763536 -0.59859127 0.344127 0.07865202 -0.6275955 0.17061022 -0.043245852 0.5215317 0.29978916 0.5746898 0.7396347 -0.004782103 -0.39852345 0.29523838 -0.2636731 -0.41018397 0.49990278 -0.5844508 -0.8996917 -0.5300856 -0.14161997 0.05207476 -0.48889202 -0.6080641 -0.35993814 -0.16141237 0.1847959 0.14369613 -0.02038002 -0.62807953 -0.008405674
22 0.83562946 0.21682788 0.061379507 -0.67492616 -0.45216966 -0.3106115 0.46527585 0.059663497 0.21410914 -0.65977013 0.12552147 0.087026924 -0.49668384 -0.20018083 0.36210057 0.11817931 0.11390958 -0.46697864 -0.48136294 0.3548759 -0.22888482 0.13371365 -0.10262886 -0.23134765 0.3755171 0.3726557 0.49333054 -0.6408509 -0.034212083 -0.2102925 -0.4579696 0.07206142 0.77457684 0.15860422 -0.3322043 -1.2966866 -0.8610653 0.3579386 0.062377624 -0.09692236 0.45428407 0.39333546 0.66168565 0.22437619 -0.5561913 0.033653893 -0.39868778 0.06323469 -0.2247701 -0.32621545 -0.18573853 -0.33292577 1.084022 0.5475966 -0.3760194 -0.36692166 -0.18846601 0.76790667 0.32726926 0.007122037 -0.2434099 0.14055789 -0.3014127 -0.35014457 -0.65721536 -0.021961413 0.67866194 0.40225264 0.3730921 0.52438444 -0.436106 -0.7787986 0.28441817 0.04990191 -0.27673963 -0.23646733 -0.07242292 0.07962079 0.084259786 0.36568847 0.45609948 -0.41041088 0.028087866 0.77256656 -0.6348247 -0.7946055 0.5772542 -0.04287757 -0.18904126 0.2906343 0.28893283 -0.43230867 -1.1725763 0.37573594 1.1889275 -0.5347689 0.22750562 -0.39912593 -0.2888368 0.16101079 -0.9144199 -0.7873735 -0.038969643 0.17682612 0.16553193 -0.5692379 0.22748938 -0.51589376 0.6767395 -0.26129514 -0.13534379 -0.054238655 0.17197911 0.4334912 0.5793482 0.760182 -0.28382945 -0.00055371225 -0.4462838 -0.84629977 -0.5692674 -0.15616746 0.7288422 0.31374544 0.1553818 0.19653356 0.18080254 -0.60152507
972 -0.13938421 0.53825855 -0.2640139 -0.03562309 -0.5622896 -0.43401688 0.36933568 0.1474008 -0.41876763 -0.8630022 0.0003991723 0.9156949 0.043092772 0.97044355 -0.35597777 0.10675681 0.8620012 -0.81735766 -0.55384445 -0.32245958 0.3438342 -0.2855319 -0.56555665 -0.32860506 -0.4802379 -0.20242825 -0.53533304 0.30947956 -0.15022925 -0.39099982 -0.20837952 -0.79095674 -0.6965728 -0.24557005 0.41578847 -0.1632719 -0.33516142 -0.1797562 -0.19755667 -0.28315943 -0.2844476 -0.66818124 0.39483884 -0.17435348 0.25841475 -0.3854204 -0.43146276 0.16923413 -0.1020366 -0.12411408 -0.24353918 -0.02993017 -0.31520632 0.027157329 0.28024834 -0.30690262 0.2501062 -0.47027704 0.4496789 -0.029745173 0.11231117 -0.24018842 -0.081116796 -0.3577107 -0.27527088 -0.055375054 0.0563251 0.05908768 0.33554155 0.59178406 0.042181432 0.1669634 0.20652132 0.11748444 -0.23413977 -0.5412418 0.010433316 -0.16747156 -0.3370365 0.15119976 0.1600878 0.28556147 0.5492979 -0.33329216 0.4478719 0.4518963 -0.7600251 -0.08012825 -0.85231596 0.2696708 0.9178352 0.062340707 0.44495416 0.68968296 0.18267463 -0.059342 0.056696348 -0.6048127 -0.3688829 -0.23039791 -0.24797659 0.2323287 0.19642735 -0.0038185697 0.0172472 0.3956885 0.4380142 0.7624701 -0.36349526 -0.3016426 0.27196816 0.47618246 -0.03366305 -0.8247425 -0.03608138 -0.23777652 0.3670739 0.22435735 0.67026126 0.4059434 0.3312226 -0.3137542 -0.5005901 0.11840523 -0.34793514 0.421095 0.59948885 -0.24330764
2087 0.038469054 -0.416956 0.3865518 -0.7440907 0.8693603 0.6705909 0.48222628 -0.7455389 0.47143993 0.4751583 0.32224947 0.16417038 -0.13142076 -0.7937439 -0.7413218 0.57641965 0.086113386 0.23244038 -0.0814451 -0.5477494 -0.062057216 -0.20990737 -0.43363443 -0.2889359 0.15562928 -0.5760865 0.2827813 0.13622868 -0.1831885 0.11304421 0.8060007 -0.30280006 -0.20532826 0.5016682 0.15538763 0.6420699 0.3145434 0.702045 -0.78118956 0.46806234 -0.87946534 0.36819208 -0.48541293 0.5436727 0.3398465 0.49977586 0.21524267 -0.049967706 0.5247735 0.5385314 0.37575796 -0.3317006 0.23999935 0.3392015 0.61089003 0.13568509 0.5852679 -0.28720984 0.04703955 -0.3729013 0.12489429 -0.006642513 0.046062022 0.58669436 0.3775551 0.81456286 -0.3484683 -0.2373605 -0.4037154 0.12474702 0.7377057 0.37935764 -0.5750401 -0.20655166 0.2900484 -0.21348333 -0.20377542 -0.520758 0.43942434 0.32989532 0.110099174 0.08404417 0.52445185 -0.062076665 -0.09548453 -0.7771812 -0.52883756 0.09966999 0.011603415 0.40846178 -0.5345982 -0.80800724 0.64755166 -0.87122667 0.43492195 0.36104026 0.28264913 0.20325196 -0.78402466 0.22046523 0.19669257 -0.68678844 -0.6596799 -0.20567971 0.6238803 0.10834623 -0.36454487 -0.03600554 0.3082142 0.4336778 0.47876394 -0.2887717 -0.15892442 -0.25210527 -0.14314288 -1.085243 -0.87266874 0.19375259 -0.9270405 -0.59580064 -0.8095284 -0.24538355 -0.39717868 0.7836163 -0.23344004 0.20601755 -0.8886057 0.27646157
1678 0.25974768 -0.46672788 0.15484737 0.6801219 0.014168382 0.44794625 -0.05075506 -0.53135854 -0.21211423 0.3044817 -0.27867958 -0.42201224 -0.76331604 -0.24700803 0.3087511 -0.21593308 0.1458787 0.08912567 -0.3697136 0.21538305 0.019849252 0.13737626 -0.24739555 -0.037944987 -0.31142703 0.9669212 0.018561888 0.037159324 0.4203534 -0.09335718 0.082749434 -0.20399599 0.35431346 0.055410903 0.28664017 -0.5627543 0.30991665 0.26331753 0.27319518 -0.15487427 -0.104343854 0.213642 0.07426832 -0.5512348 0.56936204 0.06430456 -0.2316507 -0.14634445 -0.15929915 0.09179355 0.21660319 -0.19447803 -0.26870206 -0.24118324 0.44986686 0.032197617 0.2369933 0.27454308 0.46282846 0.53915226 0.28755176 0.20873287 0.11265588 -0.11119782 0.2507309 0.070735514 0.3907508 0.35829318 -0.52314323 0.12061949 -0.2503863 -0.14104995 -0.0723269 0.11970494 0.23825097 0.2571909 -0.09094891 -0.023249917 0.29503548 0.03607309 0.036464073 -0.19780608 0.91965294 -0.0108829215 1.1265236 0.59087765 0.45044202 -0.03312388 0.6775307 0.4235535 -0.67225903 0.80712944 -0.039268155 0.599812 -0.75003016 -0.037431266 -0.11159933 0.012466721 -0.5134135 0.3748746 -0.23925121 0.18131568 -0.37952015 0.66911775 -0.19754843 -0.18432376 0.48422515 -0.37405008 -0.38146016 0.9016148 -0.22668043 0.45966768 -0.83214724 0.7042599 -0.3100931 0.54964185 -0.014545381 0.03825371 -0.12248659 -0.39679366 -0.4876313 0.40391853 0.58301383 0.35480684 0.32507282 -0.6765116 -0.09359109 -0.20912199
680 0.24238119 -0.008308895 0.09142937 -0.1690633 0.30582803 -0.38278985 0.47876653 -0.08652193 0.31005308 0.09996447 0.23568319 -0.49380732 -0.5006084 0.108627714 0.22814229 0.3017833 0.6561453 0.0082252845 -0.13041362 1.0460622 -0.29116833 -0.16160285 0.10885683 -0.094631195 0.01773116 -0.3103603 -0.3891669 0.1447092 0.03747168 -0.11906742 -0.8671417 0.061168876 0.31206512 -0.1555217 0.50090146 -0.8323899 -0.3945041 0.08100511 0.5366658 -0.52182454 0.033086427 0.45375726 -0.2676147 0.9335944 -0.05377611 -0.3098597 -0.4343779 -0.06709525 -0.66239756 -0.46943688 -0.7870933 -0.0006227158 -0.15288463 -0.12097729 -0.700403 -0.18272379 -0.5602755 0.32026958 0.49965018 -0.1731658 -0.60092276 -0.05764862 -0.44685715 -0.35701904 -0.66475725 -0.20389935 0.38008416 0.2568401 0.72418195 -0.094099045 -0.6783261 -1.0007447 0.26377743 0.81670254 -0.14465132 -0.18074962 -0.16902265 -0.5301189 -0.08392941 -0.17699021 0.26452675 -0.7725785 0.3200518 0.20439059 -0.47809353 0.16904226 -0.082667165 -0.20473449 0.022711933 -0.07791074 -0.21711186 -0.06107557 -0.9515485 0.49777755 0.29896027 0.2324292 -0.021394674 -0.23494837 -0.38364092 0.3154648 -0.69384426 -0.76650167 0.06592516 -0.119719 -0.24848193 -0.35051546 0.35128763 0.40730834 0.20880875 0.43560702 -1.1512425 0.25307655 0.17675272 0.44908932 0.36275554 0.8916192 0.13631244 -0.091747984 -0.25026244 -0.27723426 -0.18063909 0.5672768 0.29777718 -0.060225107 0.061232515 -0.026993327 1.1561117 0.24836884
899 0.44269004 0.23312823 0.5169086 0.21979329 -0.37127823 0.14187859 -0.041496105 0.3603646 0.24567382 -0.6603843 -0.85843915 0.1260696 0.45365262 -0.32713076 -0.054759018 -0.11181772 0.67279315 0.017014183 0.33503252 0.6505234 0.6497895 -0.048893414 0.10345003 0.3985744 -0.22794828 0.34729472 0.11023165 0.4949162 0.105292454 -0.5605631 -0.12967233 -0.18533984 -0.3909634 0.43889806 0.09423219 0.03680566 0.073665224 -0.5809863 0.09662226 -0.31314912 -0.25456676 -0.33205143 -0.10603725 -0.05793345 -0.29614812 -0.3609113 -0.19819887 0.03008172 0.09689507 -0.45736182 -0.1309349 -0.52756447 -0.8197855 -0.039765544 -0.0753463 0.02663757 0.28948158 0.355946 0.22449161 0.4211511 -0.32215786 -0.61325586 0.035579786 -0.07202647 0.6521435 -0.9684139 -0.08338619 0.124944925 -0.37428796 0.27273828 0.30871058 -0.21064344 0.48015028 0.23068081 0.5209334 -0.58822215 -0.22500783 0.25440782 -0.5650457 0.11945021 -0.83739907 -0.32032615 0.14341588 0.3898167 -0.060507096 -0.9115659 0.48518538 -0.28602594 -0.53396785 -0.3284663 -0.20512542 0.7559169 0.5733453 0.17491817 0.32962057 -0.10078575 0.14227578 0.5485727 -0.32850894 -0.69218206 0.25617972 -0.036836836 -0.84556454 0.25351697 0.0006339168 0.765006 0.64714164 0.47285748 -0.10971054 -0.07619805 0.4988233 0.3610071 -0.12559593 0.46299395 0.22605485 -0.11552453 -0.30312467 -0.5703523 -0.01805073 0.019080235 0.6572807 -0.39347014 -0.19153653 0.056414 -0.43063208 -0.4866691 0.7772845 -0.3137669
1127 -0.7749172 0.80672455 -0.18748905 0.043539107 -0.2180686 0.17280783 -0.79089767 0.01772862 -0.40612686 -0.7677095 -0.2656024 0.82333 0.16995686 0.35084447 0.049374036 1.0785776 -0.015411906 0.08423836 0.21018289 -0.524904 -0.06035955 0.116118796 0.30442807 0.47116542 -0.1550067 -0.2283664 -0.048646588 0.6064188 -0.38760707 -0.48385927 -0.26432642 0.37662607 -0.6945912 0.061210644 -0.19621517 0.5929452 -0.27130476 0.42873508 0.9456279 -0.38693124 0.02875448 -0.07659885 0.97856456 0.48791516 0.22444917 -0.59924376 -0.97919863 -0.7301306 -0.88529015 0.059418302 -0.26044264 0.6769884 -0.97418106 0.10853078 0.2751824 -0.9146464 0.30174223 0.32142013 0.5772132 0.8039863 -0.44331643 -0.7355493 -0.021966964 -0.31326666 0.13054374 -0.6817327 -0.41225165 0.27312064 -0.48200843 0.8805253 0.25024897 0.30721718 -0.28854585 0.12686704 -0.9621899 0.09647711 -0.18263128 -0.18440846 -0.23720926 0.6643871 -0.09342783 0.2273441 0.12764409 0.115480565 0.8748086 0.23288725 -0.51397985 -0.77059746 -0.15414256 -1.0951847 -0.26853785 0.5485804 1.2428119 -0.03682529 0.17638375 -0.70651567 -0.77688783 -0.74284935 0.15272158 0.13812856 -0.19832967 -0.48876372 0.8598711 -0.39858723 0.02105534 -0.24826345 0.6485012 0.09327814 0.45753434 -0.51801044 -0.47606397 -0.36590955 0.49586934 -0.6391992 0.1545338 -0.23132056 0.01059103 0.110197976 0.89067125 -1.1707274 -0.30949217 -0.18951285 0.11406523 0.3957555 0.26932317 -0.7604078 -0.28974366 0.34642893
2195 0.5688798 -0.35437617 0.43215048 -0.35789388 0.10418788 0.6866176 0.56961143 -0.7385405 0.48064467 0.32096145 -0.23527156 -0.025104523 -0.66217023 -0.004412785 -0.15924656 -0.044238273 0.14768243 -0.44148237 0.070660144 0.43742332 0.4438465 0.17658596 -0.30206302 0.026566818 -0.39143226 0.25676614 0.1445119 0.3691648 0.42451572 -0.58172286 0.74958414 -0.43401316 -0.19199234 -0.14516465 0.47703895 0.12441465 0.6691013 0.15971655 -0.2974281 -0.002406083 -0.9414923 0.6628003 -0.5700016 -0.05393794 0.6232612 0.9931711 -0.09886713 0.49072462 0.002466699 0.24018528 0.004017138 -0.7771922 -0.09260639 0.27328366 0.34625036 -0.7474265 0.05413907 -0.13104399 0.32645932 -0.24024379 0.6225338 -0.40207326 0.19853374 0.21576342 0.012694113 0.3665398 -0.25613588 0.15695514 0.13772486 -0.006488543 0.05369065 0.4113601 0.23698182 -0.20917584 -0.113853514 0.17492992 -0.037207037 -0.7291332 -0.47584695 -0.1446824 0.34976965 0.48856628 0.94507426 0.6484669 0.5875997 0.47974616 -0.2895139 0.81416893 0.0076732635 0.34871992 0.07226836 -0.19165796 0.40933174 -0.18122774 0.010507826 0.18911283 0.42557245 0.2522959 -0.5346256 0.2560405 0.49155948 0.1264585 -0.8989276 0.67646044 0.6283634 0.477088 0.4320839 -0.23164761 -0.31736615 0.22817306 0.008609515 0.23311546 -0.03856425 -0.21290274 0.19267094 -0.7093794 -0.08220278 0.33875102 -0.8232997 0.08306804 -0.42493328 0.88069785 0.54487264 0.45328316 0.13916329 0.8635492 -0.054207943 0.36689752
416 0.5177012 -0.10193709 0.17754959 -0.01704958 0.059579395 0.32689774 0.5776141 -0.29456225 -0.11554569 0.094571486 -0.10601179 0.25053802 -0.09525485 0.342706 -0.6513405 0.07729946 0.26901045 -0.08025449 -0.25221795 0.19444004 0.09957634 -0.11569733 -0.72032535 0.19067018 -0.3401388 0.080127545 -0.025942516 0.6285764 0.27090478 -0.24171461 0.005469243 -0.38210815 -0.82309973 0.104393914 0.0030286796 0.15572841 -0.17216755 0.50201154 0.026614152 0.29423377 -0.41442403 -0.27892414 0.46708652 0.32460552 0.4148565 -0.4955903 0.46542856 0.12087718 -0.09378583 0.53957903 0.2147708 -0.66035205 -0.02024763 -0.57195944 0.01210334 0.18012717 0.16822174 0.6461624 -0.032284815 1.131575 -0.26891226 -0.37639824 0.06811112 0.30601713 -0.22279897 -0.7295881 0.37958238 -0.009091198 -0.053148966 0.6500854 0.2119653 0.085927784 -0.42603487 -0.42317253 -0.5524387 -0.70161885 0.22325805 -0.23382653 0.7209927 0.15070075 -0.5388714 0.022913177 0.41737607 0.14108162 -0.14059371 -0.1328354 -0.19093648 0.34704742 -0.40460545 0.5289406 0.19525161 0.5011761 0.5884745 -0.058152594 0.7573715 -0.69735 0.29972836 0.6861432 -0.11084619 0.03904365 -0.01078452 -0.05961253 0.18603429 0.0779542 0.4731221 -0.26230767 0.77111304 -0.27763033 -0.3416346 -0.023178034 0.33921295 -0.37764725 -0.1000139 -0.14810671 0.030191356 -0.6680839 -0.05991541 -0.3282447 0.11038871 -0.8433667 -0.19416675 0.2151115 0.14281963 -0.04401291 -0.4705825 0.4915099 -0.15534614 0.49848592
2363 -0.4473605 0.6078634 0.09205736 0.232564 -0.30363917 0.049774453 0.700079 0.57730985 -0.5145556 0.20939091 -0.37979114 0.12476401 -0.49921554 -0.10000702 0.10489265 -0.14234069 -0.2591534 -0.2100566 0.029924318 -0.14537126 0.42163393 0.64224017 0.232196 0.19512676 0.14743435 0.27384025 -0.077622324 -0.70582724 0.2421165 -0.05878564 0.015906688 -0.5268935 -0.08034519 1.1909198 0.03648131 0.38012332 0.82584447 -0.15628844 -0.84129316 0.07213 -0.3740548 -0.93805087 0.1738311 0.17018187 0.42871603 0.036566958 0.93725663 0.20189779 0.49312156 0.28596056 0.59235024 -0.4488682 0.11094872 0.4022505 -0.041336276 0.15878403 1.1247585 0.28824037 -0.25652045 -0.84593 -0.25412783 -0.15309721 0.21540469 0.18161884 0.87705123 0.577543 0.029700495 0.636292 0.28726655 0.080832556 0.18473348 -0.24918208 0.87428594 -0.10427228 0.1601271 -0.20986012 -0.07419217 -0.28717738 -0.5723065 0.31444705 -0.59370786 -0.19857915 -0.65213215 0.5796672 -0.2560968 0.03892444 -0.039244317 0.9036281 -0.9837525 -0.5036982 0.92721593 0.24273594 -0.34755826 -0.620612 0.43059856 0.38816002 0.6428916 0.13774896 0.58094424 -0.10176076 0.003913412 0.72491795 -0.23187572 0.43882394 0.9795499 0.15753606 0.32207447 -0.2188285 -0.04564645 -0.43876937 0.77303344 -0.06915001 -0.03203948 0.14285375 0.09118479 -0.44963923 0.2891299 -0.63499683 -0.1253379 0.48310375 -0.18017769 -0.34467524 -0.1056722 0.3402681 -0.29851615 0.9383002 -0.23948406 0.7435118
2302 1.077484 -0.09602156 0.7492617 -0.7235086 0.18012816 0.7174347 0.44510204 -0.628928 0.3425464 0.2205039 0.25302017 -0.9979255 -0.25377333 -0.8420362 -0.10322624 0.8978359 -0.1602377 0.35609758 -0.19821182 -0.76805043 -0.31875685 -0.39203915 -1.1481782 -0.56057113 -0.3247196 -0.7195727 0.19798088 -0.5662826 0.57571846 0.5353552 -0.047126103 0.15072793 -0.18105742 0.36043918 0.6936773 -0.0908661 1.1142815 -0.035763115 -0.78516954 0.083992936 -0.5380544 0.6596679 -0.5790081 0.3837362 0.71568 0.24728194 0.042214856 0.64840025 1.2452406 0.6012269 0.5890361 -0.12791508 0.35415465 0.16091222 0.019004038 0.5539456 0.6470743 0.024466759 -0.3430283 0.011975606 0.54102075 0.014398664 0.10527843 0.35817942 0.25260958 0.22404844 -0.61670923 -0.46167177 -0.08299081 -0.34577957 -0.08967645 0.55694985 -0.62623227 -0.2454245 -0.39629987 -0.08220909 0.19204077 -0.25926617 0.037730105 0.93553513 -0.0393826 -0.38092092 -0.46309298 -0.6935771 -0.5341995 0.06118034 -0.592298 0.02938813 -0.7694324 0.7378083 -0.73206717 -0.88528204 0.6358705 -0.8472856 0.10813667 -1.0773369 -0.05002489 -0.16638502 -1.2383491 0.49344194 -0.40649375 0.35298026 -0.77068347 -0.17722899 0.31471798 -0.47819498 -0.064716086 -0.3657361 0.24931085 0.18853612 0.8444804 0.09093074 0.10869913 -0.49901304 -0.13804336 -0.5074258 -0.14052843 0.28213197 -1.2146506 -0.7795639 -0.7517908 -0.72679895 0.0011950331 0.4101653 -0.05005955 -0.86866885 -1.0344992 0.3545544
573 0.09857584 0.18879612 0.2680422 0.6622194 -0.28189123 0.5639638 -0.23928043 0.5349087 -0.46518752 -0.6698965 -0.028245553 0.595889 0.17754185 0.63864416 -0.18272167 0.029498715 -0.18070662 -0.73216003 -0.031136088 -0.14989547 0.06690377 0.4838784 0.12339373 -0.2067192 -0.6809117 -0.07190258 -0.78991634 -0.8538923 0.23953924 -0.25013423 0.017684761 -0.93805623 0.24555722 -0.20904984 -0.10408118 0.6087245 0.019689431 -0.11271989 -0.25447732 0.53486276 0.37775233 0.25816074 0.26770565 0.7583677 -0.9214159 -0.23726466 0.41372457 -0.072624415 -0.29542425 -0.32320058 -0.30746716 0.09936808 0.33642405 0.41352844 0.39698142 0.005803369 0.29290926 -0.49429238 -0.059899267 0.7929124 0.0760775 -0.27103314 0.58134764 0.34101093 0.5475564 -0.356945 0.19981891 -0.5026412 0.36776593 0.07905771 -0.7762873 -1.1368502 -0.3227647 -0.6415986 -0.09453526 0.23863229 -0.08561623 0.07089637 0.27980947 -0.057292283 -0.4950216 -0.065058425 0.19957288 -0.199465 -0.90303296 -0.8986189 0.7540708 0.35494095 -0.49599844 0.28210458 0.4103277 0.19928364 0.2613557 -0.067379974 0.04026754 -1.259729 -0.4321816 0.43971837 1.2525368 -0.544771 -0.28504542 0.24777064 -0.61916476 0.24342054 -0.06679058 0.34289494 0.083704256 -0.61263686 -0.04051099 0.16233583 0.05056833 0.47715333 -0.23454918 0.5410487 0.017148668 0.8103743 0.61350185 -0.25142914 0.38579726 0.25820106 0.6068748 0.013123486 0.546834 0.30488592 -0.3839661 0.20081764 0.4149134 -0.38648587
1747 -0.13497078 -0.37050956 0.013812035 -0.75684464 -0.7488656 -0.6481259 -0.0963603 -1.1520213 -0.053800855 0.17642578 -0.09016712 -0.4704504 0.57161325 0.15985343 -0.21745107 -0.13951504 0.124956556 -0.304635 0.4269802 -0.6451998 -0.5369974 -0.06677627 -0.18871999 -0.06956704 0.10217319 0.4322636 -0.43872365 -0.40804428 0.7323308 -0.71476626 -0.02361187 0.096853465 0.3376458 -0.4562443 -0.7646162 -0.3896062 0.558224 0.6962615 -0.11865587 -0.73709637 0.46491176 0.72786343 -0.080410115 -0.43391764 0.082411826 0.92173994 0.7340572 -0.23308653 -0.0024449173 -0.34739274 -0.9862266 -0.7719586 -0.060373493 -0.031104274 -0.56303525 -0.20930898 -0.54230016 -0.47204646 0.27829888 -0.34581393 0.05334029 0.28932098 0.47347224 -0.13501751 0.61670786 1.3132498 -0.76044875 -0.2403202 0.31220713 -1.0377548 0.10111014 0.33889034 -0.014377698 0.80199486 -0.8860068 0.8337653 -0.12244649 -0.2842648 -0.6732024 0.16980737 -0.3089509 0.640475 -0.24267234 0.64598024 -0.11654613 -0.0080331415 0.37945086 -0.109050065 0.41589946 -0.27248326 -0.1928936 -0.09156546 0.1825459 0.32707956 -0.35729346 0.118946314 -0.5402642 -0.24302498 -0.6119347 -0.36358416 -0.0150191095 0.2819797 -0.45399675 -0.2728056 -0.27381128 -1.0743709 -0.444144 -0.33370197 0.19235557 0.17852502 -0.30518335 -0.54603803 -0.19452493 0.23291318 0.28018928 0.118707865 0.41434056 0.7105153 -0.84238243 -0.44332469 0.236929 0.3722098 0.6113479 0.31898326 0.73291427 -1.0458726 -0.8533879 0.7788695
919 -0.3569745 -0.2551153 0.4215597 0.36109853 0.24525064 -0.13593696 0.07241384 -0.39277312 -0.2808744 -0.27463835 -0.5038072 -0.48267937 0.3308242 0.17741239 -0.36917594 0.6753247 -0.46624658 -0.4246757 0.37813747 0.0835986 0.21020757 -0.2807571 0.25481567 0.21714197 -0.004593022 -1.0607334 0.38500747 -0.39538038 0.12777732 -0.20106435 0.038625296 0.5181167 -0.47637436 0.4324206 0.22011842 0.27978033 -0.5704479 0.6695662 0.1803599 0.20867565 0.11224582 0.088785864 -0.31680903 -0.3312834 -0.52828205 -0.45161173 -0.97688293 -0.104649976 0.5294629 0.4331873 -0.05044403 0.30635902 -0.7358352 -0.12797154 0.23001422 0.18076289 1.0560188 0.5138242 0.5549609 -0.02051175 -0.5143185 0.043352164 -0.6876559 -0.118841015 0.07075652 -0.7862515 -0.703443 -0.13229339 -0.24043858 -0.14443006 0.34436944 0.1804838 -0.07836597 -0.12212843 -0.5102971 0.22140339 0.03160341 0.39067578 0.03414277 0.062296897 0.14280957 0.35407406 0.031427722 0.6010043 -0.109364845 -0.97676754 -0.18212062 -0.35460004 -0.49288514 0.76272464 -0.680282 -0.6320408 0.04440281 -0.32008106 0.58087385 -0.6178165 -0.9120864 -0.43906885 -0.52412355 0.21437131 -0.340123 -0.25993523 0.4267253 0.35488126 -0.33536667 0.15808451 0.47200358 -0.13809061 0.36689928 -0.33644757 -0.6019694 0.7874175 0.4619857 0.16738115 0.19569358 -0.6219369 -0.11623208 0.09149553 -0.13520315 -0.4515643 0.42312822 0.038700763 0.027537305 0.08689267 0.4456388 -0.3506791 -0.16785823 -0.18118742
1911 -0.14465244 -0.27175152 0.33083403 0.36853668 -0.24592328 0.37464464 -0.2636209 0.26618436 -0.29132625 -0.5859467 -0.09840025 -0.075572714 0.12269278 0.33152038 -0.07317691 0.09531294 0.6293975 0.026801385 0.663451 -0.70012367 -0.3247067 0.5553809 -0.12572306 0.018322334 0.2010575 0.8281202 -0.3299367 -0.10478847 0.27978715 0.06360523 -0.19888426 0.12440741 -0.24074239 -0.24262564 -0.41884714 0.10588837 -0.19753481 -0.22984815 -0.023748823 -0.34328306 0.2829942 -0.731202 0.2864937 -0.20714001 -0.20836762 0.053049147 -0.18228753 0.18663597 0.32885396 -0.95990014 -0.09045174 0.14088458 -0.49552777 -0.47754073 0.22611402 -0.07294736 0.31674537 -0.2913373 -0.2003126 0.22303966 -0.19671783 0.46521476 -0.14265913 0.1795226 -0.1198859 -0.13293311 0.26720846 0.04730305 0.08887933 0.071492776 -0.1855034 0.09221235 0.54934853 0.03434705 0.39987162 -0.044434167 -0.40201297 -0.047890678 -0.2606128 0.43449694 -0.2143209 -0.020805065 0.63401175 -0.09027281 -0.19778052 0.028574154 0.52680296 -0.08694255 -0.058950454 0.2668637 0.1876784 0.50958943 -0.055689182 -0.3326732 -0.12010263 -0.49459377 -0.07216402 0.16476211 0.29929414 -0.42989266 -0.33719647 0.37473497 -0.6780463 -0.30258092 0.27116367 0.10423686 0.34281585 -0.0158014 -0.12533283 0.18237256 -0.25748143 0.13143392 0.31931788 0.21908896 0.32821923 0.2608086 0.54181075 -0.19418989 -0.33965158 0.23639834 0.36745685 -0.34389928 -0.11933025 -0.6266689 0.17140889 0.078115664 -0.16367303 0.08130984
1903 -0.33394846 -0.19020909 0.28026223 -0.75007 0.26953572 0.023397133 0.21746609 -0.041355498 0.44421288 0.2514741 0.6181604 0.2743191 -0.15893856 -0.47901186 -0.40896946 -0.19679934 -0.12422527 -0.3856187 0.11433579 -0.49380133 -0.23957908 0.62901545 -0.044597972 -0.10644866 0.31058055 0.34511483 -0.065674916 -0.41149014 0.51044333 -0.04020088 -0.38098878 0.09391934 0.4407783 -0.4534933 -0.08678064 -0.32454354 -0.2771341 0.36561537 -0.48154414 0.123418875 -0.2808507 0.25375426 -0.15404414 0.3795104 0.70122933 0.52735364 -0.23056675 0.618917 0.542227 0.7189776 -0.26018313 -0.36402115 -0.08615357 0.24256538 0.38369673 0.8583344 0.1049149 -0.056741364 -0.014897753 -0.22741377 0.17621644 0.53883773 0.12446076 -0.27990142 0.15767094 0.42442924 -1.09399 -0.038420394 -0.0047467016 -0.3849012 -0.12006085 -0.06562413 -0.40372378 -0.1884929 0.017312828 0.23603353 -0.29238367 -0.32279584 0.08127306 -0.13484557 -0.20522362 -0.53490597 0.1661417 0.36777064 -0.096589066 0.30226558 0.2859471 -0.18268526 -0.16077933 0.50520325 0.33986235 0.06043327 0.45538145 0.109612055 0.50238764 -0.27996168 -0.1070139 -0.121283434 0.07022245 0.031282306 0.16805689 -0.26782188 0.25998715 -0.1699679 0.28754616 0.16025054 -0.03425247 0.2849084 -0.25459424 0.57323176 0.41369697 0.19638346 -0.066983834 -0.5820974 0.25932026 -0.13781863 0.15544717 0.43521112 -0.55233395 0.040732577 0.19048858 -0.2686006 -0.12466941 0.13847761 -0.19906512 0.08285198 -0.12684865 0.03708599
165 0.71779203 0.09523456 0.2633763 -0.6144589 -0.32577798 0.07234903 0.66834426 -0.13506213 0.44034904 -0.9268502 0.12805273 0.57452065 -0.84983695 -0.24328938 0.008671708 0.37543142 0.80119216 -0.3954299 -0.688918 0.17365573 -0.43295434 -0.06543543 0.048147693 -0.50033057 0.38044345 1.0906715 0.01533756 -0.17610341 -0.3364061 0.31117037 -0.42732573 -0.120951995 0.6141153 -1.1543612 -0.056071233 -0.62671083 -0.2656816 0.44557565 0.2985651 -0.08364623 -0.08172934 0.4858034 0.5614297 0.5869859 -0.58839643 0.043018617 -0.55867904 0.0627808 -0.56720734 -0.40532446 -0.10443018 -0.81295085 0.40880334 0.035647802 -0.22112657 0.54584795 -0.22717747 0.46109486 0.121326774 -0.21312384 -0.41938376 0.49868098 -0.82376724 -0.19162259 -0.47353488 -0.30873308 0.005879745 0.21258312 -0.07315527 -0.47667968 -0.40783852 -0.6067585 0.6765252 0.33372337 -0.5361524 -0.89484024 -0.25459948 -0.28015083 0.3121067 -0.21289676 -0.11380098 -0.25983673 0.6559433 0.55848074 -0.441603 -0.012572572 0.70598775 -0.518072 0.68726754 0.4726509 0.36663857 -0.71294034 -0.565922 -0.068125926 -0.1492955 -0.5561869 0.24915674 -0.432518 -0.58709675 -0.11440414 -0.67191285 -1.0602555 -0.18605551 -0.2981362 -0.1955291 -0.5149222 -0.025767606 -0.14283887 -0.89733714 0.01035004 -0.19252107 0.17252259 -0.2742504 0.9087478 0.5947568 0.5173305 -0.47130662 0.59172136 -0.12072605 -0.70805955 -0.023621954 0.59764546 0.6470783 -0.07782168 -0.40492702 -0.33076566 0.43765846 -0.51442283
1470 -0.20953342 -0.22603676 -0.6974922 1.5137326 0.511043 -0.53667843 0.5953719 0.3817415 0.68305254 -0.3380886 1.0661778 0.47430095 0.031062946 0.22389862 0.7511935 -0.5551814 -0.63378847 -1.3042643 -0.33983022 0.694592 -0.14466667 -0.38518098 0.2036469 0.15133256 0.7197031 0.16332331 -0.10594116 0.5212878 -0.026850432 0.027710715 1.0727136 -0.7071342 -0.54881406 0.2922988 -0.5578816 -0.14077212 -0.22569819 0.11534518 -0.4456388 0.17250115 0.37185758 1.52431 0.31301418 0.32979208 0.514409 0.14405325 -0.013223631 0.7910852 -0.010546694 1.3212967 0.5794307 0.5293422 -0.10416599 0.6296882 0.28155237 0.50726414 0.013092518 -0.30510312 -0.9517263 -0.32413715 0.7207983 -0.13027573 -0.0021738708 0.16979915 0.2180328 -0.43086067 -1.159518 0.56758595 0.23571055 0.3676919 -0.8736986 -0.5044447 0.45216155 -0.63185155 0.8922158 -0.083577834 0.3734875 0.23244685 0.41358766 -1.2600545 0.6993248 0.23037098 -1.00758 -0.54591364 0.0581783 -0.17316078 -0.39931333 0.54042983 -0.45367712 -0.26214918 0.19532245 0.18266685 0.7473018 -0.8436874 0.13854732 0.49155188 -0.32576245 0.5472449 -0.36504015 0.6340323 0.1432428 -0.019848067 1.5635371 -1.0749847 0.057494223 0.3584719 0.6962111 0.018864125 -0.018595211 -0.29796505 0.110542625 -0.31103328 -0.23646528 -1.0509394 0.41657668 -0.81614834 0.28207368 -1.2377108 0.5481583 0.93615586 0.54436606 0.16258958 0.020813037 -0.5388609 -0.33477965 -0.213532 -0.09420007 0.29807281
780 0.3915803 0.20860589 -0.280286 0.18974072 0.12676206 0.52900136 0.58089143 -0.1395286 0.21994863 -0.15650284 -0.4394921 -0.22826767 -0.2949267 0.22155604 -0.15768293 -0.5572508 0.46306613 0.34233874 -0.8178462 0.00082042813 -0.12675083 0.07333181 0.23784384 0.45350748 0.02259139 0.5048215 -0.044719946 -0.25228307 -0.086954325 -0.1599716 0.026611995 0.2561478 0.15258878 -0.05486281 -0.03780366 -0.2549851 0.32477948 0.039291054 -0.49134877 -0.008963846 -0.40966427 -0.33266017 0.16909401 -0.6032085 0.047002476 0.21561486 0.0416338 -0.11447775 0.099855594 -0.08001906 0.41649887 0.011099163 0.18038353 0.25228333 -0.13606104 0.09448103 0.5013029 0.22458751 -0.40581626 0.04488978 -0.018783595 0.8498296 -0.07705179 -0.7941706 -0.050713964 0.01404921 0.30114186 -0.17961645 0.89230704 -0.24772589 -0.15744108 0.006450355 -0.037738964 -0.18555783 0.044175837 0.31138155 -0.53507984 -0.23072292 0.47371575 -0.13100117 0.41946155 0.43525475 0.27236232 0.08628141 0.5625211 0.8735931 0.61221784 -0.3805419 0.05119717 -0.1185224 0.19243273 0.07221079 -0.54716754 -0.20724833 0.06778531 -0.50339794 0.45045167 -0.61849785 0.32321653 0.38018012 0.11870674 -0.55618644 -0.13796887 -0.0003051143 -0.3250506 -0.4363244 0.008772234 -0.77828777 -0.45433637 0.4156308 -1.0287402 0.6590849 -0.13472982 -0.3735895 0.55587596 -0.28339183 -0.2080295 0.30198604 0.12660885 -0.13663372 -0.1981672 0.09475531 0.23001847 -0.14790545 0.1467368 -0.35735247 0.35083798 0.6039449
675 -0.005003147 -0.27912647 0.22510871 -0.23741463 0.35304293 0.0047525316 -0.37955984 -0.53577185 -0.29679725 0.030538738 0.115405664 0.41646206 0.3299262 0.52950126 -0.8170299 0.2776708 0.0806368 -0.06571763 0.40175194 -1.0596373 -0.019261178 -0.27462575 -0.6360756 -0.3852703 0.3508859 -0.19133043 -0.29888004 -0.6472636 0.39429766 -0.073658265 0.4066347 -0.67577326 -0.06716951 -0.18304014 -0.0253766 0.05610679 0.68348604 0.1397661 -0.2711671 0.029791817 -0.5951229 0.18312714 0.22672467 0.5946697 0.8306483 -0.21164687 0.5147838 0.104061484 -0.32925868 0.124440685 -0.7813439 -0.1433177 0.22130293 0.22163801 0.15218396 -0.94429326 -0.18711075 -0.49598318 0.4004388 1.0353054 0.25647137 -0.47452214 0.089775905 0.44561163 0.86673373 0.49068955 -0.055543013 -0.38994807 -0.30897066 -0.11992733 0.60266453 0.17792118 -0.5242634 0.60884064 -0.48906592 -0.16329978 0.23362455 -0.033940047 -0.3134725 0.04899156 0.08103768 0.46008018 -0.17306757 0.31636056 -0.88576275 -0.51663786 -0.30539504 -0.18295968 -0.13384521 -0.07746885 0.20769995 0.22280845 0.74360937 0.17411757 0.69020116 -0.05035528 0.17503718 -0.5712064 -0.804327 0.33475727 0.7554668 0.5512766 -0.43196914 -0.62933713 0.07685198 0.0985919 0.0338354 -0.46536863 -0.3788357 -0.057807423 0.4345659 0.21484707 -0.24720238 0.23351042 -0.3770231 -0.87944674 -0.003946528 0.48335904 0.56903064 -0.3534245 -0.09562035 -0.30577558 0.27100888 0.45757732 0.6949604 -0.45344925 -0.67360145 0.44436562
2188 0.58945525 0.2786756 0.62022406 -0.13129696 0.67263573 0.77881026 0.28147778 -0.6778446 0.036954027 0.3995137 -0.09018625 -0.12819164 -0.3686915 -1.4352314 -0.19977698 -0.22331405 -0.21291468 -0.056121 -0.4044789 -0.34354195 0.076461 -0.6607788 -0.87886727 -0.50074005 -0.13641474 -0.9610924 0.16604768 0.17785057 0.30449098 0.027543345 0.6902818 -0.9278098 0.2554221 -0.0055646785 0.5708051 0.62033063 1.0269738 -0.060124546 -0.4057973 0.37056276 -0.61108327 0.3613496 -0.19696507 0.4290554 0.31544387 -0.25631246 -0.29805237 0.26517618 0.5352174 -0.0068944283 0.5405123 -0.34495717 -0.36990014 -0.38804215 0.13418588 0.8168002 0.65833324 -0.1998191 -0.16220678 0.5099537 0.6688907 -0.023517348 0.5457632 0.31881648 0.47948688 0.5178518 -0.49260515 0.042972684 -0.23257218 0.080209866 0.018612422 0.88258195 -0.6024383 0.13544893 -0.7034999 0.26362506 0.26536223 -1.0727801 0.9228334 0.42240983 0.045875467 0.39664957 -0.08916483 -0.14331073 -0.13365147 0.23464103 -0.91249895 0.10564509 -0.42661938 0.9715089 -0.22001979 -0.032303005 0.7114855 -0.4347569 0.3014147 0.38529506 0.7839468 0.3497241 -0.93374485 -0.05648917 0.20418169 -0.24101648 -0.94118506 0.7006528 0.37373072 -0.17486006 0.23412642 -0.23854023 0.2589886 0.34225073 0.817302 -0.0032735844 -0.35412556 -0.052919734 -0.42960703 -0.7247009 -1.1952647 0.8705323 -0.21730044 -0.35722423 -0.33994794 -0.20703414 -0.4359261 -0.20699467 0.10197041 0.28386742 -0.685386 0.60694426
2233 0.6179728 -0.46616167 0.58969134 -0.737785 0.5390861 0.28946614 0.5322748 0.09464614 0.02395482 -0.2457718 0.74980634 -0.04533851 0.15861697 -0.030818246 -1.017456 0.72074646 -0.15263179 -0.31154448 0.11583653 -0.33888873 -0.2560612 0.26838484 -0.6105342 0.037689954 0.04011766 0.039650135 0.25789464 0.1742891 0.19401294 -0.09206444 0.7596562 -0.44996917 0.25080797 0.30161765 0.69789445 0.41876462 0.43506363 0.24275666 -0.59819955 0.24097016 -0.28784811 -0.24884748 -0.34235165 -0.33426964 0.33245593 0.93317485 0.15300542 0.3061782 0.33721685 0.17110048 0.5003206 -0.3887879 0.27250525 0.047812097 0.6145406 0.5675707 0.20825818 -0.11483822 0.5837376 0.2552159 0.20962569 -0.57737726 0.008996084 0.14929426 0.11354136 0.19094038 -0.21380171 -0.42357323 -0.69890493 -0.68091345 0.40388346 0.6664748 -0.39939755 0.05138015 0.07584271 -0.683657 -0.41041267 -0.19995694 1.0502933 -0.18664223 -0.13665977 0.4537867 0.7306595 0.03620609 0.39376956 0.49232 -0.30880386 -0.21182401 -0.048809767 0.46573618 -0.20156914 -0.2863199 1.0313088 -0.52345645 0.4806384 -0.31392136 0.79557043 0.35725245 -0.17623882 0.11308171 0.28379545 -0.09117663 -0.42568114 0.1485456 0.3905803 0.13524482 0.021485634 0.05780855 0.06065727 0.71452856 0.44045302 -0.20964287 -0.4859264 0.04584543 -0.15911037 -0.2986608 0.020596966 -0.1309508 -1.0442622 -0.34775925 -0.18848968 -0.046192583 -0.64070845 0.50388575 0.10060186 0.9932312 -0.9128355 0.3609837
1324 -0.85420924 -0.38193703 0.42590368 -0.81091154 -0.5410289 0.4263556 -0.51700467 -0.09827087 0.41714278 -0.37377885 -0.09324311 0.4654657 0.3218963 -0.48882058 -0.32399043 -0.8773996 0.22631106 0.55426985 -0.5214531 0.018169612 0.5599989 -0.06007827 0.63029075 -0.12402922 -0.12779254 -0.114992484 0.035384167 0.3902497 -0.27506208 0.075459726 -0.37679178 0.6900912 -0.83956444 0.0006172173 0.5541096 0.2952546 0.2459036 -0.8025508 0.9830847 -0.1381422 0.637563 -0.08160836 -0.62195516 0.0051905364 0.42519566 -0.32063589 -0.9567686 0.65920293 0.80098104 -0.008675937 0.27703905 -0.70990527 -0.1016762 -0.109545715 -0.5648713 0.7268523 0.42726275 -0.64913535 0.32979912 0.13943863 -0.11038903 -0.36838746 0.1853626 -0.09955985 0.40634853 -1.1734915 0.13319027 0.38501278 -0.54045486 -0.06948599 -0.21086988 -0.5482055 0.3162427 0.25854447 -0.18209802 -0.6758076 -0.03870809 0.24953735 -1.1860323 0.07928103 -0.33789632 -1.3350395 -0.73931545 -0.20984787 -0.17466223 -0.511019 0.7839346 0.8741895 0.2583164 -0.24622622 -0.23857132 0.09146479 -0.07670358 0.54657084 -0.831878 0.68064845 -0.5656717 0.046236373 0.4823125 -0.32759565 -0.03005909 -0.38979417 -0.3063661 -0.61075026 -0.21069014 -0.647763 0.12456476 -0.18988606 0.52051663 0.67149264 0.2860369 0.3427483 -0.4550044 1.134335 -1.1222904 -0.8161728 -0.6558108 0.68815535 0.30763668 -0.89348286 0.32206514 -0.56012785 -0.03231899 -0.65598124 0.17076695 0.16431949 0.180643 -0.863934
334 0.84744513 0.21300037 -0.13166367 -0.030436784 0.4688639 -0.49857593 -0.070985 0.756149 -0.65346533 -0.6605369 -0.6079101 0.008554965 -0.41214508 -0.8570899 0.035548113 -0.19040185 -0.15591767 0.20621511 -0.72162 -0.6425394 0.118771404 -0.21494348 0.5199678 -0.35640252 0.14203918 -0.19097447 0.60616237 -0.6368666 -0.18404259 0.028817127 -0.012919654 0.20447925 0.7431326 0.36074066 -0.79646134 -0.1608703 0.54189163 -0.61109716 -0.2740763 -0.21772349 -0.14140946 -0.36471504 -0.45748758 0.27111202 -0.72272885 -0.41375756 0.45885724 0.15475333 0.7177058 -0.31821188 0.44464314 -0.2116259 -0.014200322 0.4628305 0.85489273 0.26583788 -0.2926874 -0.25866276 0.26537865 0.0049775513 0.41304624 0.2465302 -0.46938437 -0.26979566 0.22176203 -0.11882707 -0.3792856 -0.1102612 0.8232152 -0.2544241 -0.1092731 -0.28648898 0.44174927 -0.023499003 -0.2785411 0.5394881 0.1241155 0.18542919 0.6692332 0.040711865 -0.04968662 0.10125597 -0.30646047 0.18881273 0.38227478 -0.061025992 -0.45472616 -0.12842824 -0.42509228 -0.05635976 -0.43678936 -0.29394287 -0.9039005 -0.028648868 0.3917498 0.20893636 0.83368665 0.4576084 -0.38682777 -0.39885235 0.679931 -0.68576854 -0.13551104 0.2389558 -0.5772555 0.63225925 -0.40197983 -0.34782472 0.13622728 -0.06752051 -0.29057476 0.20553684 0.23049836 -0.5533326 0.2698565 0.09981413 -0.29097688 0.112251356 -0.69495106 0.6665001 -0.00947056 -0.16089173 -0.21197821 -0.14691459 0.05404342 0.16372392 0.009126449 0.68795395
21 0.20787302 0.045194924 0.12821297 -1.0514776 -0.43108037 0.09664662 0.46716073 -0.54676646 0.0796265 -0.55169344 -0.037767828 0.38334334 -0.68304384 -0.18641889 -0.07517085 0.64537066 1.114346 -0.7491938 -0.5282808 0.24432927 -0.009811241 0.1003556 -0.1492961 -0.62333757 0.12630877 1.1935114 0.06901184 -0.17632017 0.40020102 -0.12840338 -0.32111067 -0.0016130991 0.7944816 -0.97039676 0.23637794 -0.68015647 -0.26637748 0.50838405 -0.004155375 -0.037450783 -0.7702052 0.028866418 1.220274 0.58563966 -0.064904034 0.396163 -0.39386597 0.30036762 -0.89211357 -0.49559867 -0.071238175 -0.94474036 -0.094054945 0.18279128 -0.09339169 -0.18466112 -0.022780418 0.765427 0.20096533 0.0075627016 -0.5846662 -0.22701097 -0.75344193 -0.19370928 -0.11886989 -0.31645077 0.4585024 0.06771627 0.71695375 -0.50011545 -0.38304287 -0.8207426 0.5492975 0.084516354 -0.3087332 -0.8050318 -0.116612285 0.06888881 -0.18054262 0.3730083 0.062981345 0.18263836 0.78892946 0.5772683 -0.595673 -0.5314499 0.7981429 -0.557675 0.4547711 0.030662827 0.24355069 -0.47650164 -0.3704561 0.25630838 0.42591044 -0.630727 0.14394209 -0.35355377 -0.15041153 -0.2653166 -0.6003497 -0.58560234 -0.28235474 -0.61862177 0.06514406 -0.35394096 -0.16677667 0.15780395 -0.67911 -0.02106402 -0.44718415 0.34400722 -0.3169452 1.0591333 -0.087484606 0.47002494 0.1823918 0.3386609 -0.050391436 -0.8927979 0.23601642 0.24690673 0.55391 0.8763715 -0.7547655 -0.21816546 0.37011385 -0.91980755
1538 1.1306947 0.18409842 -0.647019 0.013559774 -0.8287126 -0.14724274 0.06729088 0.7284003 -0.08823708 0.31801087 -0.47474778 -0.81836516 -0.8389084 -0.12071648 0.7313995 -0.41885418 0.4774812 0.098986484 0.22927073 -0.41204107 -0.4546664 0.4470691 -0.7229161 -0.124042556 0.08268919 0.19883232 0.016981084 -0.6360297 -0.4557349 0.26041877 0.3107248 0.011035901 0.19820431 0.49663252 -0.37334353 -0.28165376 0.61379576 -0.075247854 -0.250957 -0.49406573 -0.02024015 -0.74905413 -0.67865795 -1.0605515 0.47179884 -0.24566206 0.5508573 -0.10582581 0.2502482 -0.16418795 1.0463476 0.18795942 -0.13572454 0.99346143 0.95417464 0.9079909 0.67622346 -0.469212 0.016607594 -1.1455356 0.46917832 1.2177185 -0.12036762 -1.1567416 0.44332802 0.6538076 -0.111959405 -0.4814856 0.25309268 -0.6183203 0.4358119 0.84556067 0.4095658 -0.66563135 -0.09552151 1.0848448 -1.1655159 -0.36856025 0.05653689 0.32200497 -0.3119687 -0.3425039 -0.39200106 0.58663195 -0.0808152 1.1681058 0.040530927 -0.44395354 -0.58836037 -0.2555933 0.4600296 1.1000056 -0.74975556 0.031237155 0.1253068 -0.11189523 0.5263133 -0.08473297 0.460412 -0.093638256 0.3808128 -0.7771196 -0.51676285 1.0040107 0.06671345 -0.039705954 0.14809915 0.07292496 -0.6428176 0.38226253 -0.94996786 0.3517204 -0.22331394 -0.5923322 -0.27566952 -0.5130969 -0.13848831 0.29942548 0.0032112598 0.05186218 0.3890018 -0.5817575 0.301294 -0.6804905 0.023959108 0.5472763 1.2023282 0.57270455
2017 -0.34619033 0.20085558 -0.1540924 0.23908424 0.00058644265 -0.37915432 0.18401068 0.123581864 -0.11690624 0.32308954 0.19192745 0.37298918 -0.03298551 0.2867162 -0.17944965 0.25350472 -0.22755086 -0.021672718 -0.008371368 0.13499533 -0.17310202 -0.40410766 0.026184797 -0.0617958 -0.29069576 -0.13231921 -0.21534522 -0.08216438 0.4421256 0.36959296 -0.3433932 0.19514352 -0.08783264 -0.86326456 0.17595641 -0.012634294 0.8319193 -0.6540262 0.38200682 -0.16547292 0.13908297 -0.036178447 -0.26078713 -0.48190403 -0.18314628 0.040255457 0.5389777 0.39791915 0.27567002 0.10035814 0.92730224 0.38905814 -0.073113464 0.23394868 -0.7391976 -0.27720675 0.6197003 0.63598365 0.006836217 -0.6276387 0.27056694 -0.64697295 -0.39960992 0.7091813 -0.44885248 0.4773597 -0.8483507 -0.040544838 -0.5362658 -0.59780765 0.40639305 0.010928012 -0.08759065 -0.6081828 -0.4732844 -0.0014738794 -0.24262974 -0.086393714 -0.06402736 0.054879107 0.40663964 0.4288326 0.57132065 -0.5390602 0.30718836 0.28530234 0.06044274 -0.56898916 -0.5139773 0.17647287 0.12566537 -0.7271306 -0.24506593 0.8312591 -0.022994954 0.28502712 -0.37838078 -0.06746318 0.47630185 -0.2840577 -0.23982425 0.38432506 -0.18471965 -0.5030929 -0.4127825 -0.4516748 -0.39131966 0.6186175 -0.17241609 -1.0637393 -1.0194969 0.37296176 -0.023327395 -0.21175693 -0.43043184 -0.69807625 -0.49768054 0.20274635 0.18479946 -0.05242753 0.2127176 0.26711497 0.21640001 0.54159474 -0.39226842 0.27575412 0.24883129 -0.31608492
